<?xml version="1.0"?>
<MethodSetup Method="BDT::BDTG">
  <GeneralInfo>
    <Info name="TMVA Release" value="4.2.1 [262657]"/>
    <Info name="ROOT Release" value="6.24/07 [399367]"/>
    <Info name="Creator" value="cvico"/>
    <Info name="Date" value="Fri Nov 17 12:51:39 2023"/>
    <Info name="Host" value="Linux cmsbuild02.cern.ch 3.10.0-1160.36.2.el7.x86_64 #1 SMP Wed Jul 21 11:57:15 UTC 2021 x86_64 x86_64 x86_64 GNU/Linux"/>
    <Info name="Dir" value="/mnt_pool/c3_users/user/cvico/WorkSpace/wz-run3/release/CMSSW_12_4_12/src/CMGTools/TTHAnalysis/python/plotter/wz-run3/scripts/leptonMVA"/>
    <Info name="Training events" value="998031"/>
    <Info name="TrainingTime" value="2.64044760e+03"/>
    <Info name="AnalysisType" value="Classification"/>
  </GeneralInfo>
  <Options>
    <Option name="V" modified="Yes">False</Option>
    <Option name="VerbosityLevel" modified="No">Default</Option>
    <Option name="VarTransform" modified="No">None</Option>
    <Option name="H" modified="Yes">False</Option>
    <Option name="CreateMVAPdfs" modified="Yes">True</Option>
    <Option name="IgnoreNegWeightsInTraining" modified="No">False</Option>
    <Option name="NTrees" modified="Yes">500</Option>
    <Option name="MaxDepth" modified="Yes">8</Option>
    <Option name="MinNodeSize" modified="No">5%</Option>
    <Option name="nCuts" modified="Yes">2000</Option>
    <Option name="BoostType" modified="Yes">Grad</Option>
    <Option name="AdaBoostR2Loss" modified="No">quadratic</Option>
    <Option name="UseBaggedBoost" modified="No">False</Option>
    <Option name="Shrinkage" modified="Yes">1.000000e-01</Option>
    <Option name="AdaBoostBeta" modified="No">5.000000e-01</Option>
    <Option name="UseRandomisedTrees" modified="No">False</Option>
    <Option name="UseNvars" modified="Yes">9</Option>
    <Option name="UsePoissonNvars" modified="No">True</Option>
    <Option name="BaggedSampleFraction" modified="No">6.000000e-01</Option>
    <Option name="UseYesNoLeaf" modified="No">True</Option>
    <Option name="NegWeightTreatment" modified="No">pray</Option>
    <Option name="Css" modified="No">1.000000e+00</Option>
    <Option name="Cts_sb" modified="No">1.000000e+00</Option>
    <Option name="Ctb_ss" modified="No">1.000000e+00</Option>
    <Option name="Cbb" modified="No">1.000000e+00</Option>
    <Option name="NodePurityLimit" modified="No">5.000000e-01</Option>
    <Option name="SeparationType" modified="No">giniindex</Option>
    <Option name="RegressionLossFunctionBDTG" modified="No">huber</Option>
    <Option name="HuberQuantile" modified="No">7.000000e-01</Option>
    <Option name="DoBoostMonitor" modified="No">False</Option>
    <Option name="UseFisherCuts" modified="No">False</Option>
    <Option name="MinLinCorrForFisher" modified="No">8.000000e-01</Option>
    <Option name="UseExclusiveVars" modified="No">False</Option>
    <Option name="DoPreselection" modified="No">False</Option>
    <Option name="SigToBkgFraction" modified="No">1.000000e+00</Option>
    <Option name="PruneMethod" modified="No">nopruning</Option>
    <Option name="PruneStrength" modified="No">0.000000e+00</Option>
    <Option name="PruningValFraction" modified="No">5.000000e-01</Option>
    <Option name="SkipNormalization" modified="No">False</Option>
    <Option name="nEventsMin" modified="No">0</Option>
    <Option name="UseBaggedGrad" modified="Yes">False</Option>
    <Option name="GradBaggingFraction" modified="No">6.000000e-01</Option>
    <Option name="UseNTrainEvents" modified="No">0</Option>
    <Option name="NNodesMax" modified="No">0</Option>
  </Options>
  <Variables NVar="12">
    <Variable VarIndex="0" Expression="Electron_pt" Label="Electron_pt" Title="Electron_pt" Unit="" Internal="Electron_pt" Type="D" Min="1.00000467e+01" Max="1.47596729e+03"/>
    <Variable VarIndex="1" Expression="Electron_eta" Label="Electron_eta" Title="Electron_eta" Unit="" Internal="Electron_eta" Type="D" Min="-2.49951172e+00" Max="2.49951172e+00"/>
    <Variable VarIndex="2" Expression="Electron_pfRelIso03_all" Label="Electron_pfRelIso03_all" Title="Electron_pfRelIso03_all" Unit="" Internal="Electron_pfRelIso03_all" Type="D" Min="0.00000000e+00" Max="3.18205681e+01"/>
    <Variable VarIndex="3" Expression="Electron_miniPFRelIso_chg" Label="Electron_miniPFRelIso_chg" Title="Electron_miniPFRelIso_chg" Unit="" Internal="Electron_miniPFRelIso_chg" Type="D" Min="0.00000000e+00" Max="3.99985552e-01"/>
    <Variable VarIndex="4" Expression="Electron_miniPFRelIso_all-Electron_miniPFRelIso_chg" Label="Electron_miniRelIsoNeutral" Title="Electron_miniRelIsoNeutral" Unit="" Internal="Electron_miniRelIsoNeutral" Type="D" Min="0.00000000e+00" Max="3.99999708e-01"/>
    <Variable VarIndex="5" Expression="Electron_jetNDauCharged" Label="Electron_jetNDauCharged" Title="Electron_jetNDauCharged" Unit="" Internal="Electron_jetNDauCharged" Type="D" Min="0.00000000e+00" Max="3.70000000e+01"/>
    <Variable VarIndex="6" Expression="Electron_jetPtRelv2" Label="Electron_jetPtRelv2" Title="Electron_jetPtRelv2" Unit="" Internal="Electron_jetPtRelv2" Type="D" Min="0.00000000e+00" Max="1.90800000e+03"/>
    <Variable VarIndex="7" Expression="Electron_jetIdx&gt;-1?Jet_btagDeepFlavB[Electron_jetIdx]:0" Label="Electron_jetBTagDeepFlavB" Title="Electron_jetBTagDeepFlavB" Unit="" Internal="Electron_jetBTagDeepFlavB" Type="D" Min="0.00000000e+00" Max="9.99511719e-01"/>
    <Variable VarIndex="8" Expression="min(1/(1+Electron_jetRelIso),1.5)" Label="Electron_jetPtRatio" Title="Electron_jetPtRatio" Unit="" Internal="Electron_jetPtRatio" Type="D" Min="2.15633418e-02" Max="1.50000000e+00"/>
    <Variable VarIndex="9" Expression="Electron_sip3d" Label="Electron_sip3d" Title="Electron_sip3d" Unit="" Internal="Electron_sip3d" Type="D" Min="1.86538696e-03" Max="7.99609375e+00"/>
    <Variable VarIndex="10" Expression="log(abs(Electron_dxy))" Label="Electron_log_dxy" Title="Electron_log_dxy" Unit="" Internal="Electron_log_dxy" Type="D" Min="-1.98657017e+01" Max="-2.99597645e+00"/>
    <Variable VarIndex="11" Expression="log(abs(Electron_dz))" Label="Electron_log_dz" Title="Electron_log_dz" Unit="" Internal="Electron_log_dz" Type="D" Min="-1.93113918e+01" Max="-2.30282927e+00"/>
  </Variables>
  <Spectators NSpec="0"/>
  <Classes NClass="2">
    <Class Name="Signal" Index="0"/>
    <Class Name="Background" Index="1"/>
  </Classes>
  <Transformations NTransformations="0"/>
  <MVAPdfs>
    <PDF Name="BDTG_PDFSig" MinNSmooth="0" MaxNSmooth="0" InterpolMethod="2" KDE_type="1" KDE_iter="1" KDE_border="1" KDE_finefactor="1.0000000000000000e+00">
      <Histogram Name="BDT_tr_S_original" NBins="19960" XMin="-9.9939125776290894e-01" XMax="9.9891358613967896e-01" HasEquidistantBins="1">
        0.00000000e+00 0.00000000e+00 0.00000000e+00 0.00000000e+00 0.00000000e+00 0.00000000e+00 0.00000000e+00 0.00000000e+00 0.00000000e+00 0.00000000e+00 0.00000000e+00 0.00000000e+00 0.00000000e+00 0.00000000e+00 0.00000000e+00 0.00000000e+00 1.18746891e-02 1.18746891e-02 0.00000000e+00 1.18746891e-02 1.18746891e-02 1.18746891e-02 0.00000000e+00 0.00000000e+00 0.00000000e+00 0.00000000e+00 0.00000000e+00 4.74987565e-02 0.00000000e+00 2.37493782e-02 1.18746891e-02 1.18746891e-02 1.18746891e-02 0.00000000e+00 0.00000000e+00 1.18746891e-02 2.37493782e-02 1.18746891e-02 1.18746891e-02 0.00000000e+00 0.00000000e+00 1.18746891e-02 0.00000000e+00 0.00000000e+00 0.00000000e+00 2.37493782e-02 0.00000000e+00 1.18746891e-02 0.00000000e+00 5.93734456e-02 1.18746891e-02 1.18746891e-02 0.00000000e+00 5.93734456e-02 2.37493782e-02 3.56240674e-02 4.74987565e-02 3.56240674e-02 2.37493782e-02 2.37493782e-02 4.74987565e-02 4.74987565e-02 1.18746891e-02 1.18746891e-02 2.37493782e-02 3.56240674e-02 7.12481347e-02 1.18746891e-02 1.18746891e-02 3.56240674e-02 3.56240674e-02 5.93734456e-02 4.74987565e-02 5.93734456e-02 2.37493782e-02 3.56240674e-02 2.37493782e-02 2.37493782e-02 8.31228239e-02 2.37493782e-02 3.56240674e-02 2.37493782e-02 3.56240674e-02 1.18746891e-02 4.74987565e-02 2.37493782e-02 3.56240674e-02 2.37493782e-02 2.37493782e-02 4.74987565e-02 4.74987565e-02 2.37493782e-02 3.56240674e-02 0.00000000e+00 5.93734456e-02 7.12481347e-02 4.74987565e-02 7.12481347e-02 1.18746891e-02 5.93734456e-02 7.12481347e-02 4.74987565e-02 3.56240674e-02 4.74987565e-02 2.37493782e-02 1.18746891e-02 4.74987565e-02 3.56240674e-02 2.37493782e-02 4.74987565e-02 2.37493782e-02 4.74987565e-02 1.18746891e-02 1.06872202e-01 4.74987565e-02 7.12481347e-02 3.56240674e-02 5.93734456e-02 1.06872202e-01 4.74987565e-02 5.93734456e-02 1.06872202e-01 5.93734456e-02 4.74987565e-02 8.31228239e-02 3.56240674e-02 5.93734456e-02 3.56240674e-02 8.31228239e-02 4.74987565e-02 5.93734456e-02 3.56240674e-02 3.56240674e-02 5.93734456e-02 3.56240674e-02 4.74987565e-02 2.37493782e-02 5.93734456e-02 3.56240674e-02 5.93734456e-02 4.74987565e-02 7.12481347e-02 1.18746891e-02 7.12481347e-02 4.74987565e-02 3.56240674e-02 2.37493782e-02 9.49975130e-02 8.31228239e-02 3.56240674e-02 7.12481347e-02 4.74987565e-02 5.93734456e-02 7.12481347e-02 5.93734456e-02 4.74987565e-02 2.37493782e-02 1.18746891e-02 4.74987565e-02 4.74987565e-02 5.93734456e-02 4.74987565e-02 7.12481347e-02 9.49975130e-02 4.74987565e-02 2.37493782e-02 3.56240674e-02 3.56240674e-02 9.49975130e-02 7.12481347e-02 5.93734456e-02 7.12481347e-02 3.56240674e-02 3.56240674e-02 1.18746891e-02 9.49975130e-02 8.31228239e-02 9.49975130e-02 8.31228239e-02 7.12481347e-02 3.56240674e-02 7.12481347e-02 2.37493782e-02 1.18746891e-02 1.06872202e-01 1.06872202e-01 9.49975130e-02 7.12481347e-02 4.74987565e-02 9.49975130e-02 5.93734456e-02 8.31228239e-02 7.12481347e-02 5.93734456e-02 8.31228239e-02 9.49975130e-02 1.18746891e-01 1.18746891e-01 2.37493782e-02 1.18746891e-01 3.56240674e-02 8.31228239e-02 2.37493782e-02 5.93734456e-02 3.56240674e-02 7.12481347e-02 3.56240674e-02 3.56240674e-02 5.93734456e-02 9.49975130e-02 4.74987565e-02 5.93734456e-02 8.31228239e-02 7.12481347e-02 8.31228239e-02 8.31228239e-02 5.93734456e-02 4.74987565e-02 7.12481347e-02 7.12481347e-02 4.74987565e-02 4.74987565e-02 8.31228239e-02 8.31228239e-02 4.74987565e-02 5.93734456e-02 8.31228239e-02 1.06872202e-01 4.74987565e-02 1.06872202e-01 5.93734456e-02 1.18746891e-01 1.06872202e-01 1.18746891e-01 4.74987565e-02 2.37493782e-02 4.74987565e-02 9.49975130e-02 2.37493782e-02 4.74987565e-02 4.74987565e-02 7.12481347e-02 0.00000000e+00 7.12481347e-02 1.18746891e-01 5.93734456e-02 7.12481347e-02 3.56240674e-02 3.56240674e-02 1.06872202e-01 7.12481347e-02 9.49975130e-02 5.93734456e-02 8.31228239e-02 4.74987565e-02 1.30621580e-01 9.49975130e-02 1.30621580e-01 5.93734456e-02 1.06872202e-01 3.56240674e-02 8.31228239e-02 5.93734456e-02 4.74987565e-02 8.31228239e-02 7.12481347e-02 5.93734456e-02 4.74987565e-02 9.49975130e-02 5.93734456e-02 5.93734456e-02 1.42496269e-01 7.12481347e-02 3.56240674e-02 1.18746891e-01 1.30621580e-01 7.12481347e-02 1.18746891e-01 8.31228239e-02 8.31228239e-02 9.49975130e-02 9.49975130e-02 1.30621580e-01 2.37493782e-02 2.37493782e-02 7.12481347e-02 3.56240674e-02 1.18746891e-01 1.06872202e-01 4.74987565e-02 3.56240674e-02 4.74987565e-02 1.30621580e-01 3.56240674e-02 2.37493782e-02 4.74987565e-02 3.56240674e-02 7.12481347e-02 7.12481347e-02 9.49975130e-02 5.93734456e-02 9.49975130e-02 9.49975130e-02 4.74987565e-02 9.49975130e-02 4.74987565e-02 5.93734456e-02 3.56240674e-02 5.93734456e-02 3.56240674e-02 8.31228239e-02 5.93734456e-02 7.12481347e-02 3.56240674e-02 3.56240674e-02 1.06872202e-01 5.93734456e-02 5.93734456e-02 1.06872202e-01 9.49975130e-02 8.31228239e-02 7.12481347e-02 4.74987565e-02 8.31228239e-02 9.49975130e-02 1.06872202e-01 3.56240674e-02 8.31228239e-02 3.56240674e-02 4.74987565e-02 1.18746891e-01 3.56240674e-02 7.12481347e-02 7.12481347e-02 7.12481347e-02 1.06872202e-01 3.56240674e-02 8.31228239e-02 5.93734456e-02 4.74987565e-02 1.06872202e-01 5.93734456e-02 8.31228239e-02 5.93734456e-02 7.12481347e-02 1.06872202e-01 8.31228239e-02 8.31228239e-02 4.74987565e-02 3.56240674e-02 2.37493782e-02 9.49975130e-02 9.49975130e-02 4.74987565e-02 8.31228239e-02 1.06872202e-01 7.12481347e-02 5.93734456e-02 9.49975130e-02 2.37493782e-02 8.31228239e-02 5.93734456e-02 4.74987565e-02 7.12481347e-02 3.56240674e-02 1.18746891e-01 2.37493782e-02 1.06872202e-01 4.74987565e-02 1.18746891e-01 8.31228239e-02 8.31228239e-02 1.18746891e-01 8.31228239e-02 9.49975130e-02 3.56240674e-02 8.31228239e-02 4.74987565e-02 3.56240674e-02 5.93734456e-02 9.49975130e-02 3.56240674e-02 8.31228239e-02 9.49975130e-02 7.12481347e-02 4.74987565e-02 1.06872202e-01 9.49975130e-02 1.30621580e-01 7.12481347e-02 1.18746891e-01 2.37493782e-02 9.49975130e-02 5.93734456e-02 5.93734456e-02 1.30621580e-01 7.12481347e-02 4.74987565e-02 5.93734456e-02 1.06872202e-01 9.49975130e-02 1.18746891e-01 5.93734456e-02 7.12481347e-02 8.31228239e-02 4.74987565e-02 4.74987565e-02 8.31228239e-02 9.49975130e-02 3.56240674e-02 8.31228239e-02 8.31228239e-02 1.18746891e-01 4.74987565e-02 1.18746891e-01 8.31228239e-02 5.93734456e-02 1.42496269e-01 5.93734456e-02 4.74987565e-02 5.93734456e-02 4.74987565e-02 8.31228239e-02 9.49975130e-02 8.31228239e-02 1.06872202e-01 8.31228239e-02 5.93734456e-02 5.93734456e-02 1.42496269e-01 7.12481347e-02 9.49975130e-02 9.49975130e-02 1.06872202e-01 1.54370959e-01 9.49975130e-02 2.37493782e-02 8.31228239e-02 7.12481347e-02 3.56240674e-02 1.06872202e-01 3.56240674e-02 1.30621580e-01 1.06872202e-01 8.31228239e-02 1.18746891e-01 1.06872202e-01 7.12481347e-02 1.18746891e-01 1.06872202e-01 5.93734456e-02 4.74987565e-02 8.31228239e-02 5.93734456e-02 1.06872202e-01 1.06872202e-01 4.74987565e-02 9.49975130e-02 5.93734456e-02 5.93734456e-02 7.12481347e-02 3.56240674e-02 2.37493782e-02 4.74987565e-02 1.06872202e-01 9.49975130e-02 8.31228239e-02 8.31228239e-02 1.66245648e-01 7.12481347e-02 2.37493782e-02 7.12481347e-02 1.06872202e-01 7.12481347e-02 8.31228239e-02 1.18746891e-01 9.49975130e-02 9.49975130e-02 7.12481347e-02 7.12481347e-02 9.49975130e-02 1.06872202e-01 1.18746891e-01 1.42496269e-01 5.93734456e-02 1.18746891e-01 1.06872202e-01 1.18746891e-01 1.18746891e-01 5.93734456e-02 4.74987565e-02 4.74987565e-02 5.93734456e-02 5.93734456e-02 8.31228239e-02 3.56240674e-02 9.49975130e-02 7.12481347e-02 3.56240674e-02 1.06872202e-01 9.49975130e-02 1.18746891e-01 8.31228239e-02 1.18746891e-01 4.74987565e-02 1.18746891e-01 7.12481347e-02 8.31228239e-02 3.56240674e-02 4.74987565e-02 1.06872202e-01 9.49975130e-02 4.74987565e-02 8.31228239e-02 3.56240674e-02 2.37493782e-02 3.56240674e-02 1.30621580e-01 1.18746891e-01 3.56240674e-02 8.31228239e-02 4.74987565e-02 3.56240674e-02 4.74987565e-02 1.30621580e-01 8.31228239e-02 8.31228239e-02 5.93734456e-02 1.42496269e-01 8.31228239e-02 7.12481347e-02 1.78120337e-01 9.49975130e-02 4.74987565e-02 8.31228239e-02 1.06872202e-01 1.06872202e-01 5.93734456e-02 9.49975130e-02 5.93734456e-02 7.12481347e-02 3.56240674e-02 1.06872202e-01 9.49975130e-02 3.56240674e-02 5.93734456e-02 1.18746891e-01 8.31228239e-02 2.37493782e-02 8.31228239e-02 4.74987565e-02 5.93734456e-02 7.12481347e-02 4.74987565e-02 7.12481347e-02 1.18746891e-01 8.31228239e-02 1.18746891e-01 5.93734456e-02 1.30621580e-01 1.06872202e-01 8.31228239e-02 7.12481347e-02 4.74987565e-02 5.93734456e-02 7.12481347e-02 1.06872202e-01 4.74987565e-02 8.31228239e-02 9.49975130e-02 4.74987565e-02 4.74987565e-02 1.18746891e-01 9.49975130e-02 1.18746891e-01 7.12481347e-02 1.18746891e-01 1.30621580e-01 1.18746891e-01 5.93734456e-02 4.74987565e-02 9.49975130e-02 8.31228239e-02 4.74987565e-02 1.30621580e-01 3.56240674e-02 3.56240674e-02 8.31228239e-02 1.06872202e-01 4.74987565e-02 5.93734456e-02 7.12481347e-02 1.30621580e-01 1.06872202e-01 4.74987565e-02 4.74987565e-02 8.31228239e-02 1.30621580e-01 1.42496269e-01 9.49975130e-02 4.74987565e-02 9.49975130e-02 3.56240674e-02 8.31228239e-02 2.37493782e-02 7.12481347e-02 1.30621580e-01 9.49975130e-02 5.93734456e-02 4.74987565e-02 5.93734456e-02 8.31228239e-02 8.31228239e-02 5.93734456e-02 1.06872202e-01 8.31228239e-02 9.49975130e-02 3.56240674e-02 8.31228239e-02 8.31228239e-02 1.06872202e-01 1.06872202e-01 3.56240674e-02 1.06872202e-01 7.12481347e-02 8.31228239e-02 1.30621580e-01 7.12481347e-02 5.93734456e-02 8.31228239e-02 7.12481347e-02 5.93734456e-02 1.06872202e-01 8.31228239e-02 1.18746891e-01 1.18746891e-02 5.93734456e-02 5.93734456e-02 8.31228239e-02 1.06872202e-01 1.18746891e-01 9.49975130e-02 8.31228239e-02 9.49975130e-02 1.18746891e-01 1.54370959e-01 7.12481347e-02 5.93734456e-02 1.18746891e-01 7.12481347e-02 4.74987565e-02 1.06872202e-01 1.06872202e-01 5.93734456e-02 7.12481347e-02 7.12481347e-02 5.93734456e-02 3.56240674e-02 1.06872202e-01 4.74987565e-02 2.37493782e-02 9.49975130e-02 1.18746891e-01 8.31228239e-02 1.66245648e-01 7.12481347e-02 4.74987565e-02 7.12481347e-02 1.06872202e-01 8.31228239e-02 7.12481347e-02 1.30621580e-01 1.18746891e-01 4.74987565e-02 1.42496269e-01 1.30621580e-01 5.93734456e-02 7.12481347e-02 4.74987565e-02 8.31228239e-02 9.49975130e-02 5.93734456e-02 7.12481347e-02 8.31228239e-02 1.42496269e-01 8.31228239e-02 7.12481347e-02 9.49975130e-02 7.12481347e-02 1.54370959e-01 7.12481347e-02 4.74987565e-02 4.74987565e-02 1.18746891e-01 8.31228239e-02 7.12481347e-02 9.49975130e-02 9.49975130e-02 9.49975130e-02 2.37493782e-02 7.12481347e-02 1.06872202e-01 8.31228239e-02 9.49975130e-02 1.06872202e-01 1.06872202e-01 5.93734456e-02 8.31228239e-02 8.31228239e-02 8.31228239e-02 9.49975130e-02 3.56240674e-02 4.74987565e-02 1.18746891e-01 7.12481347e-02 9.49975130e-02 1.18746891e-01 8.31228239e-02 2.37493782e-02 5.93734456e-02 5.93734456e-02 9.49975130e-02 7.12481347e-02 1.42496269e-01 5.93734456e-02 1.18746891e-01 7.12481347e-02 8.31228239e-02 7.12481347e-02 1.54370959e-01 1.06872202e-01 1.06872202e-01 9.49975130e-02 1.42496269e-01 7.12481347e-02 1.18746891e-01 1.06872202e-01 4.74987565e-02 3.56240674e-02 5.93734456e-02 7.12481347e-02 4.74987565e-02 1.89995026e-01 5.93734456e-02 9.49975130e-02 5.93734456e-02 5.93734456e-02 9.49975130e-02 1.18746891e-01 9.49975130e-02 4.74987565e-02 9.49975130e-02 8.31228239e-02 1.06872202e-01 9.49975130e-02 4.74987565e-02 4.74987565e-02 7.12481347e-02 7.12481347e-02 7.12481347e-02 5.93734456e-02 1.66245648e-01 8.31228239e-02 8.31228239e-02 1.30621580e-01 1.18746891e-01 7.12481347e-02 9.49975130e-02 5.93734456e-02 1.18746891e-02 7.12481347e-02 5.93734456e-02 5.93734456e-02 8.31228239e-02 1.18746891e-01 3.56240674e-02 7.12481347e-02 9.49975130e-02 1.06872202e-01 8.31228239e-02 4.74987565e-02 4.74987565e-02 3.56240674e-02 1.18746891e-01 5.93734456e-02 5.93734456e-02 8.31228239e-02 8.31228239e-02 1.42496269e-01 8.31228239e-02 7.12481347e-02 5.93734456e-02 1.30621580e-01 8.31228239e-02 2.37493782e-02 1.18746891e-01 1.06872202e-01 7.12481347e-02 7.12481347e-02 1.06872202e-01 7.12481347e-02 4.74987565e-02 1.18746891e-01 1.06872202e-01 4.74987565e-02 5.93734456e-02 4.74987565e-02 8.31228239e-02 3.56240674e-02 8.31228239e-02 8.31228239e-02 5.93734456e-02 1.18746891e-01 5.93734456e-02 8.31228239e-02 8.31228239e-02 4.74987565e-02 9.49975130e-02 8.31228239e-02 8.31228239e-02 5.93734456e-02 7.12481347e-02 1.42496269e-01 2.37493782e-02 9.49975130e-02 9.49975130e-02 7.12481347e-02 1.30621580e-01 3.56240674e-02 9.49975130e-02 1.06872202e-01 1.18746891e-01 9.49975130e-02 9.49975130e-02 7.12481347e-02 7.12481347e-02 9.49975130e-02 5.93734456e-02 1.06872202e-01 1.06872202e-01 1.18746891e-01 1.78120337e-01 5.93734456e-02 7.12481347e-02 1.18746891e-01 3.56240674e-02 7.12481347e-02 7.12481347e-02 9.49975130e-02 8.31228239e-02 9.49975130e-02 8.31228239e-02 1.06872202e-01 4.74987565e-02 8.31228239e-02 3.56240674e-02 9.49975130e-02 3.56240674e-02 4.74987565e-02 4.74987565e-02 1.06872202e-01 8.31228239e-02 1.18746891e-01 9.49975130e-02 7.12481347e-02 8.31228239e-02 9.49975130e-02 5.93734456e-02 4.74987565e-02 3.56240674e-02 8.31228239e-02 9.49975130e-02 3.56240674e-02 3.56240674e-02 1.06872202e-01 7.12481347e-02 8.31228239e-02 8.31228239e-02 3.56240674e-02 7.12481347e-02 8.31228239e-02 4.74987565e-02 4.74987565e-02 1.18746891e-01 8.31228239e-02 5.93734456e-02 4.74987565e-02 9.49975130e-02 9.49975130e-02 1.42496269e-01 7.12481347e-02 7.12481347e-02 8.31228239e-02 5.93734456e-02 8.31228239e-02 5.93734456e-02 1.30621580e-01 7.12481347e-02 5.93734456e-02 1.18746891e-01 4.74987565e-02 5.93734456e-02 8.31228239e-02 5.93734456e-02 5.93734456e-02 1.06872202e-01 8.31228239e-02 4.74987565e-02 8.31228239e-02 8.31228239e-02 1.06872202e-01 9.49975130e-02 1.18746891e-01 5.93734456e-02 3.56240674e-02 9.49975130e-02 7.12481347e-02 4.74987565e-02 9.49975130e-02 4.74987565e-02 1.18746891e-01 1.54370959e-01 8.31228239e-02 8.31228239e-02 9.49975130e-02 8.31228239e-02 7.12481347e-02 3.56240674e-02 7.12481347e-02 8.31228239e-02 8.31228239e-02 1.18746891e-01 8.31228239e-02 8.31228239e-02 1.42496269e-01 8.31228239e-02 3.56240674e-02 1.18746891e-01 8.31228239e-02 1.30621580e-01 9.49975130e-02 9.49975130e-02 7.12481347e-02 7.12481347e-02 1.06872202e-01 3.56240674e-02 1.18746891e-02 1.30621580e-01 5.93734456e-02 1.06872202e-01 9.49975130e-02 4.74987565e-02 8.31228239e-02 7.12481347e-02 5.93734456e-02 4.74987565e-02 1.06872202e-01 1.06872202e-01 3.56240674e-02 3.56240674e-02 1.18746891e-01 5.93734456e-02 9.49975130e-02 5.93734456e-02 9.49975130e-02 1.06872202e-01 3.56240674e-02 5.93734456e-02 4.74987565e-02 9.49975130e-02 1.54370959e-01 8.31228239e-02 3.56240674e-02 7.12481347e-02 9.49975130e-02 7.12481347e-02 8.31228239e-02 5.93734456e-02 2.37493782e-02 2.37493782e-02 4.74987565e-02 1.06872202e-01 2.37493782e-02 9.49975130e-02 1.30621580e-01 7.12481347e-02 1.42496269e-01 7.12481347e-02 1.06872202e-01 4.74987565e-02 8.31228239e-02 5.93734456e-02 1.18746891e-01 5.93734456e-02 9.49975130e-02 3.56240674e-02 7.12481347e-02 9.49975130e-02 7.12481347e-02 7.12481347e-02 5.93734456e-02 7.12481347e-02 9.49975130e-02 1.66245648e-01 3.56240674e-02 1.30621580e-01 8.31228239e-02 1.18746891e-01 7.12481347e-02 3.56240674e-02 7.12481347e-02 7.12481347e-02 9.49975130e-02 1.54370959e-01 1.18746891e-01 7.12481347e-02 5.93734456e-02 8.31228239e-02 7.12481347e-02 7.12481347e-02 1.18746891e-01 1.06872202e-01 8.31228239e-02 4.74987565e-02 8.31228239e-02 9.49975130e-02 9.49975130e-02 2.37493782e-02 7.12481347e-02 8.31228239e-02 9.49975130e-02 1.30621580e-01 7.12481347e-02 5.93734456e-02 7.12481347e-02 7.12481347e-02 7.12481347e-02 3.56240674e-02 4.74987565e-02 5.93734456e-02 3.56240674e-02 1.30621580e-01 4.74987565e-02 8.31228239e-02 5.93734456e-02 7.12481347e-02 1.66245648e-01 8.31228239e-02 4.74987565e-02 7.12481347e-02 9.49975130e-02 1.30621580e-01 8.31228239e-02 1.18746891e-01 1.78120337e-01 9.49975130e-02 1.54370959e-01 2.37493782e-02 8.31228239e-02 5.93734456e-02 8.31228239e-02 4.74987565e-02 5.93734456e-02 1.18746891e-01 9.49975130e-02 8.31228239e-02 7.12481347e-02 1.66245648e-01 5.93734456e-02 1.18746891e-01 4.74987565e-02 1.18746891e-01 1.42496269e-01 5.93734456e-02 8.31228239e-02 9.49975130e-02 4.74987565e-02 9.49975130e-02 9.49975130e-02 9.49975130e-02 7.12481347e-02 9.49975130e-02 1.18746891e-01 4.74987565e-02 7.12481347e-02 9.49975130e-02 1.42496269e-01 1.18746891e-01 4.74987565e-02 5.93734456e-02 7.12481347e-02 8.31228239e-02 4.74987565e-02 1.06872202e-01 1.42496269e-01 7.12481347e-02 7.12481347e-02 4.74987565e-02 8.31228239e-02 9.49975130e-02 7.12481347e-02 1.30621580e-01 1.18746891e-01 1.18746891e-01 5.93734456e-02 1.18746891e-01 1.06872202e-01 1.30621580e-01 1.06872202e-01 5.93734456e-02 1.06872202e-01 5.93734456e-02 5.93734456e-02 7.12481347e-02 1.30621580e-01 5.93734456e-02 7.12481347e-02 4.74987565e-02 5.93734456e-02 5.93734456e-02 7.12481347e-02 7.12481347e-02 9.49975130e-02 9.49975130e-02 8.31228239e-02 1.06872202e-01 8.31228239e-02 4.74987565e-02 1.18746891e-01 1.06872202e-01 9.49975130e-02 5.93734456e-02 4.74987565e-02 1.06872202e-01 1.06872202e-01 7.12481347e-02 8.31228239e-02 5.93734456e-02 8.31228239e-02 9.49975130e-02 1.06872202e-01 5.93734456e-02 9.49975130e-02 2.37493782e-02 8.31228239e-02 8.31228239e-02 9.49975130e-02 8.31228239e-02 7.12481347e-02 1.18746891e-01 1.18746891e-01 2.37493782e-02 7.12481347e-02 4.74987565e-02 8.31228239e-02 4.74987565e-02 4.74987565e-02 8.31228239e-02 4.74987565e-02 3.56240674e-02 1.42496269e-01 8.31228239e-02 5.93734456e-02 9.49975130e-02 7.12481347e-02 9.49975130e-02 4.74987565e-02 7.12481347e-02 7.12481347e-02 8.31228239e-02 4.74987565e-02 7.12481347e-02 1.42496269e-01 9.49975130e-02 7.12481347e-02 4.74987565e-02 1.18746891e-01 2.37493782e-02 8.31228239e-02 4.74987565e-02 7.12481347e-02 8.31228239e-02 5.93734456e-02 1.54370959e-01 4.74987565e-02 9.49975130e-02 1.18746891e-01 8.31228239e-02 1.06872202e-01 9.49975130e-02 2.37493782e-02 8.31228239e-02 1.06872202e-01 1.06872202e-01 4.74987565e-02 7.12481347e-02 1.18746891e-01 1.06872202e-01 1.18746891e-01 7.12481347e-02 4.74987565e-02 1.18746891e-01 5.93734456e-02 1.42496269e-01 4.74987565e-02 1.06872202e-01 8.31228239e-02 7.12481347e-02 9.49975130e-02 5.93734456e-02 8.31228239e-02 1.54370959e-01 4.74987565e-02 2.37493782e-02 5.93734456e-02 4.74987565e-02 1.18746891e-01 8.31228239e-02 5.93734456e-02 1.06872202e-01 1.18746891e-01 9.49975130e-02 4.74987565e-02 1.18746891e-01 4.74987565e-02 5.93734456e-02 5.93734456e-02 8.31228239e-02 1.06872202e-01 5.93734456e-02 8.31228239e-02 4.74987565e-02 9.49975130e-02 7.12481347e-02 5.93734456e-02 5.93734456e-02 1.06872202e-01 8.31228239e-02 7.12481347e-02 5.93734456e-02 1.42496269e-01 1.18746891e-01 9.49975130e-02 7.12481347e-02 3.56240674e-02 1.30621580e-01 8.31228239e-02 8.31228239e-02 8.31228239e-02 9.49975130e-02 7.12481347e-02 5.93734456e-02 7.12481347e-02 3.56240674e-02 8.31228239e-02 5.93734456e-02 8.31228239e-02 5.93734456e-02 1.06872202e-01 8.31228239e-02 7.12481347e-02 7.12481347e-02 1.06872202e-01 7.12481347e-02 3.56240674e-02 8.31228239e-02 4.74987565e-02 4.74987565e-02 4.74987565e-02 5.93734456e-02 7.12481347e-02 5.93734456e-02 7.12481347e-02 9.49975130e-02 1.18746891e-01 7.12481347e-02 5.93734456e-02 5.93734456e-02 8.31228239e-02 8.31228239e-02 1.30621580e-01 7.12481347e-02 7.12481347e-02 8.31228239e-02 7.12481347e-02 8.31228239e-02 1.18746891e-01 1.66245648e-01 4.74987565e-02 1.06872202e-01 7.12481347e-02 5.93734456e-02 4.74987565e-02 5.93734456e-02 1.30621580e-01 9.49975130e-02 1.06872202e-01 1.30621580e-01 7.12481347e-02 5.93734456e-02 4.74987565e-02 1.54370959e-01 3.56240674e-02 1.18746891e-01 1.06872202e-01 5.93734456e-02 8.31228239e-02 1.06872202e-01 4.74987565e-02 2.37493782e-02 1.18746891e-01 5.93734456e-02 7.12481347e-02 2.37493782e-02 7.12481347e-02 5.93734456e-02 4.74987565e-02 8.31228239e-02 5.93734456e-02 1.18746891e-01 1.18746891e-01 2.37493782e-02 8.31228239e-02 1.42496269e-01 1.18746891e-01 8.31228239e-02 1.42496269e-01 3.56240674e-02 5.93734456e-02 2.37493782e-02 8.31228239e-02 5.93734456e-02 3.56240674e-02 1.06872202e-01 3.56240674e-02 5.93734456e-02 7.12481347e-02 5.93734456e-02 1.06872202e-01 9.49975130e-02 5.93734456e-02 2.37493782e-02 9.49975130e-02 4.74987565e-02 1.18746891e-01 4.74987565e-02 7.12481347e-02 7.12481347e-02 8.31228239e-02 9.49975130e-02 9.49975130e-02 4.74987565e-02 4.74987565e-02 7.12481347e-02 9.49975130e-02 4.74987565e-02 4.74987565e-02 2.37493782e-02 5.93734456e-02 8.31228239e-02 4.74987565e-02 7.12481347e-02 3.56240674e-02 4.74987565e-02 2.37493782e-02 8.31228239e-02 4.74987565e-02 5.93734456e-02 7.12481347e-02 2.37493782e-02 1.54370959e-01 1.18746891e-01 8.31228239e-02 7.12481347e-02 5.93734456e-02 1.18746891e-01 1.30621580e-01 9.49975130e-02 1.06872202e-01 7.12481347e-02 9.49975130e-02 9.49975130e-02 5.93734456e-02 1.06872202e-01 9.49975130e-02 7.12481347e-02 8.31228239e-02 1.18746891e-01 1.06872202e-01 4.74987565e-02 8.31228239e-02 1.42496269e-01 5.93734456e-02 1.30621580e-01 1.06872202e-01 4.74987565e-02 7.12481347e-02 8.31228239e-02 1.42496269e-01 1.18746891e-01 4.74987565e-02 5.93734456e-02 8.31228239e-02 9.49975130e-02 9.49975130e-02 7.12481347e-02 4.74987565e-02 9.49975130e-02 1.06872202e-01 3.56240674e-02 8.31228239e-02 7.12481347e-02 5.93734456e-02 8.31228239e-02 1.06872202e-01 7.12481347e-02 1.30621580e-01 3.56240674e-02 8.31228239e-02 7.12481347e-02 1.18746891e-01 1.18746891e-01 7.12481347e-02 1.18746891e-01 3.56240674e-02 9.49975130e-02 8.31228239e-02 9.49975130e-02 1.30621580e-01 1.18746891e-01 1.30621580e-01 1.06872202e-01 4.74987565e-02 1.06872202e-01 5.93734456e-02 2.37493782e-02 9.49975130e-02 1.06872202e-01 4.74987565e-02 8.31228239e-02 4.74987565e-02 4.74987565e-02 4.74987565e-02 9.49975130e-02 7.12481347e-02 7.12481347e-02 5.93734456e-02 3.56240674e-02 9.49975130e-02 5.93734456e-02 1.18746891e-01 1.42496269e-01 8.31228239e-02 5.93734456e-02 1.06872202e-01 7.12481347e-02 1.42496269e-01 7.12481347e-02 7.12481347e-02 4.74987565e-02 8.31228239e-02 7.12481347e-02 5.93734456e-02 1.18746891e-01 5.93734456e-02 4.74987565e-02 7.12481347e-02 7.12481347e-02 1.06872202e-01 8.31228239e-02 8.31228239e-02 1.30621580e-01 3.56240674e-02 9.49975130e-02 3.56240674e-02 1.06872202e-01 5.93734456e-02 2.37493782e-02 5.93734456e-02 1.30621580e-01 1.06872202e-01 8.31228239e-02 8.31228239e-02 3.56240674e-02 7.12481347e-02 8.31228239e-02 7.12481347e-02 3.56240674e-02 5.93734456e-02 5.93734456e-02 7.12481347e-02 8.31228239e-02 1.06872202e-01 2.37493782e-02 1.66245648e-01 5.93734456e-02 9.49975130e-02 5.93734456e-02 8.31228239e-02 8.31228239e-02 1.06872202e-01 1.06872202e-01 4.74987565e-02 5.93734456e-02 8.31228239e-02 8.31228239e-02 1.30621580e-01 4.74987565e-02 1.42496269e-01 4.74987565e-02 7.12481347e-02 7.12481347e-02 3.56240674e-02 4.74987565e-02 8.31228239e-02 4.74987565e-02 2.37493782e-02 5.93734456e-02 8.31228239e-02 1.06872202e-01 1.30621580e-01 3.56240674e-02 1.06872202e-01 7.12481347e-02 4.74987565e-02 2.37493782e-02 1.30621580e-01 9.49975130e-02 0.00000000e+00 1.06872202e-01 8.31228239e-02 7.12481347e-02 8.31228239e-02 5.93734456e-02 8.31228239e-02 1.06872202e-01 7.12481347e-02 5.93734456e-02 9.49975130e-02 1.18746891e-01 7.12481347e-02 9.49975130e-02 9.49975130e-02 5.93734456e-02 5.93734456e-02 8.31228239e-02 4.74987565e-02 7.12481347e-02 1.30621580e-01 9.49975130e-02 4.74987565e-02 8.31228239e-02 7.12481347e-02 8.31228239e-02 8.31228239e-02 4.74987565e-02 8.31228239e-02 9.49975130e-02 7.12481347e-02 3.56240674e-02 4.74987565e-02 4.74987565e-02 9.49975130e-02 1.89995026e-01 9.49975130e-02 1.18746891e-01 1.06872202e-01 7.12481347e-02 8.31228239e-02 9.49975130e-02 1.30621580e-01 1.18746891e-01 8.31228239e-02 1.18746891e-02 9.49975130e-02 1.18746891e-02 1.18746891e-01 1.42496269e-01 9.49975130e-02 7.12481347e-02 1.06872202e-01 8.31228239e-02 4.74987565e-02 4.74987565e-02 8.31228239e-02 7.12481347e-02 4.74987565e-02 1.18746891e-02 1.06872202e-01 8.31228239e-02 1.18746891e-01 4.74987565e-02 7.12481347e-02 8.31228239e-02 1.06872202e-01 7.12481347e-02 8.31228239e-02 7.12481347e-02 1.18746891e-01 5.93734456e-02 4.74987565e-02 3.56240674e-02 5.93734456e-02 1.06872202e-01 7.12481347e-02 1.54370959e-01 7.12481347e-02 1.18746891e-01 8.31228239e-02 1.06872202e-01 3.56240674e-02 4.74987565e-02 8.31228239e-02 8.31228239e-02 8.31228239e-02 7.12481347e-02 5.93734456e-02 7.12481347e-02 5.93734456e-02 8.31228239e-02 8.31228239e-02 4.74987565e-02 9.49975130e-02 1.30621580e-01 1.30621580e-01 3.56240674e-02 5.93734456e-02 1.06872202e-01 7.12481347e-02 8.31228239e-02 4.74987565e-02 1.06872202e-01 8.31228239e-02 1.18746891e-01 8.31228239e-02 3.56240674e-02 5.93734456e-02 5.93734456e-02 8.31228239e-02 7.12481347e-02 8.31228239e-02 1.06872202e-01 7.12481347e-02 9.49975130e-02 7.12481347e-02 9.49975130e-02 4.74987565e-02 0.00000000e+00 7.12481347e-02 1.06872202e-01 1.18746891e-01 8.31228239e-02 1.06872202e-01 8.31228239e-02 4.74987565e-02 7.12481347e-02 1.18746891e-01 5.93734456e-02 1.42496269e-01 5.93734456e-02 8.31228239e-02 7.12481347e-02 8.31228239e-02 7.12481347e-02 1.30621580e-01 1.78120337e-01 1.06872202e-01 7.12481347e-02 8.31228239e-02 7.12481347e-02 5.93734456e-02 1.18746891e-02 9.49975130e-02 1.18746891e-01 1.18746891e-01 9.49975130e-02 5.93734456e-02 3.56240674e-02 4.74987565e-02 8.31228239e-02 7.12481347e-02 4.74987565e-02 3.56240674e-02 8.31228239e-02 8.31228239e-02 9.49975130e-02 1.42496269e-01 3.56240674e-02 5.93734456e-02 1.30621580e-01 7.12481347e-02 3.56240674e-02 8.31228239e-02 8.31228239e-02 2.37493782e-02 8.31228239e-02 5.93734456e-02 8.31228239e-02 8.31228239e-02 1.18746891e-01 8.31228239e-02 5.93734456e-02 4.74987565e-02 4.74987565e-02 7.12481347e-02 3.56240674e-02 5.93734456e-02 5.93734456e-02 8.31228239e-02 2.37493782e-02 7.12481347e-02 1.06872202e-01 4.74987565e-02 1.06872202e-01 9.49975130e-02 3.56240674e-02 9.49975130e-02 9.49975130e-02 7.12481347e-02 4.74987565e-02 8.31228239e-02 3.56240674e-02 5.93734456e-02 7.12481347e-02 8.31228239e-02 1.06872202e-01 8.31228239e-02 3.56240674e-02 7.12481347e-02 5.93734456e-02 8.31228239e-02 8.31228239e-02 8.31228239e-02 7.12481347e-02 9.49975130e-02 7.12481347e-02 8.31228239e-02 9.49975130e-02 7.12481347e-02 9.49975130e-02 1.18746891e-01 1.06872202e-01 5.93734456e-02 3.56240674e-02 4.74987565e-02 7.12481347e-02 8.31228239e-02 4.74987565e-02 8.31228239e-02 3.56240674e-02 1.54370959e-01 9.49975130e-02 4.74987565e-02 3.56240674e-02 1.18746891e-01 9.49975130e-02 7.12481347e-02 5.93734456e-02 9.49975130e-02 8.31228239e-02 3.56240674e-02 7.12481347e-02 5.93734456e-02 1.18746891e-01 9.49975130e-02 3.56240674e-02 9.49975130e-02 7.12481347e-02 4.74987565e-02 1.06872202e-01 4.74987565e-02 9.49975130e-02 5.93734456e-02 2.37493782e-02 8.31228239e-02 1.18746891e-01 2.37493782e-02 5.93734456e-02 9.49975130e-02 7.12481347e-02 8.31228239e-02 7.12481347e-02 3.56240674e-02 7.12481347e-02 9.49975130e-02 5.93734456e-02 7.12481347e-02 1.30621580e-01 1.18746891e-01 5.93734456e-02 3.56240674e-02 9.49975130e-02 1.18746891e-01 1.06872202e-01 9.49975130e-02 1.30621580e-01 4.74987565e-02 1.30621580e-01 9.49975130e-02 5.93734456e-02 1.06872202e-01 8.31228239e-02 5.93734456e-02 3.56240674e-02 3.56240674e-02 5.93734456e-02 1.30621580e-01 4.74987565e-02 1.30621580e-01 9.49975130e-02 7.12481347e-02 1.18746891e-01 7.12481347e-02 8.31228239e-02 7.12481347e-02 1.30621580e-01 5.93734456e-02 7.12481347e-02 1.06872202e-01 5.93734456e-02 9.49975130e-02 3.56240674e-02 1.18746891e-01 4.74987565e-02 7.12481347e-02 1.06872202e-01 9.49975130e-02 3.56240674e-02 9.49975130e-02 4.74987565e-02 4.74987565e-02 1.30621580e-01 1.18746891e-01 1.18746891e-01 5.93734456e-02 8.31228239e-02 1.54370959e-01 9.49975130e-02 5.93734456e-02 8.31228239e-02 4.74987565e-02 5.93734456e-02 9.49975130e-02 1.18746891e-01 2.37493782e-02 2.37493782e-02 5.93734456e-02 4.74987565e-02 9.49975130e-02 8.31228239e-02 3.56240674e-02 1.18746891e-01 4.74987565e-02 8.31228239e-02 8.31228239e-02 8.31228239e-02 4.74987565e-02 5.93734456e-02 3.56240674e-02 5.93734456e-02 7.12481347e-02 9.49975130e-02 7.12481347e-02 7.12481347e-02 5.93734456e-02 4.74987565e-02 1.06872202e-01 3.56240674e-02 9.49975130e-02 7.12481347e-02 4.74987565e-02 5.93734456e-02 4.74987565e-02 4.74987565e-02 5.93734456e-02 1.54370959e-01 8.31228239e-02 5.93734456e-02 7.12481347e-02 9.49975130e-02 1.06872202e-01 1.18746891e-01 8.31228239e-02 1.06872202e-01 5.93734456e-02 7.12481347e-02 3.56240674e-02 8.31228239e-02 1.42496269e-01 8.31228239e-02 7.12481347e-02 9.49975130e-02 8.31228239e-02 1.18746891e-01 9.49975130e-02 2.37493782e-02 5.93734456e-02 7.12481347e-02 4.74987565e-02 1.18746891e-01 4.74987565e-02 1.06872202e-01 7.12481347e-02 2.37493782e-02 9.49975130e-02 5.93734456e-02 1.06872202e-01 4.74987565e-02 1.42496269e-01 1.30621580e-01 5.93734456e-02 4.74987565e-02 5.93734456e-02 4.74987565e-02 4.74987565e-02 9.49975130e-02 8.31228239e-02 7.12481347e-02 1.30621580e-01 9.49975130e-02 2.37493782e-02 7.12481347e-02 9.49975130e-02 9.49975130e-02 8.31228239e-02 5.93734456e-02 9.49975130e-02 9.49975130e-02 5.93734456e-02 7.12481347e-02 8.31228239e-02 4.74987565e-02 8.31228239e-02 9.49975130e-02 8.31228239e-02 3.56240674e-02 1.18746891e-01 7.12481347e-02 1.30621580e-01 4.74987565e-02 3.56240674e-02 7.12481347e-02 3.56240674e-02 1.06872202e-01 5.93734456e-02 7.12481347e-02 7.12481347e-02 1.30621580e-01 1.06872202e-01 7.12481347e-02 9.49975130e-02 8.31228239e-02 9.49975130e-02 1.54370959e-01 8.31228239e-02 1.18746891e-01 1.18746891e-02 8.31228239e-02 1.54370959e-01 7.12481347e-02 7.12481347e-02 4.74987565e-02 8.31228239e-02 9.49975130e-02 7.12481347e-02 9.49975130e-02 4.74987565e-02 5.93734456e-02 9.49975130e-02 1.06872202e-01 2.37493782e-02 1.06872202e-01 1.54370959e-01 5.93734456e-02 4.74987565e-02 1.06872202e-01 9.49975130e-02 3.56240674e-02 1.18746891e-01 9.49975130e-02 4.74987565e-02 7.12481347e-02 7.12481347e-02 8.31228239e-02 8.31228239e-02 9.49975130e-02 9.49975130e-02 5.93734456e-02 3.56240674e-02 5.93734456e-02 1.06872202e-01 3.56240674e-02 3.56240674e-02 1.18746891e-01 3.56240674e-02 9.49975130e-02 1.18746891e-02 1.30621580e-01 8.31228239e-02 1.06872202e-01 4.74987565e-02 1.06872202e-01 4.74987565e-02 7.12481347e-02 4.74987565e-02 4.74987565e-02 4.74987565e-02 9.49975130e-02 1.18746891e-01 1.54370959e-01 5.93734456e-02 4.74987565e-02 7.12481347e-02 3.56240674e-02 7.12481347e-02 7.12481347e-02 4.74987565e-02 5.93734456e-02 9.49975130e-02 4.74987565e-02 8.31228239e-02 4.74987565e-02 8.31228239e-02 4.74987565e-02 1.18746891e-01 1.30621580e-01 1.06872202e-01 4.74987565e-02 5.93734456e-02 8.31228239e-02 1.66245648e-01 5.93734456e-02 1.06872202e-01 5.93734456e-02 4.74987565e-02 1.18746891e-01 7.12481347e-02 9.49975130e-02 1.06872202e-01 7.12481347e-02 3.56240674e-02 4.74987565e-02 4.74987565e-02 1.30621580e-01 7.12481347e-02 1.06872202e-01 9.49975130e-02 7.12481347e-02 7.12481347e-02 1.06872202e-01 4.74987565e-02 7.12481347e-02 1.18746891e-01 8.31228239e-02 2.37493782e-02 8.31228239e-02 8.31228239e-02 1.18746891e-01 9.49975130e-02 9.49975130e-02 7.12481347e-02 7.12481347e-02 1.18746891e-01 8.31228239e-02 9.49975130e-02 1.18746891e-01 8.31228239e-02 1.06872202e-01 5.93734456e-02 8.31228239e-02 7.12481347e-02 4.74987565e-02 7.12481347e-02 7.12481347e-02 8.31228239e-02 3.56240674e-02 1.18746891e-01 1.30621580e-01 1.30621580e-01 5.93734456e-02 8.31228239e-02 1.18746891e-01 4.74987565e-02 9.49975130e-02 1.18746891e-01 5.93734456e-02 1.30621580e-01 3.56240674e-02 9.49975130e-02 5.93734456e-02 9.49975130e-02 1.18746891e-01 7.12481347e-02 8.31228239e-02 5.93734456e-02 8.31228239e-02 4.74987565e-02 1.18746891e-01 1.18746891e-01 4.74987565e-02 3.56240674e-02 4.74987565e-02 8.31228239e-02 9.49975130e-02 1.78120337e-01 7.12481347e-02 3.56240674e-02 7.12481347e-02 8.31228239e-02 3.56240674e-02 1.06872202e-01 8.31228239e-02 9.49975130e-02 8.31228239e-02 7.12481347e-02 5.93734456e-02 5.93734456e-02 1.06872202e-01 7.12481347e-02 9.49975130e-02 9.49975130e-02 8.31228239e-02 7.12481347e-02 5.93734456e-02 1.06872202e-01 5.93734456e-02 9.49975130e-02 4.74987565e-02 9.49975130e-02 4.74987565e-02 4.74987565e-02 9.49975130e-02 5.93734456e-02 1.06872202e-01 9.49975130e-02 8.31228239e-02 5.93734456e-02 7.12481347e-02 8.31228239e-02 4.74987565e-02 5.93734456e-02 1.18746891e-01 4.74987565e-02 3.56240674e-02 1.30621580e-01 5.93734456e-02 8.31228239e-02 3.56240674e-02 1.18746891e-01 2.37493782e-02 9.49975130e-02 7.12481347e-02 1.06872202e-01 9.49975130e-02 8.31228239e-02 7.12481347e-02 2.01869715e-01 7.12481347e-02 5.93734456e-02 1.06872202e-01 4.74987565e-02 3.56240674e-02 7.12481347e-02 1.06872202e-01 9.49975130e-02 9.49975130e-02 1.54370959e-01 3.56240674e-02 8.31228239e-02 4.74987565e-02 5.93734456e-02 8.31228239e-02 1.06872202e-01 7.12481347e-02 1.30621580e-01 8.31228239e-02 9.49975130e-02 7.12481347e-02 8.31228239e-02 7.12481347e-02 7.12481347e-02 9.49975130e-02 5.93734456e-02 7.12481347e-02 8.31228239e-02 1.06872202e-01 7.12481347e-02 8.31228239e-02 1.18746891e-02 4.74987565e-02 9.49975130e-02 1.06872202e-01 7.12481347e-02 1.42496269e-01 7.12481347e-02 3.56240674e-02 7.12481347e-02 9.49975130e-02 7.12481347e-02 4.74987565e-02 5.93734456e-02 5.93734456e-02 1.30621580e-01 8.31228239e-02 7.12481347e-02 8.31228239e-02 8.31228239e-02 5.93734456e-02 7.12481347e-02 3.56240674e-02 9.49975130e-02 8.31228239e-02 1.30621580e-01 3.56240674e-02 9.49975130e-02 5.93734456e-02 9.49975130e-02 7.12481347e-02 8.31228239e-02 7.12481347e-02 3.56240674e-02 1.18746891e-01 7.12481347e-02 3.56240674e-02 3.56240674e-02 7.12481347e-02 7.12481347e-02 5.93734456e-02 9.49975130e-02 5.93734456e-02 8.31228239e-02 4.74987565e-02 2.37493782e-02 8.31228239e-02 2.37493782e-02 5.93734456e-02 8.31228239e-02 1.06872202e-01 5.93734456e-02 4.74987565e-02 3.56240674e-02 7.12481347e-02 9.49975130e-02 4.74987565e-02 7.12481347e-02 8.31228239e-02 8.31228239e-02 5.93734456e-02 1.18746891e-01 2.37493782e-02 5.93734456e-02 5.93734456e-02 1.06872202e-01 1.18746891e-01 1.66245648e-01 1.42496269e-01 9.49975130e-02 9.49975130e-02 8.31228239e-02 1.06872202e-01 5.93734456e-02 5.93734456e-02 7.12481347e-02 2.37493782e-02 5.93734456e-02 4.74987565e-02 1.06872202e-01 8.31228239e-02 1.54370959e-01 7.12481347e-02 1.18746891e-01 4.74987565e-02 1.06872202e-01 1.06872202e-01 5.93734456e-02 4.74987565e-02 5.93734456e-02 1.30621580e-01 5.93734456e-02 1.06872202e-01 5.93734456e-02 9.49975130e-02 1.89995026e-01 4.74987565e-02 1.06872202e-01 8.31228239e-02 8.31228239e-02 8.31228239e-02 8.31228239e-02 1.06872202e-01 7.12481347e-02 4.74987565e-02 8.31228239e-02 1.06872202e-01 8.31228239e-02 5.93734456e-02 9.49975130e-02 8.31228239e-02 9.49975130e-02 9.49975130e-02 4.74987565e-02 4.74987565e-02 9.49975130e-02 7.12481347e-02 1.30621580e-01 7.12481347e-02 4.74987565e-02 4.74987565e-02 5.93734456e-02 3.56240674e-02 4.74987565e-02 9.49975130e-02 4.74987565e-02 5.93734456e-02 1.06872202e-01 1.30621580e-01 1.06872202e-01 3.56240674e-02 7.12481347e-02 7.12481347e-02 9.49975130e-02 3.56240674e-02 9.49975130e-02 4.74987565e-02 3.56240674e-02 3.56240674e-02 1.06872202e-01 1.18746891e-02 4.74987565e-02 9.49975130e-02 9.49975130e-02 1.42496269e-01 4.74987565e-02 9.49975130e-02 1.06872202e-01 3.56240674e-02 1.30621580e-01 3.56240674e-02 7.12481347e-02 7.12481347e-02 5.93734456e-02 8.31228239e-02 7.12481347e-02 7.12481347e-02 9.49975130e-02 4.74987565e-02 5.93734456e-02 9.49975130e-02 1.30621580e-01 3.56240674e-02 4.74987565e-02 9.49975130e-02 4.74987565e-02 7.12481347e-02 7.12481347e-02 4.74987565e-02 1.18746891e-01 1.18746891e-02 9.49975130e-02 5.93734456e-02 5.93734456e-02 9.49975130e-02 1.18746891e-01 7.12481347e-02 1.54370959e-01 8.31228239e-02 4.74987565e-02 5.93734456e-02 7.12481347e-02 7.12481347e-02 7.12481347e-02 9.49975130e-02 7.12481347e-02 8.31228239e-02 1.06872202e-01 4.74987565e-02 7.12481347e-02 7.12481347e-02 3.56240674e-02 1.06872202e-01 1.18746891e-01 5.93734456e-02 5.93734456e-02 5.93734456e-02 2.37493782e-02 7.12481347e-02 7.12481347e-02 8.31228239e-02 9.49975130e-02 8.31228239e-02 8.31228239e-02 9.49975130e-02 8.31228239e-02 5.93734456e-02 7.12481347e-02 5.93734456e-02 7.12481347e-02 7.12481347e-02 4.74987565e-02 1.18746891e-01 5.93734456e-02 1.78120337e-01 7.12481347e-02 7.12481347e-02 1.06872202e-01 5.93734456e-02 1.42496269e-01 5.93734456e-02 9.49975130e-02 3.56240674e-02 4.74987565e-02 4.74987565e-02 5.93734456e-02 5.93734456e-02 7.12481347e-02 3.56240674e-02 1.06872202e-01 1.30621580e-01 9.49975130e-02 1.18746891e-01 8.31228239e-02 3.56240674e-02 5.93734456e-02 1.06872202e-01 1.06872202e-01 2.37493782e-02 9.49975130e-02 7.12481347e-02 1.66245648e-01 1.30621580e-01 4.74987565e-02 9.49975130e-02 5.93734456e-02 9.49975130e-02 8.31228239e-02 9.49975130e-02 9.49975130e-02 2.37493782e-02 5.93734456e-02 1.30621580e-01 5.93734456e-02 1.06872202e-01 1.06872202e-01 1.18746891e-01 5.93734456e-02 1.18746891e-01 1.18746891e-02 8.31228239e-02 1.06872202e-01 4.74987565e-02 7.12481347e-02 2.37493782e-02 9.49975130e-02 9.49975130e-02 4.74987565e-02 5.93734456e-02 9.49975130e-02 8.31228239e-02 8.31228239e-02 1.06872202e-01 8.31228239e-02 4.74987565e-02 4.74987565e-02 1.06872202e-01 9.49975130e-02 1.89995026e-01 4.74987565e-02 8.31228239e-02 8.31228239e-02 9.49975130e-02 5.93734456e-02 1.30621580e-01 1.06872202e-01 8.31228239e-02 9.49975130e-02 5.93734456e-02 7.12481347e-02 9.49975130e-02 1.06872202e-01 5.93734456e-02 1.42496269e-01 5.93734456e-02 2.37493782e-02 7.12481347e-02 1.18746891e-01 2.37493782e-02 3.56240674e-02 7.12481347e-02 5.93734456e-02 9.49975130e-02 1.18746891e-01 8.31228239e-02 9.49975130e-02 1.06872202e-01 1.18746891e-01 9.49975130e-02 8.31228239e-02 5.93734456e-02 7.12481347e-02 1.18746891e-01 2.37493782e-02 3.56240674e-02 8.31228239e-02 3.56240674e-02 1.06872202e-01 2.37493782e-02 5.93734456e-02 7.12481347e-02 4.74987565e-02 9.49975130e-02 7.12481347e-02 7.12481347e-02 7.12481347e-02 4.74987565e-02 1.18746891e-01 5.93734456e-02 4.74987565e-02 2.37493782e-02 8.31228239e-02 7.12481347e-02 1.18746891e-01 1.54370959e-01 3.56240674e-02 8.31228239e-02 9.49975130e-02 7.12481347e-02 9.49975130e-02 1.18746891e-01 9.49975130e-02 5.93734456e-02 5.93734456e-02 8.31228239e-02 1.06872202e-01 1.30621580e-01 4.74987565e-02 1.30621580e-01 1.06872202e-01 1.06872202e-01 9.49975130e-02 7.12481347e-02 9.49975130e-02 9.49975130e-02 5.93734456e-02 8.31228239e-02 8.31228239e-02 8.31228239e-02 4.74987565e-02 7.12481347e-02 5.93734456e-02 8.31228239e-02 9.49975130e-02 7.12481347e-02 9.49975130e-02 9.49975130e-02 1.06872202e-01 9.49975130e-02 4.74987565e-02 3.56240674e-02 4.74987565e-02 5.93734456e-02 7.12481347e-02 7.12481347e-02 5.93734456e-02 9.49975130e-02 1.18746891e-01 1.06872202e-01 1.18746891e-01 3.56240674e-02 9.49975130e-02 3.56240674e-02 5.93734456e-02 4.74987565e-02 5.93734456e-02 9.49975130e-02 9.49975130e-02 8.31228239e-02 1.06872202e-01 9.49975130e-02 5.93734456e-02 9.49975130e-02 8.31228239e-02 7.12481347e-02 1.06872202e-01 7.12481347e-02 8.31228239e-02 1.30621580e-01 7.12481347e-02 3.56240674e-02 3.56240674e-02 5.93734456e-02 5.93734456e-02 1.06872202e-01 8.31228239e-02 3.56240674e-02 9.49975130e-02 3.56240674e-02 2.37493782e-02 4.74987565e-02 9.49975130e-02 5.93734456e-02 3.56240674e-02 5.93734456e-02 4.74987565e-02 1.30621580e-01 1.30621580e-01 8.31228239e-02 7.12481347e-02 9.49975130e-02 7.12481347e-02 1.06872202e-01 9.49975130e-02 7.12481347e-02 1.06872202e-01 8.31228239e-02 9.49975130e-02 2.37493782e-02 1.18746891e-01 5.93734456e-02 9.49975130e-02 7.12481347e-02 7.12481347e-02 5.93734456e-02 1.30621580e-01 4.74987565e-02 7.12481347e-02 8.31228239e-02 5.93734456e-02 3.56240674e-02 9.49975130e-02 4.74987565e-02 8.31228239e-02 9.49975130e-02 8.31228239e-02 7.12481347e-02 1.42496269e-01 8.31228239e-02 9.49975130e-02 8.31228239e-02 4.74987565e-02 7.12481347e-02 1.06872202e-01 5.93734456e-02 7.12481347e-02 9.49975130e-02 5.93734456e-02 9.49975130e-02 1.06872202e-01 5.93734456e-02 5.93734456e-02 1.30621580e-01 4.74987565e-02 1.30621580e-01 4.74987565e-02 1.06872202e-01 1.18746891e-01 3.56240674e-02 3.56240674e-02 9.49975130e-02 5.93734456e-02 7.12481347e-02 7.12481347e-02 8.31228239e-02 8.31228239e-02 8.31228239e-02 1.06872202e-01 1.42496269e-01 7.12481347e-02 7.12481347e-02 7.12481347e-02 5.93734456e-02 7.12481347e-02 1.06872202e-01 7.12481347e-02 8.31228239e-02 7.12481347e-02 1.18746891e-01 9.49975130e-02 7.12481347e-02 8.31228239e-02 7.12481347e-02 1.18746891e-01 7.12481347e-02 5.93734456e-02 9.49975130e-02 5.93734456e-02 1.18746891e-01 1.06872202e-01 4.74987565e-02 9.49975130e-02 8.31228239e-02 8.31228239e-02 4.74987565e-02 7.12481347e-02 1.18746891e-02 4.74987565e-02 7.12481347e-02 7.12481347e-02 5.93734456e-02 7.12481347e-02 3.56240674e-02 7.12481347e-02 7.12481347e-02 1.18746891e-01 7.12481347e-02 8.31228239e-02 8.31228239e-02 1.30621580e-01 3.56240674e-02 1.18746891e-02 7.12481347e-02 9.49975130e-02 7.12481347e-02 7.12481347e-02 9.49975130e-02 5.93734456e-02 2.37493782e-02 2.37493782e-02 2.37493782e-02 2.37493782e-02 3.56240674e-02 9.49975130e-02 1.06872202e-01 1.30621580e-01 5.93734456e-02 7.12481347e-02 5.93734456e-02 5.93734456e-02 9.49975130e-02 2.37493782e-02 1.18746891e-01 7.12481347e-02 7.12481347e-02 7.12481347e-02 1.06872202e-01 1.18746891e-01 8.31228239e-02 5.93734456e-02 7.12481347e-02 1.18746891e-01 7.12481347e-02 5.93734456e-02 5.93734456e-02 7.12481347e-02 5.93734456e-02 1.18746891e-01 7.12481347e-02 9.49975130e-02 1.06872202e-01 9.49975130e-02 8.31228239e-02 5.93734456e-02 4.74987565e-02 4.74987565e-02 7.12481347e-02 7.12481347e-02 2.37493782e-02 8.31228239e-02 5.93734456e-02 3.56240674e-02 4.74987565e-02 4.74987565e-02 4.74987565e-02 9.49975130e-02 1.42496269e-01 7.12481347e-02 5.93734456e-02 7.12481347e-02 7.12481347e-02 2.37493782e-02 5.93734456e-02 9.49975130e-02 8.31228239e-02 7.12481347e-02 8.31228239e-02 1.06872202e-01 8.31228239e-02 4.74987565e-02 7.12481347e-02 8.31228239e-02 8.31228239e-02 1.18746891e-01 1.30621580e-01 1.42496269e-01 1.06872202e-01 5.93734456e-02 8.31228239e-02 7.12481347e-02 7.12481347e-02 4.74987565e-02 1.06872202e-01 4.74987565e-02 9.49975130e-02 3.56240674e-02 9.49975130e-02 9.49975130e-02 5.93734456e-02 8.31228239e-02 4.74987565e-02 2.37493782e-02 4.74987565e-02 7.12481347e-02 2.37493782e-02 4.74987565e-02 1.42496269e-01 4.74987565e-02 7.12481347e-02 1.18746891e-01 1.06872202e-01 9.49975130e-02 4.74987565e-02 1.18746891e-01 7.12481347e-02 8.31228239e-02 9.49975130e-02 8.31228239e-02 7.12481347e-02 7.12481347e-02 2.37493782e-02 8.31228239e-02 1.06872202e-01 5.93734456e-02 9.49975130e-02 5.93734456e-02 1.18746891e-01 3.56240674e-02 1.54370959e-01 9.49975130e-02 5.93734456e-02 4.74987565e-02 7.12481347e-02 8.31228239e-02 1.06872202e-01 5.93734456e-02 9.49975130e-02 5.93734456e-02 9.49975130e-02 4.74987565e-02 7.12481347e-02 9.49975130e-02 9.49975130e-02 5.93734456e-02 5.93734456e-02 8.31228239e-02 8.31228239e-02 4.74987565e-02 4.74987565e-02 5.93734456e-02 1.30621580e-01 8.31228239e-02 1.18746891e-01 7.12481347e-02 4.74987565e-02 5.93734456e-02 7.12481347e-02 5.93734456e-02 5.93734456e-02 5.93734456e-02 8.31228239e-02 5.93734456e-02 1.18746891e-01 9.49975130e-02 7.12481347e-02 1.18746891e-01 5.93734456e-02 7.12481347e-02 9.49975130e-02 7.12481347e-02 5.93734456e-02 4.74987565e-02 9.49975130e-02 1.06872202e-01 5.93734456e-02 1.66245648e-01 1.18746891e-01 8.31228239e-02 9.49975130e-02 1.06872202e-01 1.54370959e-01 1.18746891e-01 3.56240674e-02 2.37493782e-02 5.93734456e-02 8.31228239e-02 8.31228239e-02 3.56240674e-02 1.54370959e-01 4.74987565e-02 5.93734456e-02 8.31228239e-02 8.31228239e-02 9.49975130e-02 9.49975130e-02 9.49975130e-02 8.31228239e-02 7.12481347e-02 8.31228239e-02 5.93734456e-02 2.37493782e-02 1.06872202e-01 9.49975130e-02 7.12481347e-02 8.31228239e-02 7.12481347e-02 9.49975130e-02 9.49975130e-02 4.74987565e-02 7.12481347e-02 1.30621580e-01 4.74987565e-02 8.31228239e-02 7.12481347e-02 8.31228239e-02 7.12481347e-02 1.06872202e-01 7.12481347e-02 4.74987565e-02 5.93734456e-02 1.42496269e-01 1.06872202e-01 3.56240674e-02 4.74987565e-02 7.12481347e-02 1.06872202e-01 4.74987565e-02 2.37493782e-02 5.93734456e-02 8.31228239e-02 4.74987565e-02 1.66245648e-01 4.74987565e-02 4.74987565e-02 9.49975130e-02 8.31228239e-02 1.06872202e-01 8.31228239e-02 7.12481347e-02 8.31228239e-02 8.31228239e-02 5.93734456e-02 1.30621580e-01 8.31228239e-02 8.31228239e-02 7.12481347e-02 7.12481347e-02 9.49975130e-02 5.93734456e-02 5.93734456e-02 5.93734456e-02 1.30621580e-01 1.06872202e-01 8.31228239e-02 8.31228239e-02 3.56240674e-02 3.56240674e-02 1.06872202e-01 1.18746891e-01 9.49975130e-02 8.31228239e-02 4.74987565e-02 8.31228239e-02 5.93734456e-02 7.12481347e-02 2.37493782e-02 1.42496269e-01 8.31228239e-02 1.18746891e-01 8.31228239e-02 7.12481347e-02 7.12481347e-02 4.74987565e-02 4.74987565e-02 7.12481347e-02 2.37493782e-02 7.12481347e-02 4.74987565e-02 1.06872202e-01 1.18746891e-01 5.93734456e-02 3.56240674e-02 9.49975130e-02 3.56240674e-02 8.31228239e-02 9.49975130e-02 9.49975130e-02 9.49975130e-02 4.74987565e-02 9.49975130e-02 7.12481347e-02 8.31228239e-02 2.37493782e-02 3.56240674e-02 8.31228239e-02 2.37493782e-02 8.31228239e-02 8.31228239e-02 8.31228239e-02 9.49975130e-02 5.93734456e-02 8.31228239e-02 8.31228239e-02 4.74987565e-02 9.49975130e-02 5.93734456e-02 8.31228239e-02 1.18746891e-01 8.31228239e-02 9.49975130e-02 1.30621580e-01 2.37493782e-02 4.74987565e-02 1.30621580e-01 3.56240674e-02 3.56240674e-02 5.93734456e-02 5.93734456e-02 1.06872202e-01 7.12481347e-02 1.06872202e-01 3.56240674e-02 8.31228239e-02 1.06872202e-01 8.31228239e-02 9.49975130e-02 4.74987565e-02 9.49975130e-02 5.93734456e-02 3.56240674e-02 1.18746891e-02 7.12481347e-02 4.74987565e-02 9.49975130e-02 9.49975130e-02 3.56240674e-02 8.31228239e-02 7.12481347e-02 7.12481347e-02 5.93734456e-02 1.66245648e-01 7.12481347e-02 4.74987565e-02 5.93734456e-02 5.93734456e-02 9.49975130e-02 1.30621580e-01 8.31228239e-02 3.56240674e-02 9.49975130e-02 1.30621580e-01 1.42496269e-01 4.74987565e-02 7.12481347e-02 1.30621580e-01 8.31228239e-02 5.93734456e-02 9.49975130e-02 1.18746891e-01 9.49975130e-02 4.74987565e-02 7.12481347e-02 7.12481347e-02 5.93734456e-02 2.37493782e-02 1.30621580e-01 4.74987565e-02 5.93734456e-02 5.93734456e-02 8.31228239e-02 1.06872202e-01 7.12481347e-02 8.31228239e-02 1.06872202e-01 2.37493782e-02 7.12481347e-02 9.49975130e-02 7.12481347e-02 5.93734456e-02 7.12481347e-02 1.30621580e-01 0.00000000e+00 1.18746891e-02 4.74987565e-02 8.31228239e-02 5.93734456e-02 1.18746891e-01 3.56240674e-02 9.49975130e-02 1.06872202e-01 5.93734456e-02 8.31228239e-02 4.74987565e-02 1.18746891e-01 5.93734456e-02 7.12481347e-02 1.06872202e-01 7.12481347e-02 9.49975130e-02 1.18746891e-01 8.31228239e-02 7.12481347e-02 9.49975130e-02 3.56240674e-02 2.37493782e-02 2.37493782e-02 1.06872202e-01 5.93734456e-02 1.06872202e-01 4.74987565e-02 8.31228239e-02 4.74987565e-02 9.49975130e-02 8.31228239e-02 8.31228239e-02 4.74987565e-02 8.31228239e-02 7.12481347e-02 2.37493782e-02 1.18746891e-01 8.31228239e-02 4.74987565e-02 9.49975130e-02 7.12481347e-02 3.56240674e-02 1.30621580e-01 9.49975130e-02 1.06872202e-01 8.31228239e-02 8.31228239e-02 8.31228239e-02 9.49975130e-02 2.37493782e-02 2.37493782e-02 9.49975130e-02 1.18746891e-01 7.12481347e-02 5.93734456e-02 1.06872202e-01 5.93734456e-02 1.06872202e-01 3.56240674e-02 8.31228239e-02 8.31228239e-02 1.06872202e-01 9.49975130e-02 5.93734456e-02 4.74987565e-02 7.12481347e-02 4.74987565e-02 9.49975130e-02 8.31228239e-02 8.31228239e-02 5.93734456e-02 9.49975130e-02 4.74987565e-02 9.49975130e-02 5.93734456e-02 4.74987565e-02 5.93734456e-02 9.49975130e-02 9.49975130e-02 9.49975130e-02 7.12481347e-02 5.93734456e-02 7.12481347e-02 8.31228239e-02 9.49975130e-02 4.74987565e-02 1.18746891e-01 1.18746891e-02 8.31228239e-02 9.49975130e-02 9.49975130e-02 8.31228239e-02 7.12481347e-02 1.06872202e-01 5.93734456e-02 8.31228239e-02 4.74987565e-02 9.49975130e-02 1.06872202e-01 1.18746891e-01 9.49975130e-02 3.56240674e-02 8.31228239e-02 5.93734456e-02 3.56240674e-02 3.56240674e-02 8.31228239e-02 1.30621580e-01 1.06872202e-01 2.37493782e-02 1.30621580e-01 0.00000000e+00 1.18746891e-01 3.56240674e-02 9.49975130e-02 8.31228239e-02 4.74987565e-02 4.74987565e-02 8.31228239e-02 8.31228239e-02 8.31228239e-02 1.30621580e-01 2.37493782e-02 5.93734456e-02 7.12481347e-02 2.37493782e-02 7.12481347e-02 8.31228239e-02 4.74987565e-02 7.12481347e-02 8.31228239e-02 3.56240674e-02 5.93734456e-02 3.56240674e-02 3.56240674e-02 3.56240674e-02 5.93734456e-02 9.49975130e-02 2.37493782e-02 7.12481347e-02 4.74987565e-02 7.12481347e-02 7.12481347e-02 7.12481347e-02 7.12481347e-02 9.49975130e-02 1.42496269e-01 7.12481347e-02 7.12481347e-02 1.18746891e-01 8.31228239e-02 7.12481347e-02 7.12481347e-02 7.12481347e-02 1.18746891e-01 1.06872202e-01 5.93734456e-02 4.74987565e-02 9.49975130e-02 8.31228239e-02 1.06872202e-01 8.31228239e-02 2.37493782e-02 7.12481347e-02 4.74987565e-02 1.06872202e-01 4.74987565e-02 8.31228239e-02 3.56240674e-02 4.74987565e-02 3.56240674e-02 7.12481347e-02 2.37493782e-02 8.31228239e-02 7.12481347e-02 1.30621580e-01 1.30621580e-01 1.06872202e-01 8.31228239e-02 1.30621580e-01 3.56240674e-02 8.31228239e-02 8.31228239e-02 1.42496269e-01 8.31228239e-02 7.12481347e-02 1.18746891e-01 7.12481347e-02 1.30621580e-01 3.56240674e-02 9.49975130e-02 1.18746891e-01 4.74987565e-02 4.74987565e-02 4.74987565e-02 1.06872202e-01 7.12481347e-02 8.31228239e-02 7.12481347e-02 8.31228239e-02 7.12481347e-02 8.31228239e-02 1.06872202e-01 7.12481347e-02 1.18746891e-01 7.12481347e-02 9.49975130e-02 1.18746891e-02 9.49975130e-02 1.06872202e-01 5.93734456e-02 1.06872202e-01 5.93734456e-02 7.12481347e-02 9.49975130e-02 7.12481347e-02 1.06872202e-01 1.18746891e-01 9.49975130e-02 5.93734456e-02 4.74987565e-02 7.12481347e-02 1.18746891e-01 3.56240674e-02 7.12481347e-02 7.12481347e-02 3.56240674e-02 8.31228239e-02 8.31228239e-02 3.56240674e-02 4.74987565e-02 1.18746891e-01 2.37493782e-02 7.12481347e-02 7.12481347e-02 7.12481347e-02 1.66245648e-01 3.56240674e-02 4.74987565e-02 9.49975130e-02 5.93734456e-02 7.12481347e-02 9.49975130e-02 9.49975130e-02 5.93734456e-02 4.74987565e-02 1.06872202e-01 7.12481347e-02 1.18746891e-01 8.31228239e-02 3.56240674e-02 8.31228239e-02 3.56240674e-02 5.93734456e-02 9.49975130e-02 1.06872202e-01 9.49975130e-02 5.93734456e-02 7.12481347e-02 9.49975130e-02 8.31228239e-02 1.06872202e-01 5.93734456e-02 1.06872202e-01 7.12481347e-02 5.93734456e-02 4.74987565e-02 9.49975130e-02 4.74987565e-02 5.93734456e-02 9.49975130e-02 8.31228239e-02 1.18746891e-02 4.74987565e-02 3.56240674e-02 0.00000000e+00 7.12481347e-02 7.12481347e-02 5.93734456e-02 7.12481347e-02 3.56240674e-02 9.49975130e-02 5.93734456e-02 1.06872202e-01 5.93734456e-02 7.12481347e-02 9.49975130e-02 8.31228239e-02 4.74987565e-02 4.74987565e-02 7.12481347e-02 3.56240674e-02 1.18746891e-01 1.18746891e-01 1.18746891e-01 9.49975130e-02 8.31228239e-02 1.06872202e-01 8.31228239e-02 1.06872202e-01 5.93734456e-02 8.31228239e-02 1.30621580e-01 4.74987565e-02 9.49975130e-02 7.12481347e-02 3.56240674e-02 1.54370959e-01 7.12481347e-02 1.18746891e-01 4.74987565e-02 9.49975130e-02 1.30621580e-01 7.12481347e-02 1.06872202e-01 1.66245648e-01 1.06872202e-01 1.18746891e-01 4.74987565e-02 9.49975130e-02 9.49975130e-02 4.74987565e-02 8.31228239e-02 7.12481347e-02 8.31228239e-02 5.93734456e-02 2.37493782e-02 3.56240674e-02 4.74987565e-02 7.12481347e-02 7.12481347e-02 7.12481347e-02 7.12481347e-02 7.12481347e-02 1.06872202e-01 8.31228239e-02 4.74987565e-02 7.12481347e-02 4.74987565e-02 1.06872202e-01 2.37493782e-02 1.18746891e-01 2.37493782e-02 8.31228239e-02 5.93734456e-02 7.12481347e-02 7.12481347e-02 7.12481347e-02 9.49975130e-02 5.93734456e-02 7.12481347e-02 7.12481347e-02 8.31228239e-02 1.18746891e-01 5.93734456e-02 9.49975130e-02 2.37493782e-02 9.49975130e-02 5.93734456e-02 8.31228239e-02 7.12481347e-02 7.12481347e-02 1.18746891e-01 8.31228239e-02 5.93734456e-02 5.93734456e-02 1.18746891e-01 3.56240674e-02 8.31228239e-02 1.06872202e-01 1.06872202e-01 5.93734456e-02 4.74987565e-02 1.06872202e-01 9.49975130e-02 8.31228239e-02 1.06872202e-01 5.93734456e-02 4.74987565e-02 9.49975130e-02 5.93734456e-02 1.06872202e-01 7.12481347e-02 9.49975130e-02 9.49975130e-02 8.31228239e-02 7.12481347e-02 4.74987565e-02 5.93734456e-02 7.12481347e-02 7.12481347e-02 1.89995026e-01 8.31228239e-02 1.06872202e-01 1.18746891e-01 9.49975130e-02 1.18746891e-01 1.18746891e-01 5.93734456e-02 1.18746891e-01 1.54370959e-01 7.12481347e-02 8.31228239e-02 5.93734456e-02 4.74987565e-02 1.06872202e-01 3.56240674e-02 1.06872202e-01 9.49975130e-02 1.06872202e-01 1.06872202e-01 9.49975130e-02 4.74987565e-02 9.49975130e-02 5.93734456e-02 8.31228239e-02 5.93734456e-02 4.74987565e-02 7.12481347e-02 8.31228239e-02 7.12481347e-02 5.93734456e-02 1.54370959e-01 1.06872202e-01 4.74987565e-02 8.31228239e-02 9.49975130e-02 5.93734456e-02 1.66245648e-01 9.49975130e-02 8.31228239e-02 1.42496269e-01 5.93734456e-02 7.12481347e-02 8.31228239e-02 8.31228239e-02 4.74987565e-02 7.12481347e-02 7.12481347e-02 7.12481347e-02 1.18746891e-01 3.56240674e-02 8.31228239e-02 1.42496269e-01 1.54370959e-01 8.31228239e-02 9.49975130e-02 4.74987565e-02 4.74987565e-02 7.12481347e-02 2.37493782e-02 8.31228239e-02 5.93734456e-02 8.31228239e-02 7.12481347e-02 8.31228239e-02 7.12481347e-02 1.30621580e-01 4.74987565e-02 3.56240674e-02 8.31228239e-02 8.31228239e-02 9.49975130e-02 4.74987565e-02 1.06872202e-01 9.49975130e-02 4.74987565e-02 3.56240674e-02 4.74987565e-02 7.12481347e-02 5.93734456e-02 3.56240674e-02 4.74987565e-02 5.93734456e-02 2.37493782e-02 8.31228239e-02 8.31228239e-02 3.56240674e-02 1.42496269e-01 8.31228239e-02 1.42496269e-01 8.31228239e-02 9.49975130e-02 1.18746891e-01 7.12481347e-02 9.49975130e-02 1.18746891e-01 7.12481347e-02 7.12481347e-02 1.18746891e-01 9.49975130e-02 7.12481347e-02 7.12481347e-02 7.12481347e-02 7.12481347e-02 7.12481347e-02 7.12481347e-02 9.49975130e-02 4.74987565e-02 4.74987565e-02 9.49975130e-02 9.49975130e-02 1.42496269e-01 2.37493782e-02 7.12481347e-02 2.37493782e-02 4.74987565e-02 1.06872202e-01 5.93734456e-02 7.12481347e-02 1.42496269e-01 3.56240674e-02 4.74987565e-02 9.49975130e-02 9.49975130e-02 5.93734456e-02 1.06872202e-01 1.30621580e-01 8.31228239e-02 5.93734456e-02 8.31228239e-02 9.49975130e-02 4.74987565e-02 1.06872202e-01 4.74987565e-02 7.12481347e-02 7.12481347e-02 9.49975130e-02 8.31228239e-02 4.74987565e-02 4.74987565e-02 1.18746891e-01 9.49975130e-02 8.31228239e-02 7.12481347e-02 9.49975130e-02 4.74987565e-02 3.56240674e-02 8.31228239e-02 8.31228239e-02 8.31228239e-02 1.54370959e-01 7.12481347e-02 7.12481347e-02 8.31228239e-02 8.31228239e-02 5.93734456e-02 7.12481347e-02 7.12481347e-02 8.31228239e-02 4.74987565e-02 7.12481347e-02 4.74987565e-02 7.12481347e-02 7.12481347e-02 8.31228239e-02 7.12481347e-02 8.31228239e-02 9.49975130e-02 8.31228239e-02 5.93734456e-02 5.93734456e-02 7.12481347e-02 8.31228239e-02 3.56240674e-02 4.74987565e-02 7.12481347e-02 4.74987565e-02 9.49975130e-02 1.18746891e-01 1.06872202e-01 5.93734456e-02 7.12481347e-02 7.12481347e-02 1.30621580e-01 7.12481347e-02 7.12481347e-02 7.12481347e-02 9.49975130e-02 7.12481347e-02 4.74987565e-02 7.12481347e-02 2.37493782e-02 4.74987565e-02 8.31228239e-02 7.12481347e-02 1.54370959e-01 5.93734456e-02 9.49975130e-02 9.49975130e-02 5.93734456e-02 9.49975130e-02 3.56240674e-02 3.56240674e-02 9.49975130e-02 1.06872202e-01 1.30621580e-01 8.31228239e-02 4.74987565e-02 7.12481347e-02 5.93734456e-02 8.31228239e-02 1.18746891e-01 7.12481347e-02 5.93734456e-02 1.06872202e-01 7.12481347e-02 1.42496269e-01 4.74987565e-02 9.49975130e-02 3.56240674e-02 1.06872202e-01 5.93734456e-02 7.12481347e-02 4.74987565e-02 4.74987565e-02 4.74987565e-02 9.49975130e-02 1.06872202e-01 3.56240674e-02 7.12481347e-02 9.49975130e-02 8.31228239e-02 1.06872202e-01 9.49975130e-02 1.30621580e-01 5.93734456e-02 2.37493782e-02 9.49975130e-02 1.30621580e-01 7.12481347e-02 4.74987565e-02 5.93734456e-02 7.12481347e-02 4.74987565e-02 1.18746891e-02 1.30621580e-01 8.31228239e-02 8.31228239e-02 7.12481347e-02 3.56240674e-02 1.18746891e-01 5.93734456e-02 7.12481347e-02 4.74987565e-02 8.31228239e-02 5.93734456e-02 8.31228239e-02 9.49975130e-02 3.56240674e-02 7.12481347e-02 9.49975130e-02 4.74987565e-02 1.06872202e-01 1.42496269e-01 1.30621580e-01 9.49975130e-02 8.31228239e-02 5.93734456e-02 7.12481347e-02 7.12481347e-02 5.93734456e-02 4.74987565e-02 1.18746891e-01 9.49975130e-02 4.74987565e-02 5.93734456e-02 4.74987565e-02 7.12481347e-02 8.31228239e-02 4.74987565e-02 8.31228239e-02 9.49975130e-02 7.12481347e-02 3.56240674e-02 3.56240674e-02 9.49975130e-02 7.12481347e-02 8.31228239e-02 3.56240674e-02 9.49975130e-02 7.12481347e-02 7.12481347e-02 9.49975130e-02 3.56240674e-02 8.31228239e-02 7.12481347e-02 3.56240674e-02 4.74987565e-02 7.12481347e-02 7.12481347e-02 7.12481347e-02 3.56240674e-02 2.01869715e-01 5.93734456e-02 1.30621580e-01 8.31228239e-02 2.37493782e-02 7.12481347e-02 1.30621580e-01 5.93734456e-02 5.93734456e-02 1.06872202e-01 5.93734456e-02 5.93734456e-02 8.31228239e-02 3.56240674e-02 5.93734456e-02 1.18746891e-01 5.93734456e-02 1.30621580e-01 2.37493782e-02 7.12481347e-02 5.93734456e-02 8.31228239e-02 5.93734456e-02 1.18746891e-01 9.49975130e-02 4.74987565e-02 7.12481347e-02 5.93734456e-02 1.06872202e-01 7.12481347e-02 1.30621580e-01 1.06872202e-01 3.56240674e-02 1.06872202e-01 8.31228239e-02 9.49975130e-02 9.49975130e-02 8.31228239e-02 5.93734456e-02 1.06872202e-01 3.56240674e-02 3.56240674e-02 8.31228239e-02 5.93734456e-02 7.12481347e-02 5.93734456e-02 9.49975130e-02 1.18746891e-01 4.74987565e-02 1.18746891e-01 1.06872202e-01 8.31228239e-02 1.06872202e-01 5.93734456e-02 4.74987565e-02 7.12481347e-02 1.06872202e-01 1.18746891e-01 1.30621580e-01 1.18746891e-01 1.18746891e-01 9.49975130e-02 7.12481347e-02 1.06872202e-01 7.12481347e-02 5.93734456e-02 8.31228239e-02 9.49975130e-02 9.49975130e-02 7.12481347e-02 1.30621580e-01 1.06872202e-01 8.31228239e-02 2.37493782e-02 2.37493782e-02 8.31228239e-02 1.18746891e-02 1.18746891e-01 1.42496269e-01 1.30621580e-01 1.30621580e-01 9.49975130e-02 1.54370959e-01 5.93734456e-02 8.31228239e-02 1.06872202e-01 1.06872202e-01 1.06872202e-01 1.06872202e-01 4.74987565e-02 8.31228239e-02 5.93734456e-02 4.74987565e-02 3.56240674e-02 9.49975130e-02 9.49975130e-02 1.06872202e-01 7.12481347e-02 7.12481347e-02 4.74987565e-02 7.12481347e-02 7.12481347e-02 1.18746891e-01 8.31228239e-02 9.49975130e-02 1.30621580e-01 1.30621580e-01 1.06872202e-01 3.56240674e-02 1.06872202e-01 5.93734456e-02 1.06872202e-01 8.31228239e-02 5.93734456e-02 1.18746891e-01 8.31228239e-02 9.49975130e-02 5.93734456e-02 1.30621580e-01 7.12481347e-02 1.54370959e-01 8.31228239e-02 8.31228239e-02 5.93734456e-02 1.18746891e-01 3.56240674e-02 9.49975130e-02 7.12481347e-02 3.56240674e-02 1.06872202e-01 7.12481347e-02 8.31228239e-02 7.12481347e-02 1.06872202e-01 1.18746891e-01 8.31228239e-02 9.49975130e-02 7.12481347e-02 7.12481347e-02 5.93734456e-02 7.12481347e-02 4.74987565e-02 1.06872202e-01 1.06872202e-01 9.49975130e-02 4.74987565e-02 5.93734456e-02 7.12481347e-02 3.56240674e-02 2.37493782e-02 8.31228239e-02 9.49975130e-02 9.49975130e-02 7.12481347e-02 5.93734456e-02 9.49975130e-02 5.93734456e-02 7.12481347e-02 3.56240674e-02 8.31228239e-02 8.31228239e-02 8.31228239e-02 7.12481347e-02 7.12481347e-02 4.74987565e-02 1.06872202e-01 2.37493782e-02 3.56240674e-02 7.12481347e-02 1.06872202e-01 9.49975130e-02 7.12481347e-02 1.06872202e-01 3.56240674e-02 5.93734456e-02 4.74987565e-02 9.49975130e-02 7.12481347e-02 3.56240674e-02 8.31228239e-02 9.49975130e-02 7.12481347e-02 7.12481347e-02 1.06872202e-01 9.49975130e-02 9.49975130e-02 7.12481347e-02 5.93734456e-02 7.12481347e-02 5.93734456e-02 8.31228239e-02 4.74987565e-02 3.56240674e-02 5.93734456e-02 5.93734456e-02 1.30621580e-01 5.93734456e-02 9.49975130e-02 8.31228239e-02 1.18746891e-01 2.37493782e-02 5.93734456e-02 4.74987565e-02 1.06872202e-01 1.18746891e-01 4.74987565e-02 5.93734456e-02 2.37493782e-02 1.42496269e-01 7.12481347e-02 9.49975130e-02 4.74987565e-02 8.31228239e-02 5.93734456e-02 8.31228239e-02 9.49975130e-02 1.18746891e-01 7.12481347e-02 1.42496269e-01 9.49975130e-02 7.12481347e-02 7.12481347e-02 5.93734456e-02 3.56240674e-02 7.12481347e-02 5.93734456e-02 1.18746891e-01 7.12481347e-02 7.12481347e-02 5.93734456e-02 4.74987565e-02 1.06872202e-01 3.56240674e-02 7.12481347e-02 1.30621580e-01 1.30621580e-01 7.12481347e-02 5.93734456e-02 7.12481347e-02 4.74987565e-02 5.93734456e-02 9.49975130e-02 9.49975130e-02 7.12481347e-02 4.74987565e-02 1.18746891e-02 7.12481347e-02 4.74987565e-02 1.06872202e-01 7.12481347e-02 7.12481347e-02 7.12481347e-02 7.12481347e-02 8.31228239e-02 9.49975130e-02 7.12481347e-02 4.74987565e-02 5.93734456e-02 1.18746891e-01 5.93734456e-02 8.31228239e-02 7.12481347e-02 8.31228239e-02 3.56240674e-02 4.74987565e-02 5.93734456e-02 9.49975130e-02 1.06872202e-01 5.93734456e-02 1.06872202e-01 4.74987565e-02 8.31228239e-02 8.31228239e-02 1.18746891e-01 1.78120337e-01 1.18746891e-02 3.56240674e-02 4.74987565e-02 8.31228239e-02 7.12481347e-02 1.42496269e-01 9.49975130e-02 5.93734456e-02 1.30621580e-01 4.74987565e-02 8.31228239e-02 1.06872202e-01 3.56240674e-02 5.93734456e-02 4.74987565e-02 1.42496269e-01 4.74987565e-02 1.42496269e-01 1.06872202e-01 9.49975130e-02 1.18746891e-01 8.31228239e-02 8.31228239e-02 5.93734456e-02 8.31228239e-02 1.06872202e-01 1.06872202e-01 9.49975130e-02 5.93734456e-02 8.31228239e-02 8.31228239e-02 5.93734456e-02 8.31228239e-02 9.49975130e-02 5.93734456e-02 1.54370959e-01 4.74987565e-02 8.31228239e-02 7.12481347e-02 5.93734456e-02 7.12481347e-02 1.06872202e-01 8.31228239e-02 7.12481347e-02 7.12481347e-02 8.31228239e-02 9.49975130e-02 7.12481347e-02 1.42496269e-01 7.12481347e-02 9.49975130e-02 5.93734456e-02 1.06872202e-01 4.74987565e-02 8.31228239e-02 4.74987565e-02 1.18746891e-01 1.42496269e-01 1.18746891e-01 5.93734456e-02 3.56240674e-02 9.49975130e-02 7.12481347e-02 7.12481347e-02 1.18746891e-01 7.12481347e-02 1.18746891e-01 1.06872202e-01 3.56240674e-02 1.18746891e-01 7.12481347e-02 1.06872202e-01 5.93734456e-02 5.93734456e-02 8.31228239e-02 5.93734456e-02 7.12481347e-02 8.31228239e-02 2.37493782e-02 9.49975130e-02 5.93734456e-02 5.93734456e-02 4.74987565e-02 1.18746891e-01 7.12481347e-02 8.31228239e-02 5.93734456e-02 1.06872202e-01 8.31228239e-02 9.49975130e-02 9.49975130e-02 8.31228239e-02 9.49975130e-02 1.18746891e-01 4.74987565e-02 8.31228239e-02 1.06872202e-01 1.30621580e-01 1.78120337e-01 9.49975130e-02 9.49975130e-02 1.06872202e-01 1.18746891e-01 4.74987565e-02 8.31228239e-02 8.31228239e-02 8.31228239e-02 7.12481347e-02 1.30621580e-01 4.74987565e-02 1.18746891e-02 1.06872202e-01 4.74987565e-02 9.49975130e-02 1.30621580e-01 3.56240674e-02 1.18746891e-01 7.12481347e-02 8.31228239e-02 8.31228239e-02 1.06872202e-01 7.12481347e-02 7.12481347e-02 7.12481347e-02 1.06872202e-01 9.49975130e-02 7.12481347e-02 9.49975130e-02 1.06872202e-01 3.56240674e-02 4.74987565e-02 8.31228239e-02 8.31228239e-02 9.49975130e-02 8.31228239e-02 4.74987565e-02 1.06872202e-01 3.56240674e-02 7.12481347e-02 1.18746891e-01 7.12481347e-02 9.49975130e-02 1.06872202e-01 7.12481347e-02 2.37493782e-02 9.49975130e-02 9.49975130e-02 3.56240674e-02 3.56240674e-02 3.56240674e-02 1.18746891e-01 9.49975130e-02 3.56240674e-02 4.74987565e-02 1.18746891e-01 7.12481347e-02 3.56240674e-02 8.31228239e-02 4.74987565e-02 3.56240674e-02 8.31228239e-02 8.31228239e-02 9.49975130e-02 5.93734456e-02 9.49975130e-02 9.49975130e-02 7.12481347e-02 3.56240674e-02 7.12481347e-02 7.12481347e-02 7.12481347e-02 1.06872202e-01 7.12481347e-02 1.06872202e-01 4.74987565e-02 8.31228239e-02 7.12481347e-02 8.31228239e-02 4.74987565e-02 9.49975130e-02 8.31228239e-02 1.89995026e-01 1.42496269e-01 7.12481347e-02 9.49975130e-02 7.12481347e-02 1.42496269e-01 9.49975130e-02 1.06872202e-01 7.12481347e-02 7.12481347e-02 8.31228239e-02 1.18746891e-02 2.37493782e-02 1.66245648e-01 9.49975130e-02 5.93734456e-02 1.30621580e-01 4.74987565e-02 8.31228239e-02 7.12481347e-02 5.93734456e-02 5.93734456e-02 8.31228239e-02 1.06872202e-01 5.93734456e-02 5.93734456e-02 1.66245648e-01 7.12481347e-02 9.49975130e-02 7.12481347e-02 1.06872202e-01 1.06872202e-01 1.42496269e-01 8.31228239e-02 1.18746891e-01 7.12481347e-02 2.37493782e-02 4.74987565e-02 1.06872202e-01 7.12481347e-02 1.06872202e-01 8.31228239e-02 8.31228239e-02 9.49975130e-02 1.06872202e-01 1.18746891e-02 1.18746891e-01 2.37493782e-02 5.93734456e-02 2.37493782e-02 9.49975130e-02 4.74987565e-02 5.93734456e-02 7.12481347e-02 1.30621580e-01 1.18746891e-01 1.06872202e-01 1.06872202e-01 5.93734456e-02 1.42496269e-01 3.56240674e-02 7.12481347e-02 5.93734456e-02 8.31228239e-02 8.31228239e-02 3.56240674e-02 2.37493782e-02 4.74987565e-02 9.49975130e-02 5.93734456e-02 9.49975130e-02 2.37493782e-02 9.49975130e-02 5.93734456e-02 1.18746891e-01 1.30621580e-01 1.06872202e-01 2.37493782e-02 8.31228239e-02 9.49975130e-02 7.12481347e-02 4.74987565e-02 8.31228239e-02 1.30621580e-01 7.12481347e-02 1.06872202e-01 3.56240674e-02 1.06872202e-01 8.31228239e-02 9.49975130e-02 7.12481347e-02 7.12481347e-02 7.12481347e-02 9.49975130e-02 5.93734456e-02 9.49975130e-02 1.18746891e-02 8.31228239e-02 5.93734456e-02 7.12481347e-02 3.56240674e-02 4.74987565e-02 7.12481347e-02 8.31228239e-02 5.93734456e-02 1.30621580e-01 7.12481347e-02 5.93734456e-02 5.93734456e-02 4.74987565e-02 8.31228239e-02 4.74987565e-02 9.49975130e-02 8.31228239e-02 7.12481347e-02 9.49975130e-02 1.06872202e-01 4.74987565e-02 9.49975130e-02 7.12481347e-02 1.18746891e-02 9.49975130e-02 1.42496269e-01 1.30621580e-01 8.31228239e-02 4.74987565e-02 4.74987565e-02 5.93734456e-02 5.93734456e-02 5.93734456e-02 8.31228239e-02 7.12481347e-02 1.06872202e-01 8.31228239e-02 9.49975130e-02 9.49975130e-02 9.49975130e-02 3.56240674e-02 5.93734456e-02 5.93734456e-02 5.93734456e-02 1.06872202e-01 2.37493782e-02 8.31228239e-02 3.56240674e-02 1.42496269e-01 9.49975130e-02 3.56240674e-02 7.12481347e-02 7.12481347e-02 9.49975130e-02 5.93734456e-02 1.06872202e-01 7.12481347e-02 5.93734456e-02 9.49975130e-02 5.93734456e-02 1.06872202e-01 9.49975130e-02 5.93734456e-02 4.74987565e-02 7.12481347e-02 1.18746891e-01 8.31228239e-02 7.12481347e-02 8.31228239e-02 8.31228239e-02 5.93734456e-02 5.93734456e-02 7.12481347e-02 5.93734456e-02 7.12481347e-02 1.18746891e-01 1.06872202e-01 2.37493782e-02 8.31228239e-02 4.74987565e-02 1.42496269e-01 9.49975130e-02 8.31228239e-02 7.12481347e-02 8.31228239e-02 1.06872202e-01 7.12481347e-02 7.12481347e-02 5.93734456e-02 3.56240674e-02 8.31228239e-02 8.31228239e-02 9.49975130e-02 4.74987565e-02 9.49975130e-02 8.31228239e-02 9.49975130e-02 4.74987565e-02 4.74987565e-02 5.93734456e-02 9.49975130e-02 8.31228239e-02 9.49975130e-02 7.12481347e-02 2.37493782e-02 1.06872202e-01 1.06872202e-01 1.54370959e-01 1.30621580e-01 3.56240674e-02 5.93734456e-02 9.49975130e-02 7.12481347e-02 8.31228239e-02 1.18746891e-01 7.12481347e-02 9.49975130e-02 5.93734456e-02 8.31228239e-02 8.31228239e-02 1.06872202e-01 3.56240674e-02 9.49975130e-02 9.49975130e-02 8.31228239e-02 1.18746891e-01 7.12481347e-02 1.06872202e-01 5.93734456e-02 3.56240674e-02 9.49975130e-02 3.56240674e-02 1.06872202e-01 5.93734456e-02 1.06872202e-01 7.12481347e-02 8.31228239e-02 7.12481347e-02 4.74987565e-02 8.31228239e-02 1.18746891e-02 5.93734456e-02 9.49975130e-02 7.12481347e-02 9.49975130e-02 7.12481347e-02 4.74987565e-02 5.93734456e-02 1.06872202e-01 8.31228239e-02 1.06872202e-01 9.49975130e-02 4.74987565e-02 1.18746891e-01 4.74987565e-02 7.12481347e-02 1.30621580e-01 1.30621580e-01 1.18746891e-01 1.18746891e-02 4.74987565e-02 1.06872202e-01 8.31228239e-02 5.93734456e-02 5.93734456e-02 5.93734456e-02 1.06872202e-01 1.66245648e-01 7.12481347e-02 1.06872202e-01 1.30621580e-01 1.06872202e-01 1.06872202e-01 3.56240674e-02 4.74987565e-02 4.74987565e-02 1.06872202e-01 8.31228239e-02 8.31228239e-02 5.93734456e-02 1.42496269e-01 4.74987565e-02 1.06872202e-01 1.30621580e-01 4.74987565e-02 3.56240674e-02 7.12481347e-02 8.31228239e-02 4.74987565e-02 7.12481347e-02 1.18746891e-01 5.93734456e-02 8.31228239e-02 5.93734456e-02 1.54370959e-01 7.12481347e-02 5.93734456e-02 5.93734456e-02 7.12481347e-02 7.12481347e-02 7.12481347e-02 8.31228239e-02 9.49975130e-02 1.42496269e-01 1.18746891e-01 8.31228239e-02 4.74987565e-02 4.74987565e-02 4.74987565e-02 3.56240674e-02 5.93734456e-02 7.12481347e-02 2.37493782e-02 1.06872202e-01 1.06872202e-01 1.54370959e-01 1.30621580e-01 1.18746891e-01 9.49975130e-02 1.18746891e-01 2.01869715e-01 7.12481347e-02 9.49975130e-02 1.30621580e-01 4.74987565e-02 3.56240674e-02 7.12481347e-02 7.12481347e-02 1.18746891e-01 1.06872202e-01 7.12481347e-02 9.49975130e-02 7.12481347e-02 8.31228239e-02 4.74987565e-02 5.93734456e-02 1.54370959e-01 9.49975130e-02 1.42496269e-01 8.31228239e-02 3.56240674e-02 1.18746891e-01 7.12481347e-02 1.30621580e-01 5.93734456e-02 1.42496269e-01 5.93734456e-02 2.37493782e-02 3.56240674e-02 5.93734456e-02 5.93734456e-02 2.37493782e-02 9.49975130e-02 7.12481347e-02 2.37493782e-02 7.12481347e-02 4.74987565e-02 1.42496269e-01 8.31228239e-02 1.54370959e-01 1.06872202e-01 1.30621580e-01 4.74987565e-02 5.93734456e-02 9.49975130e-02 8.31228239e-02 4.74987565e-02 3.56240674e-02 8.31228239e-02 7.12481347e-02 5.93734456e-02 1.06872202e-01 4.74987565e-02 1.06872202e-01 4.74987565e-02 1.78120337e-01 7.12481347e-02 5.93734456e-02 1.30621580e-01 7.12481347e-02 8.31228239e-02 7.12481347e-02 1.06872202e-01 1.42496269e-01 1.30621580e-01 8.31228239e-02 8.31228239e-02 8.31228239e-02 7.12481347e-02 9.49975130e-02 8.31228239e-02 1.30621580e-01 5.93734456e-02 1.18746891e-01 8.31228239e-02 7.12481347e-02 7.12481347e-02 4.74987565e-02 1.30621580e-01 7.12481347e-02 8.31228239e-02 5.93734456e-02 1.54370959e-01 1.18746891e-01 8.31228239e-02 4.74987565e-02 1.06872202e-01 1.18746891e-01 8.31228239e-02 8.31228239e-02 1.06872202e-01 9.49975130e-02 4.74987565e-02 7.12481347e-02 7.12481347e-02 5.93734456e-02 3.56240674e-02 9.49975130e-02 8.31228239e-02 3.56240674e-02 9.49975130e-02 7.12481347e-02 1.18746891e-01 3.56240674e-02 4.74987565e-02 1.06872202e-01 8.31228239e-02 9.49975130e-02 3.56240674e-02 1.54370959e-01 1.89995026e-01 8.31228239e-02 5.93734456e-02 3.56240674e-02 3.56240674e-02 1.06872202e-01 9.49975130e-02 4.74987565e-02 7.12481347e-02 1.42496269e-01 4.74987565e-02 3.56240674e-02 5.93734456e-02 7.12481347e-02 8.31228239e-02 1.30621580e-01 7.12481347e-02 5.93734456e-02 1.18746891e-01 4.74987565e-02 5.93734456e-02 7.12481347e-02 7.12481347e-02 7.12481347e-02 8.31228239e-02 2.37493782e-02 4.74987565e-02 4.74987565e-02 1.06872202e-01 7.12481347e-02 9.49975130e-02 5.93734456e-02 7.12481347e-02 8.31228239e-02 9.49975130e-02 4.74987565e-02 1.30621580e-01 5.93734456e-02 9.49975130e-02 7.12481347e-02 4.74987565e-02 5.93734456e-02 3.56240674e-02 1.06872202e-01 4.74987565e-02 0.00000000e+00 8.31228239e-02 1.18746891e-01 5.93734456e-02 1.06872202e-01 1.18746891e-01 5.93734456e-02 3.56240674e-02 9.49975130e-02 4.74987565e-02 9.49975130e-02 5.93734456e-02 9.49975130e-02 5.93734456e-02 1.18746891e-02 8.31228239e-02 3.56240674e-02 1.06872202e-01 9.49975130e-02 1.18746891e-01 4.74987565e-02 5.93734456e-02 1.06872202e-01 1.18746891e-01 8.31228239e-02 9.49975130e-02 1.06872202e-01 7.12481347e-02 8.31228239e-02 5.93734456e-02 4.74987565e-02 1.18746891e-01 9.49975130e-02 4.74987565e-02 1.30621580e-01 7.12481347e-02 8.31228239e-02 5.93734456e-02 5.93734456e-02 8.31228239e-02 4.74987565e-02 8.31228239e-02 1.06872202e-01 8.31228239e-02 4.74987565e-02 7.12481347e-02 7.12481347e-02 8.31228239e-02 4.74987565e-02 9.49975130e-02 1.42496269e-01 9.49975130e-02 1.42496269e-01 1.18746891e-01 1.18746891e-01 9.49975130e-02 8.31228239e-02 4.74987565e-02 1.18746891e-02 5.93734456e-02 7.12481347e-02 5.93734456e-02 1.06872202e-01 8.31228239e-02 9.49975130e-02 8.31228239e-02 8.31228239e-02 9.49975130e-02 1.06872202e-01 1.06872202e-01 9.49975130e-02 8.31228239e-02 9.49975130e-02 5.93734456e-02 1.42496269e-01 2.37493782e-02 9.49975130e-02 1.66245648e-01 7.12481347e-02 4.74987565e-02 1.18746891e-01 1.06872202e-01 4.74987565e-02 5.93734456e-02 5.93734456e-02 8.31228239e-02 5.93734456e-02 9.49975130e-02 1.30621580e-01 3.56240674e-02 5.93734456e-02 5.93734456e-02 9.49975130e-02 5.93734456e-02 9.49975130e-02 7.12481347e-02 8.31228239e-02 5.93734456e-02 1.06872202e-01 9.49975130e-02 8.31228239e-02 5.93734456e-02 7.12481347e-02 8.31228239e-02 7.12481347e-02 8.31228239e-02 9.49975130e-02 1.18746891e-01 7.12481347e-02 1.42496269e-01 7.12481347e-02 7.12481347e-02 8.31228239e-02 7.12481347e-02 1.42496269e-01 8.31228239e-02 5.93734456e-02 1.18746891e-01 1.18746891e-01 5.93734456e-02 8.31228239e-02 8.31228239e-02 1.18746891e-02 8.31228239e-02 4.74987565e-02 1.30621580e-01 9.49975130e-02 9.49975130e-02 1.06872202e-01 7.12481347e-02 1.18746891e-01 1.18746891e-01 1.30621580e-01 4.74987565e-02 8.31228239e-02 1.42496269e-01 5.93734456e-02 7.12481347e-02 9.49975130e-02 7.12481347e-02 1.06872202e-01 0.00000000e+00 5.93734456e-02 1.06872202e-01 7.12481347e-02 7.12481347e-02 5.93734456e-02 9.49975130e-02 8.31228239e-02 8.31228239e-02 8.31228239e-02 5.93734456e-02 7.12481347e-02 8.31228239e-02 5.93734456e-02 4.74987565e-02 9.49975130e-02 5.93734456e-02 8.31228239e-02 7.12481347e-02 3.56240674e-02 8.31228239e-02 1.06872202e-01 8.31228239e-02 4.74987565e-02 1.18746891e-02 4.74987565e-02 7.12481347e-02 4.74987565e-02 1.18746891e-01 8.31228239e-02 1.18746891e-01 9.49975130e-02 7.12481347e-02 7.12481347e-02 1.30621580e-01 7.12481347e-02 4.74987565e-02 9.49975130e-02 9.49975130e-02 1.06872202e-01 4.74987565e-02 5.93734456e-02 7.12481347e-02 2.37493782e-02 9.49975130e-02 7.12481347e-02 7.12481347e-02 1.30621580e-01 5.93734456e-02 5.93734456e-02 3.56240674e-02 7.12481347e-02 4.74987565e-02 1.54370959e-01 7.12481347e-02 4.74987565e-02 9.49975130e-02 3.56240674e-02 1.18746891e-01 7.12481347e-02 7.12481347e-02 8.31228239e-02 7.12481347e-02 8.31228239e-02 3.56240674e-02 7.12481347e-02 8.31228239e-02 1.18746891e-01 1.66245648e-01 1.06872202e-01 4.74987565e-02 1.18746891e-01 1.06872202e-01 8.31228239e-02 5.93734456e-02 4.74987565e-02 1.06872202e-01 3.56240674e-02 5.93734456e-02 8.31228239e-02 5.93734456e-02 8.31228239e-02 5.93734456e-02 8.31228239e-02 9.49975130e-02 1.18746891e-01 8.31228239e-02 4.74987565e-02 5.93734456e-02 8.31228239e-02 1.18746891e-01 1.06872202e-01 3.56240674e-02 1.06872202e-01 3.56240674e-02 5.93734456e-02 8.31228239e-02 1.30621580e-01 4.74987565e-02 4.74987565e-02 5.93734456e-02 5.93734456e-02 7.12481347e-02 1.89995026e-01 3.56240674e-02 1.06872202e-01 9.49975130e-02 5.93734456e-02 7.12481347e-02 4.74987565e-02 1.66245648e-01 5.93734456e-02 9.49975130e-02 9.49975130e-02 9.49975130e-02 5.93734456e-02 7.12481347e-02 1.06872202e-01 1.06872202e-01 5.93734456e-02 4.74987565e-02 7.12481347e-02 7.12481347e-02 4.74987565e-02 4.74987565e-02 8.31228239e-02 1.06872202e-01 2.37493782e-02 5.93734456e-02 7.12481347e-02 1.18746891e-01 1.06872202e-01 8.31228239e-02 8.31228239e-02 8.31228239e-02 7.12481347e-02 1.06872202e-01 9.49975130e-02 8.31228239e-02 4.74987565e-02 1.30621580e-01 1.18746891e-01 1.18746891e-01 1.18746891e-01 7.12481347e-02 8.31228239e-02 5.93734456e-02 7.12481347e-02 2.37493782e-02 3.56240674e-02 9.49975130e-02 1.18746891e-01 7.12481347e-02 5.93734456e-02 4.74987565e-02 8.31228239e-02 1.06872202e-01 7.12481347e-02 7.12481347e-02 4.74987565e-02 5.93734456e-02 5.93734456e-02 9.49975130e-02 5.93734456e-02 4.74987565e-02 8.31228239e-02 1.30621580e-01 8.31228239e-02 9.49975130e-02 8.31228239e-02 5.93734456e-02 1.18746891e-01 3.56240674e-02 7.12481347e-02 2.37493782e-02 9.49975130e-02 9.49975130e-02 5.93734456e-02 1.18746891e-02 8.31228239e-02 4.74987565e-02 9.49975130e-02 4.74987565e-02 8.31228239e-02 5.93734456e-02 8.31228239e-02 8.31228239e-02 5.93734456e-02 1.18746891e-01 3.56240674e-02 7.12481347e-02 7.12481347e-02 8.31228239e-02 1.54370959e-01 9.49975130e-02 7.12481347e-02 2.37493782e-02 7.12481347e-02 9.49975130e-02 1.06872202e-01 1.06872202e-01 7.12481347e-02 3.56240674e-02 9.49975130e-02 5.93734456e-02 1.06872202e-01 9.49975130e-02 8.31228239e-02 9.49975130e-02 1.18746891e-01 8.31228239e-02 9.49975130e-02 1.18746891e-01 7.12481347e-02 4.74987565e-02 8.31228239e-02 9.49975130e-02 7.12481347e-02 5.93734456e-02 8.31228239e-02 1.06872202e-01 1.18746891e-01 1.18746891e-01 9.49975130e-02 7.12481347e-02 5.93734456e-02 4.74987565e-02 1.06872202e-01 4.74987565e-02 7.12481347e-02 1.18746891e-01 4.74987565e-02 8.31228239e-02 5.93734456e-02 4.74987565e-02 9.49975130e-02 4.74987565e-02 1.06872202e-01 9.49975130e-02 9.49975130e-02 1.30621580e-01 7.12481347e-02 4.74987565e-02 5.93734456e-02 8.31228239e-02 7.12481347e-02 9.49975130e-02 9.49975130e-02 8.31228239e-02 7.12481347e-02 9.49975130e-02 7.12481347e-02 7.12481347e-02 8.31228239e-02 1.06872202e-01 7.12481347e-02 7.12481347e-02 8.31228239e-02 3.56240674e-02 7.12481347e-02 3.56240674e-02 1.18746891e-02 5.93734456e-02 8.31228239e-02 1.06872202e-01 7.12481347e-02 7.12481347e-02 1.42496269e-01 4.74987565e-02 1.06872202e-01 1.06872202e-01 1.54370959e-01 3.56240674e-02 1.30621580e-01 8.31228239e-02 3.56240674e-02 8.31228239e-02 9.49975130e-02 7.12481347e-02 4.74987565e-02 8.31228239e-02 1.06872202e-01 1.06872202e-01 1.18746891e-01 2.37493782e-02 9.49975130e-02 7.12481347e-02 1.42496269e-01 7.12481347e-02 5.93734456e-02 9.49975130e-02 1.18746891e-01 2.37493782e-02 4.74987565e-02 5.93734456e-02 1.30621580e-01 8.31228239e-02 2.37493782e-02 5.93734456e-02 1.30621580e-01 9.49975130e-02 1.54370959e-01 8.31228239e-02 1.06872202e-01 7.12481347e-02 4.74987565e-02 7.12481347e-02 3.56240674e-02 7.12481347e-02 1.18746891e-01 7.12481347e-02 1.18746891e-01 5.93734456e-02 7.12481347e-02 1.06872202e-01 4.74987565e-02 1.42496269e-01 7.12481347e-02 8.31228239e-02 1.30621580e-01 8.31228239e-02 9.49975130e-02 3.56240674e-02 8.31228239e-02 7.12481347e-02 1.18746891e-01 7.12481347e-02 1.06872202e-01 5.93734456e-02 1.30621580e-01 5.93734456e-02 1.06872202e-01 7.12481347e-02 7.12481347e-02 1.54370959e-01 4.74987565e-02 7.12481347e-02 1.06872202e-01 3.56240674e-02 8.31228239e-02 1.06872202e-01 1.42496269e-01 8.31228239e-02 4.74987565e-02 9.49975130e-02 3.56240674e-02 8.31228239e-02 7.12481347e-02 1.06872202e-01 1.18746891e-02 5.93734456e-02 8.31228239e-02 8.31228239e-02 7.12481347e-02 1.18746891e-01 9.49975130e-02 9.49975130e-02 4.74987565e-02 2.37493782e-02 7.12481347e-02 8.31228239e-02 5.93734456e-02 7.12481347e-02 5.93734456e-02 9.49975130e-02 8.31228239e-02 2.37493782e-02 7.12481347e-02 4.74987565e-02 9.49975130e-02 9.49975130e-02 8.31228239e-02 1.54370959e-01 1.06872202e-01 9.49975130e-02 1.18746891e-01 1.06872202e-01 3.56240674e-02 7.12481347e-02 1.30621580e-01 9.49975130e-02 4.74987565e-02 8.31228239e-02 7.12481347e-02 8.31228239e-02 4.74987565e-02 8.31228239e-02 2.37493782e-02 1.18746891e-01 3.56240674e-02 5.93734456e-02 1.06872202e-01 3.56240674e-02 7.12481347e-02 4.74987565e-02 8.31228239e-02 5.93734456e-02 1.18746891e-01 9.49975130e-02 4.74987565e-02 1.42496269e-01 2.37493782e-02 8.31228239e-02 7.12481347e-02 5.93734456e-02 8.31228239e-02 8.31228239e-02 3.56240674e-02 5.93734456e-02 4.74987565e-02 2.37493782e-02 4.74987565e-02 1.30621580e-01 8.31228239e-02 5.93734456e-02 1.18746891e-01 1.06872202e-01 8.31228239e-02 1.18746891e-01 1.06872202e-01 7.12481347e-02 1.18746891e-02 1.06872202e-01 1.42496269e-01 5.93734456e-02 3.56240674e-02 1.66245648e-01 8.31228239e-02 5.93734456e-02 1.18746891e-01 5.93734456e-02 9.49975130e-02 8.31228239e-02 1.06872202e-01 4.74987565e-02 5.93734456e-02 1.06872202e-01 1.18746891e-01 5.93734456e-02 9.49975130e-02 7.12481347e-02 1.06872202e-01 3.56240674e-02 5.93734456e-02 1.66245648e-01 8.31228239e-02 3.56240674e-02 5.93734456e-02 8.31228239e-02 4.74987565e-02 5.93734456e-02 5.93734456e-02 8.31228239e-02 9.49975130e-02 1.18746891e-01 4.74987565e-02 7.12481347e-02 5.93734456e-02 5.93734456e-02 9.49975130e-02 7.12481347e-02 1.30621580e-01 7.12481347e-02 9.49975130e-02 5.93734456e-02 9.49975130e-02 3.56240674e-02 5.93734456e-02 1.42496269e-01 1.30621580e-01 8.31228239e-02 7.12481347e-02 5.93734456e-02 7.12481347e-02 7.12481347e-02 4.74987565e-02 8.31228239e-02 3.56240674e-02 4.74987565e-02 8.31228239e-02 1.54370959e-01 4.74987565e-02 8.31228239e-02 8.31228239e-02 8.31228239e-02 3.56240674e-02 3.56240674e-02 2.37493782e-02 3.56240674e-02 5.93734456e-02 9.49975130e-02 3.56240674e-02 1.18746891e-01 8.31228239e-02 7.12481347e-02 1.54370959e-01 1.42496269e-01 1.06872202e-01 5.93734456e-02 4.74987565e-02 3.56240674e-02 5.93734456e-02 7.12481347e-02 1.30621580e-01 8.31228239e-02 1.06872202e-01 9.49975130e-02 4.74987565e-02 1.06872202e-01 1.06872202e-01 8.31228239e-02 3.56240674e-02 1.06872202e-01 3.56240674e-02 1.06872202e-01 3.56240674e-02 5.93734456e-02 9.49975130e-02 8.31228239e-02 9.49975130e-02 7.12481347e-02 5.93734456e-02 8.31228239e-02 1.06872202e-01 9.49975130e-02 4.74987565e-02 5.93734456e-02 1.06872202e-01 4.74987565e-02 3.56240674e-02 9.49975130e-02 8.31228239e-02 9.49975130e-02 2.37493782e-02 8.31228239e-02 8.31228239e-02 7.12481347e-02 5.93734456e-02 8.31228239e-02 8.31228239e-02 1.18746891e-01 9.49975130e-02 1.42496269e-01 8.31228239e-02 1.06872202e-01 7.12481347e-02 1.06872202e-01 1.06872202e-01 5.93734456e-02 4.74987565e-02 5.93734456e-02 1.06872202e-01 9.49975130e-02 9.49975130e-02 7.12481347e-02 7.12481347e-02 9.49975130e-02 1.30621580e-01 7.12481347e-02 1.18746891e-01 1.06872202e-01 1.06872202e-01 1.06872202e-01 9.49975130e-02 1.18746891e-01 3.56240674e-02 9.49975130e-02 5.93734456e-02 9.49975130e-02 9.49975130e-02 9.49975130e-02 8.31228239e-02 8.31228239e-02 7.12481347e-02 2.37493782e-02 8.31228239e-02 1.30621580e-01 4.74987565e-02 9.49975130e-02 5.93734456e-02 5.93734456e-02 4.74987565e-02 1.06872202e-01 5.93734456e-02 3.56240674e-02 5.93734456e-02 8.31228239e-02 4.74987565e-02 7.12481347e-02 1.18746891e-01 5.93734456e-02 4.74987565e-02 7.12481347e-02 7.12481347e-02 7.12481347e-02 8.31228239e-02 1.18746891e-01 5.93734456e-02 7.12481347e-02 9.49975130e-02 8.31228239e-02 5.93734456e-02 7.12481347e-02 7.12481347e-02 1.30621580e-01 4.74987565e-02 1.06872202e-01 5.93734456e-02 9.49975130e-02 9.49975130e-02 1.78120337e-01 3.56240674e-02 5.93734456e-02 4.74987565e-02 7.12481347e-02 1.54370959e-01 1.06872202e-01 5.93734456e-02 9.49975130e-02 5.93734456e-02 9.49975130e-02 1.06872202e-01 1.18746891e-01 5.93734456e-02 8.31228239e-02 1.06872202e-01 7.12481347e-02 5.93734456e-02 7.12481347e-02 4.74987565e-02 1.06872202e-01 1.54370959e-01 7.12481347e-02 8.31228239e-02 5.93734456e-02 3.56240674e-02 1.30621580e-01 8.31228239e-02 3.56240674e-02 8.31228239e-02 8.31228239e-02 1.30621580e-01 7.12481347e-02 1.06872202e-01 7.12481347e-02 7.12481347e-02 9.49975130e-02 9.49975130e-02 5.93734456e-02 1.06872202e-01 1.06872202e-01 9.49975130e-02 9.49975130e-02 2.37493782e-02 7.12481347e-02 9.49975130e-02 1.18746891e-01 1.30621580e-01 5.93734456e-02 4.74987565e-02 7.12481347e-02 8.31228239e-02 7.12481347e-02 9.49975130e-02 5.93734456e-02 8.31228239e-02 1.54370959e-01 7.12481347e-02 1.30621580e-01 8.31228239e-02 9.49975130e-02 8.31228239e-02 9.49975130e-02 9.49975130e-02 7.12481347e-02 9.49975130e-02 9.49975130e-02 8.31228239e-02 1.18746891e-01 8.31228239e-02 1.06872202e-01 8.31228239e-02 8.31228239e-02 3.56240674e-02 5.93734456e-02 5.93734456e-02 1.18746891e-01 5.93734456e-02 7.12481347e-02 4.74987565e-02 9.49975130e-02 7.12481347e-02 9.49975130e-02 4.74987565e-02 7.12481347e-02 8.31228239e-02 7.12481347e-02 9.49975130e-02 3.56240674e-02 1.30621580e-01 1.18746891e-02 4.74987565e-02 5.93734456e-02 7.12481347e-02 8.31228239e-02 7.12481347e-02 1.30621580e-01 2.37493782e-02 5.93734456e-02 8.31228239e-02 3.56240674e-02 7.12481347e-02 1.06872202e-01 1.06872202e-01 7.12481347e-02 1.06872202e-01 8.31228239e-02 8.31228239e-02 7.12481347e-02 7.12481347e-02 9.49975130e-02 8.31228239e-02 4.74987565e-02 8.31228239e-02 4.74987565e-02 1.30621580e-01 8.31228239e-02 1.06872202e-01 7.12481347e-02 5.93734456e-02 5.93734456e-02 7.12481347e-02 5.93734456e-02 5.93734456e-02 8.31228239e-02 1.18746891e-01 5.93734456e-02 5.93734456e-02 3.56240674e-02 7.12481347e-02 1.06872202e-01 5.93734456e-02 5.93734456e-02 9.49975130e-02 8.31228239e-02 9.49975130e-02 1.30621580e-01 5.93734456e-02 3.56240674e-02 4.74987565e-02 8.31228239e-02 4.74987565e-02 8.31228239e-02 1.18746891e-01 7.12481347e-02 8.31228239e-02 1.06872202e-01 1.06872202e-01 1.06872202e-01 5.93734456e-02 8.31228239e-02 1.06872202e-01 9.49975130e-02 3.56240674e-02 9.49975130e-02 8.31228239e-02 8.31228239e-02 8.31228239e-02 7.12481347e-02 9.49975130e-02 7.12481347e-02 5.93734456e-02 1.18746891e-01 5.93734456e-02 1.06872202e-01 7.12481347e-02 3.56240674e-02 5.93734456e-02 3.56240674e-02 1.06872202e-01 1.06872202e-01 1.18746891e-01 8.31228239e-02 1.42496269e-01 1.06872202e-01 7.12481347e-02 8.31228239e-02 7.12481347e-02 4.74987565e-02 1.54370959e-01 8.31228239e-02 1.06872202e-01 7.12481347e-02 8.31228239e-02 3.56240674e-02 1.30621580e-01 9.49975130e-02 9.49975130e-02 7.12481347e-02 5.93734456e-02 9.49975130e-02 1.18746891e-01 5.93734456e-02 1.30621580e-01 1.06872202e-01 8.31228239e-02 5.93734456e-02 1.06872202e-01 1.18746891e-01 5.93734456e-02 8.31228239e-02 5.93734456e-02 2.37493782e-02 7.12481347e-02 2.37493782e-02 4.74987565e-02 1.06872202e-01 3.56240674e-02 9.49975130e-02 5.93734456e-02 9.49975130e-02 8.31228239e-02 5.93734456e-02 1.18746891e-01 1.30621580e-01 1.18746891e-01 7.12481347e-02 1.18746891e-01 8.31228239e-02 8.31228239e-02 5.93734456e-02 9.49975130e-02 9.49975130e-02 1.30621580e-01 4.74987565e-02 3.56240674e-02 5.93734456e-02 4.74987565e-02 1.06872202e-01 8.31228239e-02 9.49975130e-02 1.42496269e-01 7.12481347e-02 8.31228239e-02 4.74987565e-02 3.56240674e-02 5.93734456e-02 1.18746891e-01 5.93734456e-02 7.12481347e-02 1.06872202e-01 8.31228239e-02 8.31228239e-02 8.31228239e-02 1.06872202e-01 7.12481347e-02 2.37493782e-02 4.74987565e-02 1.54370959e-01 3.56240674e-02 2.37493782e-02 9.49975130e-02 5.93734456e-02 9.49975130e-02 5.93734456e-02 4.74987565e-02 9.49975130e-02 7.12481347e-02 8.31228239e-02 7.12481347e-02 1.30621580e-01 3.56240674e-02 7.12481347e-02 7.12481347e-02 8.31228239e-02 8.31228239e-02 9.49975130e-02 8.31228239e-02 2.37493782e-02 8.31228239e-02 1.18746891e-01 7.12481347e-02 7.12481347e-02 8.31228239e-02 9.49975130e-02 9.49975130e-02 8.31228239e-02 7.12481347e-02 5.93734456e-02 5.93734456e-02 1.42496269e-01 2.37493782e-02 7.12481347e-02 2.13744404e-01 5.93734456e-02 2.37493782e-02 9.49975130e-02 7.12481347e-02 2.37493782e-02 1.54370959e-01 7.12481347e-02 3.56240674e-02 5.93734456e-02 5.93734456e-02 5.93734456e-02 1.18746891e-01 1.30621580e-01 7.12481347e-02 1.06872202e-01 4.74987565e-02 1.18746891e-01 3.56240674e-02 1.30621580e-01 8.31228239e-02 8.31228239e-02 9.49975130e-02 1.18746891e-01 9.49975130e-02 5.93734456e-02 5.93734456e-02 8.31228239e-02 5.93734456e-02 5.93734456e-02 9.49975130e-02 7.12481347e-02 1.42496269e-01 8.31228239e-02 5.93734456e-02 1.18746891e-01 9.49975130e-02 1.30621580e-01 8.31228239e-02 3.56240674e-02 5.93734456e-02 1.18746891e-01 4.74987565e-02 5.93734456e-02 9.49975130e-02 9.49975130e-02 1.06872202e-01 9.49975130e-02 4.74987565e-02 4.74987565e-02 1.54370959e-01 8.31228239e-02 1.42496269e-01 9.49975130e-02 5.93734456e-02 1.18746891e-01 3.56240674e-02 1.18746891e-01 7.12481347e-02 1.06872202e-01 8.31228239e-02 9.49975130e-02 7.12481347e-02 9.49975130e-02 5.93734456e-02 9.49975130e-02 9.49975130e-02 1.06872202e-01 4.74987565e-02 9.49975130e-02 4.74987565e-02 5.93734456e-02 9.49975130e-02 3.56240674e-02 1.06872202e-01 4.74987565e-02 5.93734456e-02 7.12481347e-02 1.06872202e-01 8.31228239e-02 5.93734456e-02 7.12481347e-02 4.74987565e-02 1.30621580e-01 2.37493782e-02 8.31228239e-02 7.12481347e-02 7.12481347e-02 1.06872202e-01 9.49975130e-02 4.74987565e-02 1.18746891e-01 9.49975130e-02 7.12481347e-02 1.54370959e-01 5.93734456e-02 5.93734456e-02 1.18746891e-01 1.18746891e-01 5.93734456e-02 1.18746891e-01 5.93734456e-02 1.42496269e-01 1.18746891e-01 7.12481347e-02 1.18746891e-01 4.74987565e-02 1.30621580e-01 7.12481347e-02 8.31228239e-02 7.12481347e-02 4.74987565e-02 8.31228239e-02 7.12481347e-02 1.06872202e-01 5.93734456e-02 4.74987565e-02 8.31228239e-02 7.12481347e-02 1.30621580e-01 8.31228239e-02 4.74987565e-02 2.37493782e-02 4.74987565e-02 5.93734456e-02 8.31228239e-02 8.31228239e-02 1.30621580e-01 9.49975130e-02 8.31228239e-02 8.31228239e-02 2.37493782e-02 8.31228239e-02 4.74987565e-02 1.30621580e-01 8.31228239e-02 5.93734456e-02 1.06872202e-01 3.56240674e-02 7.12481347e-02 1.06872202e-01 1.18746891e-01 1.06872202e-01 7.12481347e-02 5.93734456e-02 9.49975130e-02 5.93734456e-02 8.31228239e-02 5.93734456e-02 1.06872202e-01 7.12481347e-02 9.49975130e-02 7.12481347e-02 7.12481347e-02 7.12481347e-02 1.06872202e-01 1.30621580e-01 5.93734456e-02 5.93734456e-02 7.12481347e-02 7.12481347e-02 1.18746891e-01 9.49975130e-02 8.31228239e-02 4.74987565e-02 8.31228239e-02 8.31228239e-02 7.12481347e-02 2.37493782e-02 7.12481347e-02 5.93734456e-02 7.12481347e-02 4.74987565e-02 1.06872202e-01 3.56240674e-02 1.18746891e-01 8.31228239e-02 5.93734456e-02 5.93734456e-02 8.31228239e-02 7.12481347e-02 1.66245648e-01 7.12481347e-02 7.12481347e-02 1.06872202e-01 8.31228239e-02 3.56240674e-02 4.74987565e-02 4.74987565e-02 1.06872202e-01 9.49975130e-02 7.12481347e-02 9.49975130e-02 4.74987565e-02 4.74987565e-02 8.31228239e-02 8.31228239e-02 1.30621580e-01 1.30621580e-01 8.31228239e-02 5.93734456e-02 9.49975130e-02 5.93734456e-02 7.12481347e-02 9.49975130e-02 3.56240674e-02 1.66245648e-01 4.74987565e-02 9.49975130e-02 8.31228239e-02 8.31228239e-02 3.56240674e-02 1.30621580e-01 4.74987565e-02 8.31228239e-02 1.18746891e-01 1.18746891e-01 1.78120337e-01 8.31228239e-02 1.06872202e-01 1.30621580e-01 1.06872202e-01 1.06872202e-01 5.93734456e-02 8.31228239e-02 9.49975130e-02 1.06872202e-01 7.12481347e-02 4.74987565e-02 3.56240674e-02 8.31228239e-02 4.74987565e-02 1.18746891e-01 1.06872202e-01 5.93734456e-02 3.56240674e-02 7.12481347e-02 4.74987565e-02 4.74987565e-02 1.06872202e-01 1.06872202e-01 5.93734456e-02 8.31228239e-02 7.12481347e-02 1.30621580e-01 1.30621580e-01 7.12481347e-02 1.30621580e-01 1.06872202e-01 5.93734456e-02 5.93734456e-02 7.12481347e-02 7.12481347e-02 1.18746891e-01 4.74987565e-02 9.49975130e-02 1.18746891e-01 1.18746891e-01 3.56240674e-02 1.18746891e-01 7.12481347e-02 4.74987565e-02 7.12481347e-02 1.18746891e-01 5.93734456e-02 1.18746891e-01 8.31228239e-02 8.31228239e-02 4.74987565e-02 7.12481347e-02 1.06872202e-01 5.93734456e-02 1.42496269e-01 3.56240674e-02 1.42496269e-01 8.31228239e-02 9.49975130e-02 4.74987565e-02 7.12481347e-02 1.06872202e-01 9.49975130e-02 1.54370959e-01 1.89995026e-01 7.12481347e-02 8.31228239e-02 4.74987565e-02 9.49975130e-02 1.54370959e-01 7.12481347e-02 1.42496269e-01 7.12481347e-02 7.12481347e-02 3.56240674e-02 5.93734456e-02 4.74987565e-02 4.74987565e-02 8.31228239e-02 1.42496269e-01 1.06872202e-01 7.12481347e-02 8.31228239e-02 7.12481347e-02 7.12481347e-02 4.74987565e-02 9.49975130e-02 8.31228239e-02 5.93734456e-02 9.49975130e-02 1.06872202e-01 1.18746891e-01 9.49975130e-02 7.12481347e-02 4.74987565e-02 7.12481347e-02 3.56240674e-02 7.12481347e-02 1.06872202e-01 8.31228239e-02 9.49975130e-02 8.31228239e-02 8.31228239e-02 1.06872202e-01 1.18746891e-01 3.56240674e-02 7.12481347e-02 1.18746891e-01 7.12481347e-02 9.49975130e-02 2.37493782e-02 8.31228239e-02 7.12481347e-02 1.66245648e-01 8.31228239e-02 9.49975130e-02 9.49975130e-02 9.49975130e-02 1.18746891e-01 1.30621580e-01 5.93734456e-02 5.93734456e-02 1.18746891e-01 5.93734456e-02 9.49975130e-02 5.93734456e-02 4.74987565e-02 1.06872202e-01 8.31228239e-02 8.31228239e-02 8.31228239e-02 4.74987565e-02 1.18746891e-01 9.49975130e-02 1.06872202e-01 4.74987565e-02 4.74987565e-02 4.74987565e-02 1.18746891e-01 3.56240674e-02 4.74987565e-02 7.12481347e-02 9.49975130e-02 8.31228239e-02 1.18746891e-01 1.18746891e-01 4.74987565e-02 7.12481347e-02 8.31228239e-02 1.06872202e-01 1.66245648e-01 9.49975130e-02 5.93734456e-02 8.31228239e-02 8.31228239e-02 1.89995026e-01 1.06872202e-01 9.49975130e-02 7.12481347e-02 1.18746891e-01 8.31228239e-02 3.56240674e-02 7.12481347e-02 9.49975130e-02 9.49975130e-02 3.56240674e-02 7.12481347e-02 5.93734456e-02 1.30621580e-01 1.06872202e-01 9.49975130e-02 1.18746891e-01 2.37493782e-02 9.49975130e-02 7.12481347e-02 1.06872202e-01 3.56240674e-02 7.12481347e-02 1.06872202e-01 5.93734456e-02 1.42496269e-01 7.12481347e-02 7.12481347e-02 5.93734456e-02 7.12481347e-02 7.12481347e-02 5.93734456e-02 7.12481347e-02 1.54370959e-01 3.56240674e-02 8.31228239e-02 7.12481347e-02 1.30621580e-01 7.12481347e-02 7.12481347e-02 4.74987565e-02 3.56240674e-02 1.30621580e-01 7.12481347e-02 9.49975130e-02 7.12481347e-02 1.42496269e-01 1.42496269e-01 1.06872202e-01 1.06872202e-01 7.12481347e-02 1.18746891e-01 4.74987565e-02 8.31228239e-02 9.49975130e-02 5.93734456e-02 1.30621580e-01 4.74987565e-02 9.49975130e-02 9.49975130e-02 8.31228239e-02 1.66245648e-01 5.93734456e-02 5.93734456e-02 2.37493782e-01 8.31228239e-02 9.49975130e-02 3.56240674e-02 7.12481347e-02 1.18746891e-02 1.42496269e-01 1.18746891e-01 3.56240674e-02 9.49975130e-02 5.93734456e-02 7.12481347e-02 1.42496269e-01 7.12481347e-02 2.37493782e-02 5.93734456e-02 9.49975130e-02 9.49975130e-02 4.74987565e-02 1.30621580e-01 4.74987565e-02 1.18746891e-01 1.54370959e-01 8.31228239e-02 5.93734456e-02 1.42496269e-01 1.18746891e-01 1.06872202e-01 1.18746891e-01 7.12481347e-02 5.93734456e-02 7.12481347e-02 1.30621580e-01 7.12481347e-02 7.12481347e-02 8.31228239e-02 7.12481347e-02 9.49975130e-02 5.93734456e-02 9.49975130e-02 7.12481347e-02 7.12481347e-02 1.42496269e-01 2.37493782e-02 7.12481347e-02 8.31228239e-02 