<?xml version="1.0"?>
<MethodSetup Method="BDT::BDTG">
  <GeneralInfo>
    <Info name="TMVA Release" value="4.2.1 [262657]"/>
    <Info name="ROOT Release" value="6.24/07 [399367]"/>
    <Info name="Creator" value="cvico"/>
    <Info name="Date" value="Fri Nov 17 13:20:31 2023"/>
    <Info name="Host" value="Linux cmsbuild02.cern.ch 3.10.0-1160.36.2.el7.x86_64 #1 SMP Wed Jul 21 11:57:15 UTC 2021 x86_64 x86_64 x86_64 GNU/Linux"/>
    <Info name="Dir" value="/mnt_pool/c3_users/user/cvico/WorkSpace/wz-run3/release/CMSSW_12_4_12/src/CMGTools/TTHAnalysis/python/plotter/wz-run3/scripts/leptonMVA"/>
    <Info name="Training events" value="921310"/>
    <Info name="TrainingTime" value="2.27954932e+03"/>
    <Info name="AnalysisType" value="Classification"/>
  </GeneralInfo>
  <Options>
    <Option name="V" modified="Yes">False</Option>
    <Option name="VerbosityLevel" modified="No">Default</Option>
    <Option name="VarTransform" modified="No">None</Option>
    <Option name="H" modified="Yes">False</Option>
    <Option name="CreateMVAPdfs" modified="Yes">True</Option>
    <Option name="IgnoreNegWeightsInTraining" modified="No">False</Option>
    <Option name="NTrees" modified="Yes">500</Option>
    <Option name="MaxDepth" modified="Yes">8</Option>
    <Option name="MinNodeSize" modified="No">5%</Option>
    <Option name="nCuts" modified="Yes">2000</Option>
    <Option name="BoostType" modified="Yes">Grad</Option>
    <Option name="AdaBoostR2Loss" modified="No">quadratic</Option>
    <Option name="UseBaggedBoost" modified="No">False</Option>
    <Option name="Shrinkage" modified="Yes">1.000000e-01</Option>
    <Option name="AdaBoostBeta" modified="No">5.000000e-01</Option>
    <Option name="UseRandomisedTrees" modified="No">False</Option>
    <Option name="UseNvars" modified="Yes">9</Option>
    <Option name="UsePoissonNvars" modified="No">True</Option>
    <Option name="BaggedSampleFraction" modified="No">6.000000e-01</Option>
    <Option name="UseYesNoLeaf" modified="No">True</Option>
    <Option name="NegWeightTreatment" modified="No">pray</Option>
    <Option name="Css" modified="No">1.000000e+00</Option>
    <Option name="Cts_sb" modified="No">1.000000e+00</Option>
    <Option name="Ctb_ss" modified="No">1.000000e+00</Option>
    <Option name="Cbb" modified="No">1.000000e+00</Option>
    <Option name="NodePurityLimit" modified="No">5.000000e-01</Option>
    <Option name="SeparationType" modified="No">giniindex</Option>
    <Option name="RegressionLossFunctionBDTG" modified="No">huber</Option>
    <Option name="HuberQuantile" modified="No">7.000000e-01</Option>
    <Option name="DoBoostMonitor" modified="No">False</Option>
    <Option name="UseFisherCuts" modified="No">False</Option>
    <Option name="MinLinCorrForFisher" modified="No">8.000000e-01</Option>
    <Option name="UseExclusiveVars" modified="No">False</Option>
    <Option name="DoPreselection" modified="No">False</Option>
    <Option name="SigToBkgFraction" modified="No">1.000000e+00</Option>
    <Option name="PruneMethod" modified="No">nopruning</Option>
    <Option name="PruneStrength" modified="No">0.000000e+00</Option>
    <Option name="PruningValFraction" modified="No">5.000000e-01</Option>
    <Option name="SkipNormalization" modified="No">False</Option>
    <Option name="nEventsMin" modified="No">0</Option>
    <Option name="UseBaggedGrad" modified="Yes">False</Option>
    <Option name="GradBaggingFraction" modified="No">6.000000e-01</Option>
    <Option name="UseNTrainEvents" modified="No">0</Option>
    <Option name="NNodesMax" modified="No">0</Option>
  </Options>
  <Variables NVar="13">
    <Variable VarIndex="0" Expression="Muon_pt" Label="Muon_pt" Title="Muon_pt" Unit="" Internal="Muon_pt" Type="D" Min="1.00000181e+01" Max="1.08817493e+03"/>
    <Variable VarIndex="1" Expression="Muon_eta" Label="Muon_eta" Title="Muon_eta" Unit="" Internal="Muon_eta" Type="D" Min="-2.39999390e+00" Max="2.39999390e+00"/>
    <Variable VarIndex="2" Expression="Muon_pfRelIso03_all" Label="Muon_pfRelIso03_all" Title="Muon_pfRelIso03_all" Unit="" Internal="Muon_pfRelIso03_all" Type="D" Min="0.00000000e+00" Max="1.92025681e+01"/>
    <Variable VarIndex="3" Expression="Muon_miniPFRelIso_chg" Label="Muon_miniPFRelIso_chg" Title="Muon_miniPFRelIso_chg" Unit="" Internal="Muon_miniPFRelIso_chg" Type="D" Min="0.00000000e+00" Max="3.99953157e-01"/>
    <Variable VarIndex="4" Expression="Muon_miniPFRelIso_all-Muon_miniPFRelIso_chg" Label="Muon_miniRelIsoNeutral" Title="Muon_miniRelIsoNeutral" Unit="" Internal="Muon_miniRelIsoNeutral" Type="D" Min="0.00000000e+00" Max="3.99941653e-01"/>
    <Variable VarIndex="5" Expression="Muon_jetNDauCharged" Label="Muon_jetNDauCharged" Title="Muon_jetNDauCharged" Unit="" Internal="Muon_jetNDauCharged" Type="D" Min="0.00000000e+00" Max="3.00000000e+01"/>
    <Variable VarIndex="6" Expression="Muon_jetPtRelv2" Label="Muon_jetPtRelv2" Title="Muon_jetPtRelv2" Unit="" Internal="Muon_jetPtRelv2" Type="D" Min="0.00000000e+00" Max="2.42500000e+02"/>
    <Variable VarIndex="7" Expression="Muon_jetIdx&gt;-1?Jet_btagDeepFlavB[Muon_jetIdx]:0" Label="Muon_jetBTagDeepFlavB" Title="Muon_jetBTagDeepFlavB" Unit="" Internal="Muon_jetBTagDeepFlavB" Type="D" Min="0.00000000e+00" Max="9.99511719e-01"/>
    <Variable VarIndex="8" Expression="min(1/(1+Muon_jetRelIso),1.5)" Label="Muon_jetPtRatio" Title="Muon_jetPtRatio" Unit="" Internal="Muon_jetPtRatio" Type="D" Min="2.00501252e-02" Max="1.50000000e+00"/>
    <Variable VarIndex="9" Expression="Muon_sip3d" Label="Muon_sip3d" Title="Muon_sip3d" Unit="" Internal="Muon_sip3d" Type="D" Min="2.05993652e-04" Max="7.99609375e+00"/>
    <Variable VarIndex="10" Expression="log(abs(Muon_dxy))" Label="Muon_log_dxy" Title="Muon_log_dxy" Unit="" Internal="Muon_log_dxy" Type="D" Min="-2.24848022e+01" Max="-3.02886796e+00"/>
    <Variable VarIndex="11" Expression="log(abs(Muon_dz))" Label="Muon_log_dz" Title="Muon_log_dz" Unit="" Internal="Muon_log_dz" Type="D" Min="-1.99082623e+01" Max="-2.30282927e+00"/>
    <Variable VarIndex="12" Expression="Muon_segmentComp" Label="Muon_segmentComp" Title="Muon_segmentComp" Unit="" Internal="Muon_segmentComp" Type="D" Min="3.03054810e-01" Max="1.00000000e+00"/>
  </Variables>
  <Spectators NSpec="0"/>
  <Classes NClass="2">
    <Class Name="Signal" Index="0"/>
    <Class Name="Background" Index="1"/>
  </Classes>
  <Transformations NTransformations="0"/>
  <MVAPdfs>
    <PDF Name="BDTG_PDFSig" MinNSmooth="0" MaxNSmooth="0" InterpolMethod="2" KDE_type="1" KDE_iter="1" KDE_border="1" KDE_finefactor="1.0000000000000000e+00">
      <Histogram Name="BDT_tr_S_original" NBins="18426" XMin="-9.9911099672317505e-01" XMax="9.9999749660491943e-01" HasEquidistantBins="1">
        0.00000000e+00 0.00000000e+00 0.00000000e+00 0.00000000e+00 0.00000000e+00 0.00000000e+00 0.00000000e+00 0.00000000e+00 0.00000000e+00 0.00000000e+00 0.00000000e+00 0.00000000e+00 0.00000000e+00 2.07945199e-02 0.00000000e+00 0.00000000e+00 0.00000000e+00 0.00000000e+00 0.00000000e+00 0.00000000e+00 1.03972599e-02 0.00000000e+00 2.07945199e-02 1.03972599e-02 0.00000000e+00 0.00000000e+00 1.03972599e-02 1.03972599e-02 3.11917798e-02 3.11917798e-02 5.19862997e-02 0.00000000e+00 2.07945199e-02 4.15890398e-02 3.11917798e-02 5.19862997e-02 3.11917798e-02 3.11917798e-02 2.07945199e-02 2.07945199e-02 3.11917798e-02 7.27808196e-02 1.03972599e-02 2.07945199e-02 1.03972599e-02 1.03972599e-02 3.11917798e-02 1.03972599e-02 2.07945199e-02 5.19862997e-02 4.15890398e-02 3.11917798e-02 5.19862997e-02 3.11917798e-02 4.15890398e-02 6.23835597e-02 2.07945199e-02 5.19862997e-02 5.19862997e-02 4.15890398e-02 3.11917798e-02 5.19862997e-02 9.35753395e-02 4.15890398e-02 1.03972599e-01 3.11917798e-02 5.19862997e-02 4.15890398e-02 3.11917798e-02 8.31780796e-02 3.11917798e-02 6.23835597e-02 6.23835597e-02 7.27808196e-02 2.07945199e-02 6.23835597e-02 6.23835597e-02 2.07945199e-02 1.03972599e-01 3.11917798e-02 6.23835597e-02 5.19862997e-02 8.31780796e-02 7.27808196e-02 6.23835597e-02 4.15890398e-02 7.27808196e-02 3.11917798e-02 4.15890398e-02 1.14369859e-01 4.15890398e-02 3.11917798e-02 4.15890398e-02 4.15890398e-02 1.14369859e-01 8.31780796e-02 7.27808196e-02 4.15890398e-02 1.14369859e-01 9.35753395e-02 6.23835597e-02 6.23835597e-02 8.31780796e-02 1.35164379e-01 1.24767119e-01 6.23835597e-02 7.27808196e-02 4.15890398e-02 1.14369859e-01 9.35753395e-02 2.07945199e-02 4.15890398e-02 4.15890398e-02 9.35753395e-02 2.07945199e-02 8.31780796e-02 1.14369859e-01 1.24767119e-01 7.27808196e-02 6.23835597e-02 1.35164379e-01 7.27808196e-02 8.31780796e-02 4.15890398e-02 4.15890398e-02 4.15890398e-02 7.27808196e-02 7.27808196e-02 9.35753395e-02 1.03972599e-01 6.23835597e-02 8.31780796e-02 7.27808196e-02 5.19862997e-02 9.35753395e-02 1.14369859e-01 1.14369859e-01 9.35753395e-02 8.31780796e-02 6.23835597e-02 5.19862997e-02 8.31780796e-02 4.15890398e-02 6.23835597e-02 6.23835597e-02 9.35753395e-02 6.23835597e-02 1.14369859e-01 7.27808196e-02 6.23835597e-02 8.31780796e-02 8.31780796e-02 1.03972599e-01 1.14369859e-01 1.14369859e-01 1.03972599e-01 4.15890398e-02 3.11917798e-02 5.19862997e-02 8.31780796e-02 6.23835597e-02 3.11917798e-02 7.27808196e-02 5.19862997e-02 1.45561639e-01 6.23835597e-02 8.31780796e-02 1.14369859e-01 5.19862997e-02 7.27808196e-02 6.23835597e-02 5.19862997e-02 6.23835597e-02 6.23835597e-02 7.27808196e-02 1.35164379e-01 5.19862997e-02 1.24767119e-01 1.03972599e-01 7.27808196e-02 8.31780796e-02 5.19862997e-02 5.19862997e-02 4.15890398e-02 8.31780796e-02 4.15890398e-02 1.03972599e-01 7.27808196e-02 7.27808196e-02 1.45561639e-01 8.31780796e-02 7.27808196e-02 6.23835597e-02 1.24767119e-01 6.23835597e-02 9.35753395e-02 1.24767119e-01 7.27808196e-02 3.11917798e-02 5.19862997e-02 6.23835597e-02 1.55958899e-01 7.27808196e-02 1.03972599e-01 2.07945199e-02 8.31780796e-02 4.15890398e-02 8.31780796e-02 5.19862997e-02 9.35753395e-02 4.15890398e-02 1.45561639e-01 1.24767119e-01 9.35753395e-02 7.27808196e-02 8.31780796e-02 1.03972599e-01 5.19862997e-02 7.27808196e-02 5.19862997e-02 8.31780796e-02 1.14369859e-01 8.31780796e-02 5.19862997e-02 1.14369859e-01 1.66356159e-01 6.23835597e-02 7.27808196e-02 1.03972599e-01 8.31780796e-02 8.31780796e-02 5.19862997e-02 1.24767119e-01 1.24767119e-01 7.27808196e-02 9.35753395e-02 1.14369859e-01 1.03972599e-01 9.35753395e-02 6.23835597e-02 5.19862997e-02 1.03972599e-01 1.14369859e-01 5.19862997e-02 1.03972599e-01 6.23835597e-02 1.03972599e-01 5.19862997e-02 8.31780796e-02 1.45561639e-01 7.27808196e-02 7.27808196e-02 8.31780796e-02 7.27808196e-02 1.03972599e-01 1.35164379e-01 8.31780796e-02 7.27808196e-02 7.27808196e-02 1.35164379e-01 4.15890398e-02 1.45561639e-01 7.27808196e-02 5.19862997e-02 2.07945199e-02 9.35753395e-02 5.19862997e-02 1.03972599e-01 8.31780796e-02 1.24767119e-01 1.35164379e-01 6.23835597e-02 1.14369859e-01 4.15890398e-02 3.11917798e-02 1.35164379e-01 8.31780796e-02 1.03972599e-01 1.35164379e-01 4.15890398e-02 7.27808196e-02 8.31780796e-02 8.31780796e-02 2.07945199e-02 8.31780796e-02 7.27808196e-02 1.14369859e-01 5.19862997e-02 8.31780796e-02 9.35753395e-02 7.27808196e-02 6.23835597e-02 1.45561639e-01 1.35164379e-01 1.14369859e-01 7.27808196e-02 8.31780796e-02 9.35753395e-02 8.31780796e-02 7.27808196e-02 8.31780796e-02 1.35164379e-01 1.03972599e-01 4.15890398e-02 1.03972599e-01 1.03972599e-01 9.35753395e-02 6.23835597e-02 6.23835597e-02 7.27808196e-02 9.35753395e-02 7.27808196e-02 6.23835597e-02 9.35753395e-02 9.35753395e-02 1.14369859e-01 1.24767119e-01 1.24767119e-01 1.14369859e-01 6.23835597e-02 1.45561639e-01 7.27808196e-02 4.15890398e-02 9.35753395e-02 9.35753395e-02 7.27808196e-02 5.19862997e-02 8.31780796e-02 5.19862997e-02 3.11917798e-02 8.31780796e-02 9.35753395e-02 5.19862997e-02 9.35753395e-02 7.27808196e-02 1.03972599e-01 8.31780796e-02 1.03972599e-01 8.31780796e-02 8.31780796e-02 5.19862997e-02 1.03972599e-01 8.31780796e-02 1.24767119e-01 4.15890398e-02 1.03972599e-01 5.19862997e-02 4.15890398e-02 8.31780796e-02 9.35753395e-02 7.27808196e-02 7.27808196e-02 9.35753395e-02 1.35164379e-01 1.66356159e-01 4.15890398e-02 5.19862997e-02 8.31780796e-02 9.35753395e-02 1.14369859e-01 6.23835597e-02 5.19862997e-02 1.45561639e-01 3.11917798e-02 8.31780796e-02 8.31780796e-02 1.03972599e-01 1.14369859e-01 8.31780796e-02 1.24767119e-01 4.15890398e-02 4.15890398e-02 7.27808196e-02 9.35753395e-02 7.27808196e-02 9.35753395e-02 1.03972599e-01 4.15890398e-02 4.15890398e-02 1.35164379e-01 7.27808196e-02 6.23835597e-02 9.35753395e-02 1.14369859e-01 1.03972599e-01 7.27808196e-02 7.27808196e-02 1.24767119e-01 8.31780796e-02 6.23835597e-02 5.19862997e-02 6.23835597e-02 9.35753395e-02 1.14369859e-01 7.27808196e-02 1.03972599e-01 4.15890398e-02 4.15890398e-02 9.35753395e-02 9.35753395e-02 1.45561639e-01 1.03972599e-01 1.45561639e-01 0.00000000e+00 7.27808196e-02 3.11917798e-02 7.27808196e-02 5.19862997e-02 4.15890398e-02 7.27808196e-02 6.23835597e-02 7.27808196e-02 8.31780796e-02 8.31780796e-02 4.15890398e-02 1.14369859e-01 8.31780796e-02 1.03972599e-01 4.15890398e-02 6.23835597e-02 6.23835597e-02 1.03972599e-01 1.14369859e-01 9.35753395e-02 4.15890398e-02 1.24767119e-01 8.31780796e-02 7.27808196e-02 1.45561639e-01 6.23835597e-02 8.31780796e-02 7.27808196e-02 6.23835597e-02 5.19862997e-02 9.35753395e-02 1.03972599e-01 5.19862997e-02 7.27808196e-02 1.45561639e-01 1.03972599e-01 8.31780796e-02 6.23835597e-02 1.14369859e-01 9.35753395e-02 6.23835597e-02 8.31780796e-02 8.31780796e-02 1.35164379e-01 9.35753395e-02 1.35164379e-01 1.14369859e-01 1.03972599e-01 1.14369859e-01 7.27808196e-02 7.27808196e-02 5.19862997e-02 1.24767119e-01 8.31780796e-02 7.27808196e-02 8.31780796e-02 1.03972599e-01 7.27808196e-02 8.31780796e-02 9.35753395e-02 8.31780796e-02 1.03972599e-01 7.27808196e-02 7.27808196e-02 3.11917798e-02 7.27808196e-02 5.19862997e-02 8.31780796e-02 7.27808196e-02 7.27808196e-02 1.24767119e-01 1.14369859e-01 9.35753395e-02 6.23835597e-02 8.31780796e-02 1.03972599e-01 2.07945199e-02 7.27808196e-02 1.14369859e-01 6.23835597e-02 9.35753395e-02 6.23835597e-02 7.27808196e-02 6.23835597e-02 6.23835597e-02 7.27808196e-02 8.31780796e-02 8.31780796e-02 6.23835597e-02 8.31780796e-02 1.14369859e-01 1.03972599e-01 4.15890398e-02 5.19862997e-02 1.03972599e-01 1.03972599e-01 1.03972599e-01 1.14369859e-01 9.35753395e-02 8.31780796e-02 7.27808196e-02 6.23835597e-02 3.11917798e-02 7.27808196e-02 1.35164379e-01 7.27808196e-02 9.35753395e-02 9.35753395e-02 4.15890398e-02 8.31780796e-02 1.24767119e-01 1.35164379e-01 5.19862997e-02 9.35753395e-02 7.27808196e-02 7.27808196e-02 9.35753395e-02 1.14369859e-01 7.27808196e-02 9.35753395e-02 7.27808196e-02 1.24767119e-01 7.27808196e-02 9.35753395e-02 8.31780796e-02 8.31780796e-02 9.35753395e-02 1.03972599e-01 7.27808196e-02 3.11917798e-02 8.31780796e-02 7.27808196e-02 7.27808196e-02 9.35753395e-02 8.31780796e-02 9.35753395e-02 8.31780796e-02 7.27808196e-02 8.31780796e-02 3.11917798e-02 8.31780796e-02 1.14369859e-01 8.31780796e-02 1.35164379e-01 1.03972599e-01 1.24767119e-01 6.23835597e-02 1.35164379e-01 4.15890398e-02 5.19862997e-02 6.23835597e-02 7.27808196e-02 1.14369859e-01 7.27808196e-02 1.24767119e-01 4.15890398e-02 8.31780796e-02 1.03972599e-01 1.35164379e-01 8.31780796e-02 9.35753395e-02 8.31780796e-02 9.35753395e-02 1.03972599e-01 7.27808196e-02 7.27808196e-02 1.14369859e-01 5.19862997e-02 1.14369859e-01 1.14369859e-01 6.23835597e-02 4.15890398e-02 4.15890398e-02 1.03972599e-01 1.03972599e-01 7.27808196e-02 8.31780796e-02 1.03972599e-01 7.27808196e-02 7.27808196e-02 9.35753395e-02 9.35753395e-02 1.03972599e-01 8.31780796e-02 1.03972599e-01 7.27808196e-02 1.03972599e-01 5.19862997e-02 1.35164379e-01 8.31780796e-02 6.23835597e-02 8.31780796e-02 9.35753395e-02 6.23835597e-02 6.23835597e-02 8.31780796e-02 3.11917798e-02 1.03972599e-01 8.31780796e-02 5.19862997e-02 9.35753395e-02 5.19862997e-02 7.27808196e-02 2.07945199e-02 9.35753395e-02 8.31780796e-02 4.15890398e-02 7.27808196e-02 3.11917798e-02 9.35753395e-02 9.35753395e-02 1.14369859e-01 9.35753395e-02 6.23835597e-02 7.27808196e-02 1.24767119e-01 8.31780796e-02 9.35753395e-02 7.27808196e-02 5.19862997e-02 5.19862997e-02 5.19862997e-02 1.03972599e-01 7.27808196e-02 5.19862997e-02 1.55958899e-01 1.03972599e-01 4.15890398e-02 9.35753395e-02 9.35753395e-02 7.27808196e-02 1.03972599e-01 4.15890398e-02 9.35753395e-02 5.19862997e-02 3.11917798e-02 4.15890398e-02 6.23835597e-02 3.11917798e-02 8.31780796e-02 7.27808196e-02 8.31780796e-02 9.35753395e-02 4.15890398e-02 8.31780796e-02 8.31780796e-02 8.31780796e-02 9.35753395e-02 7.27808196e-02 6.23835597e-02 1.35164379e-01 6.23835597e-02 6.23835597e-02 8.31780796e-02 7.27808196e-02 7.27808196e-02 1.03972599e-01 1.24767119e-01 8.31780796e-02 9.35753395e-02 8.31780796e-02 1.03972599e-01 1.14369859e-01 8.31780796e-02 8.31780796e-02 1.03972599e-01 3.11917798e-02 8.31780796e-02 2.07945199e-02 1.03972599e-01 8.31780796e-02 1.24767119e-01 6.23835597e-02 1.03972599e-01 8.31780796e-02 1.24767119e-01 9.35753395e-02 1.35164379e-01 1.45561639e-01 7.27808196e-02 9.35753395e-02 1.03972599e-02 7.27808196e-02 8.31780796e-02 4.15890398e-02 9.35753395e-02 4.15890398e-02 4.15890398e-02 5.19862997e-02 7.27808196e-02 5.19862997e-02 9.35753395e-02 1.24767119e-01 6.23835597e-02 9.35753395e-02 6.23835597e-02 6.23835597e-02 7.27808196e-02 1.14369859e-01 1.24767119e-01 5.19862997e-02 4.15890398e-02 1.03972599e-01 6.23835597e-02 7.27808196e-02 1.24767119e-01 5.19862997e-02 1.03972599e-01 7.27808196e-02 1.14369859e-01 9.35753395e-02 8.31780796e-02 7.27808196e-02 7.27808196e-02 5.19862997e-02 6.23835597e-02 6.23835597e-02 9.35753395e-02 4.15890398e-02 1.14369859e-01 1.14369859e-01 6.23835597e-02 8.31780796e-02 3.11917798e-02 1.14369859e-01 1.14369859e-01 4.15890398e-02 6.23835597e-02 7.27808196e-02 5.19862997e-02 3.11917798e-02 6.23835597e-02 8.31780796e-02 4.15890398e-02 8.31780796e-02 5.19862997e-02 1.24767119e-01 9.35753395e-02 3.11917798e-02 6.23835597e-02 7.27808196e-02 6.23835597e-02 7.27808196e-02 1.14369859e-01 8.31780796e-02 8.31780796e-02 5.19862997e-02 1.03972599e-01 6.23835597e-02 7.27808196e-02 5.19862997e-02 8.31780796e-02 4.15890398e-02 9.35753395e-02 6.23835597e-02 5.19862997e-02 6.23835597e-02 7.27808196e-02 5.19862997e-02 1.14369859e-01 1.03972599e-01 5.19862997e-02 5.19862997e-02 9.35753395e-02 7.27808196e-02 8.31780796e-02 1.35164379e-01 8.31780796e-02 6.23835597e-02 7.27808196e-02 1.24767119e-01 3.11917798e-02 6.23835597e-02 8.31780796e-02 5.19862997e-02 1.03972599e-01 1.14369859e-01 1.03972599e-01 7.27808196e-02 7.27808196e-02 1.24767119e-01 8.31780796e-02 5.19862997e-02 1.14369859e-01 7.27808196e-02 9.35753395e-02 1.03972599e-01 3.11917798e-02 6.23835597e-02 7.27808196e-02 1.14369859e-01 5.19862997e-02 9.35753395e-02 1.35164379e-01 9.35753395e-02 8.31780796e-02 9.35753395e-02 3.11917798e-02 4.15890398e-02 4.15890398e-02 7.27808196e-02 7.27808196e-02 8.31780796e-02 5.19862997e-02 1.24767119e-01 1.03972599e-02 7.27808196e-02 7.27808196e-02 5.19862997e-02 1.24767119e-01 7.27808196e-02 5.19862997e-02 7.27808196e-02 7.27808196e-02 4.15890398e-02 1.03972599e-01 1.03972599e-01 2.07945199e-02 1.03972599e-01 7.27808196e-02 8.31780796e-02 8.31780796e-02 8.31780796e-02 9.35753395e-02 1.35164379e-01 6.23835597e-02 1.03972599e-01 7.27808196e-02 8.31780796e-02 3.11917798e-02 6.23835597e-02 1.45561639e-01 5.19862997e-02 5.19862997e-02 7.27808196e-02 8.31780796e-02 4.15890398e-02 8.31780796e-02 6.23835597e-02 1.03972599e-01 1.14369859e-01 1.03972599e-01 8.31780796e-02 1.35164379e-01 9.35753395e-02 1.03972599e-01 5.19862997e-02 8.31780796e-02 5.19862997e-02 8.31780796e-02 6.23835597e-02 2.07945199e-02 3.11917798e-02 6.23835597e-02 6.23835597e-02 4.15890398e-02 1.03972599e-01 1.03972599e-01 6.23835597e-02 9.35753395e-02 5.19862997e-02 1.03972599e-01 5.19862997e-02 1.03972599e-01 1.03972599e-01 1.03972599e-01 5.19862997e-02 8.31780796e-02 1.24767119e-01 8.31780796e-02 7.27808196e-02 1.14369859e-01 8.31780796e-02 7.27808196e-02 8.31780796e-02 1.03972599e-01 1.03972599e-01 1.03972599e-01 4.15890398e-02 7.27808196e-02 7.27808196e-02 5.19862997e-02 8.31780796e-02 9.35753395e-02 1.03972599e-01 5.19862997e-02 3.11917798e-02 7.27808196e-02 8.31780796e-02 9.35753395e-02 9.35753395e-02 9.35753395e-02 8.31780796e-02 3.11917798e-02 4.15890398e-02 7.27808196e-02 4.15890398e-02 8.31780796e-02 1.03972599e-01 7.27808196e-02 6.23835597e-02 4.15890398e-02 1.24767119e-01 8.31780796e-02 5.19862997e-02 7.27808196e-02 4.15890398e-02 6.23835597e-02 8.31780796e-02 1.03972599e-01 7.27808196e-02 9.35753395e-02 7.27808196e-02 1.14369859e-01 8.31780796e-02 6.23835597e-02 8.31780796e-02 6.23835597e-02 8.31780796e-02 4.15890398e-02 8.31780796e-02 4.15890398e-02 5.19862997e-02 1.76753419e-01 1.03972599e-01 8.31780796e-02 6.23835597e-02 6.23835597e-02 6.23835597e-02 9.35753395e-02 5.19862997e-02 8.31780796e-02 7.27808196e-02 4.15890398e-02 6.23835597e-02 1.03972599e-01 1.45561639e-01 3.11917798e-02 8.31780796e-02 7.27808196e-02 1.24767119e-01 6.23835597e-02 8.31780796e-02 3.11917798e-02 8.31780796e-02 1.35164379e-01 6.23835597e-02 5.19862997e-02 6.23835597e-02 8.31780796e-02 6.23835597e-02 1.03972599e-01 5.19862997e-02 8.31780796e-02 5.19862997e-02 4.15890398e-02 5.19862997e-02 5.19862997e-02 6.23835597e-02 9.35753395e-02 5.19862997e-02 1.03972599e-01 8.31780796e-02 9.35753395e-02 4.15890398e-02 7.27808196e-02 5.19862997e-02 1.03972599e-01 1.35164379e-01 8.31780796e-02 7.27808196e-02 9.35753395e-02 4.15890398e-02 3.11917798e-02 7.27808196e-02 9.35753395e-02 5.19862997e-02 5.19862997e-02 7.27808196e-02 9.35753395e-02 5.19862997e-02 8.31780796e-02 1.03972599e-01 1.14369859e-01 4.15890398e-02 9.35753395e-02 3.11917798e-02 6.23835597e-02 6.23835597e-02 9.35753395e-02 9.35753395e-02 3.11917798e-02 4.15890398e-02 1.14369859e-01 8.31780796e-02 7.27808196e-02 6.23835597e-02 4.15890398e-02 7.27808196e-02 8.31780796e-02 6.23835597e-02 9.35753395e-02 3.11917798e-02 9.35753395e-02 6.23835597e-02 9.35753395e-02 1.03972599e-01 9.35753395e-02 4.15890398e-02 5.19862997e-02 8.31780796e-02 7.27808196e-02 1.03972599e-01 8.31780796e-02 4.15890398e-02 4.15890398e-02 9.35753395e-02 9.35753395e-02 6.23835597e-02 1.24767119e-01 5.19862997e-02 8.31780796e-02 1.45561639e-01 4.15890398e-02 3.11917798e-02 1.14369859e-01 8.31780796e-02 1.14369859e-01 1.03972599e-01 6.23835597e-02 1.24767119e-01 1.03972599e-01 3.11917798e-02 3.11917798e-02 6.23835597e-02 5.19862997e-02 5.19862997e-02 8.31780796e-02 7.27808196e-02 7.27808196e-02 1.03972599e-01 7.27808196e-02 6.23835597e-02 5.19862997e-02 7.27808196e-02 7.27808196e-02 1.24767119e-01 3.11917798e-02 8.31780796e-02 5.19862997e-02 6.23835597e-02 7.27808196e-02 8.31780796e-02 1.03972599e-01 6.23835597e-02 5.19862997e-02 5.19862997e-02 7.27808196e-02 3.11917798e-02 7.27808196e-02 9.35753395e-02 6.23835597e-02 9.35753395e-02 6.23835597e-02 4.15890398e-02 4.15890398e-02 8.31780796e-02 7.27808196e-02 4.15890398e-02 1.24767119e-01 9.35753395e-02 6.23835597e-02 5.19862997e-02 7.27808196e-02 6.23835597e-02 8.31780796e-02 5.19862997e-02 1.24767119e-01 3.11917798e-02 1.35164379e-01 5.19862997e-02 8.31780796e-02 8.31780796e-02 1.03972599e-01 1.03972599e-01 6.23835597e-02 1.03972599e-01 7.27808196e-02 5.19862997e-02 6.23835597e-02 8.31780796e-02 4.15890398e-02 4.15890398e-02 8.31780796e-02 1.14369859e-01 1.03972599e-01 1.03972599e-02 7.27808196e-02 9.35753395e-02 5.19862997e-02 1.24767119e-01 7.27808196e-02 7.27808196e-02 6.23835597e-02 5.19862997e-02 8.31780796e-02 1.14369859e-01 6.23835597e-02 1.14369859e-01 8.31780796e-02 1.03972599e-01 6.23835597e-02 6.23835597e-02 8.31780796e-02 4.15890398e-02 5.19862997e-02 8.31780796e-02 3.11917798e-02 8.31780796e-02 6.23835597e-02 9.35753395e-02 8.31780796e-02 9.35753395e-02 5.19862997e-02 6.23835597e-02 4.15890398e-02 7.27808196e-02 1.14369859e-01 1.14369859e-01 7.27808196e-02 8.31780796e-02 6.23835597e-02 9.35753395e-02 7.27808196e-02 2.07945199e-02 5.19862997e-02 9.35753395e-02 1.55958899e-01 1.03972599e-01 4.15890398e-02 8.31780796e-02 8.31780796e-02 6.23835597e-02 3.11917798e-02 1.03972599e-01 7.27808196e-02 6.23835597e-02 6.23835597e-02 4.15890398e-02 8.31780796e-02 7.27808196e-02 6.23835597e-02 1.76753419e-01 7.27808196e-02 4.15890398e-02 6.23835597e-02 9.35753395e-02 1.35164379e-01 4.15890398e-02 9.35753395e-02 1.03972599e-01 4.15890398e-02 9.35753395e-02 7.27808196e-02 3.11917798e-02 1.03972599e-01 9.35753395e-02 3.11917798e-02 7.27808196e-02 5.19862997e-02 4.15890398e-02 7.27808196e-02 1.14369859e-01 1.03972599e-02 7.27808196e-02 7.27808196e-02 1.03972599e-01 8.31780796e-02 8.31780796e-02 7.27808196e-02 1.35164379e-01 6.23835597e-02 7.27808196e-02 8.31780796e-02 7.27808196e-02 0.00000000e+00 5.19862997e-02 6.23835597e-02 8.31780796e-02 1.03972599e-01 5.19862997e-02 9.35753395e-02 5.19862997e-02 6.23835597e-02 8.31780796e-02 6.23835597e-02 8.31780796e-02 1.03972599e-01 5.19862997e-02 8.31780796e-02 8.31780796e-02 6.23835597e-02 1.03972599e-01 6.23835597e-02 1.03972599e-01 5.19862997e-02 1.03972599e-01 9.35753395e-02 7.27808196e-02 5.19862997e-02 1.03972599e-01 3.11917798e-02 1.24767119e-01 6.23835597e-02 6.23835597e-02 4.15890398e-02 1.24767119e-01 1.03972599e-01 6.23835597e-02 6.23835597e-02 8.31780796e-02 1.24767119e-01 1.03972599e-01 1.03972599e-01 7.27808196e-02 7.27808196e-02 8.31780796e-02 8.31780796e-02 5.19862997e-02 8.31780796e-02 5.19862997e-02 3.11917798e-02 9.35753395e-02 3.11917798e-02 7.27808196e-02 9.35753395e-02 6.23835597e-02 5.19862997e-02 1.03972599e-01 3.11917798e-02 3.11917798e-02 6.23835597e-02 7.27808196e-02 7.27808196e-02 3.11917798e-02 6.23835597e-02 6.23835597e-02 1.14369859e-01 7.27808196e-02 5.19862997e-02 5.19862997e-02 7.27808196e-02 5.19862997e-02 6.23835597e-02 8.31780796e-02 1.03972599e-01 5.19862997e-02 6.23835597e-02 5.19862997e-02 1.14369859e-01 2.07945199e-02 4.15890398e-02 5.19862997e-02 5.19862997e-02 6.23835597e-02 6.23835597e-02 9.35753395e-02 1.14369859e-01 3.11917798e-02 5.19862997e-02 6.23835597e-02 6.23835597e-02 6.23835597e-02 7.27808196e-02 6.23835597e-02 1.55958899e-01 4.15890398e-02 4.15890398e-02 6.23835597e-02 3.11917798e-02 3.11917798e-02 5.19862997e-02 1.35164379e-01 3.11917798e-02 6.23835597e-02 1.24767119e-01 7.27808196e-02 1.14369859e-01 9.35753395e-02 4.15890398e-02 7.27808196e-02 6.23835597e-02 1.35164379e-01 1.14369859e-01 4.15890398e-02 4.15890398e-02 8.31780796e-02 4.15890398e-02 8.31780796e-02 6.23835597e-02 8.31780796e-02 1.03972599e-01 5.19862997e-02 4.15890398e-02 7.27808196e-02 1.03972599e-01 7.27808196e-02 3.11917798e-02 8.31780796e-02 4.15890398e-02 8.31780796e-02 8.31780796e-02 5.19862997e-02 2.07945199e-02 8.31780796e-02 6.23835597e-02 3.11917798e-02 6.23835597e-02 8.31780796e-02 5.19862997e-02 8.31780796e-02 6.23835597e-02 7.27808196e-02 3.11917798e-02 5.19862997e-02 3.11917798e-02 9.35753395e-02 4.15890398e-02 6.23835597e-02 4.15890398e-02 7.27808196e-02 5.19862997e-02 5.19862997e-02 7.27808196e-02 1.24767119e-01 4.15890398e-02 8.31780796e-02 3.11917798e-02 7.27808196e-02 5.19862997e-02 6.23835597e-02 6.23835597e-02 5.19862997e-02 1.03972599e-02 1.03972599e-01 8.31780796e-02 9.35753395e-02 7.27808196e-02 6.23835597e-02 8.31780796e-02 1.35164379e-01 9.35753395e-02 1.03972599e-01 1.03972599e-01 3.11917798e-02 6.23835597e-02 3.11917798e-02 8.31780796e-02 5.19862997e-02 9.35753395e-02 6.23835597e-02 4.15890398e-02 1.14369859e-01 6.23835597e-02 9.35753395e-02 6.23835597e-02 8.31780796e-02 6.23835597e-02 5.19862997e-02 7.27808196e-02 6.23835597e-02 7.27808196e-02 7.27808196e-02 7.27808196e-02 6.23835597e-02 9.35753395e-02 6.23835597e-02 8.31780796e-02 1.24767119e-01 5.19862997e-02 1.03972599e-01 7.27808196e-02 7.27808196e-02 5.19862997e-02 1.14369859e-01 3.11917798e-02 8.31780796e-02 7.27808196e-02 1.45561639e-01 4.15890398e-02 6.23835597e-02 9.35753395e-02 6.23835597e-02 8.31780796e-02 5.19862997e-02 6.23835597e-02 7.27808196e-02 6.23835597e-02 2.07945199e-02 6.23835597e-02 5.19862997e-02 4.15890398e-02 5.19862997e-02 7.27808196e-02 5.19862997e-02 1.45561639e-01 6.23835597e-02 7.27808196e-02 5.19862997e-02 5.19862997e-02 1.14369859e-01 9.35753395e-02 9.35753395e-02 8.31780796e-02 1.14369859e-01 9.35753395e-02 1.03972599e-01 5.19862997e-02 1.24767119e-01 6.23835597e-02 5.19862997e-02 1.45561639e-01 6.23835597e-02 4.15890398e-02 5.19862997e-02 5.19862997e-02 6.23835597e-02 7.27808196e-02 6.23835597e-02 3.11917798e-02 8.31780796e-02 6.23835597e-02 6.23835597e-02 4.15890398e-02 6.23835597e-02 5.19862997e-02 7.27808196e-02 3.11917798e-02 7.27808196e-02 2.07945199e-02 8.31780796e-02 6.23835597e-02 7.27808196e-02 9.35753395e-02 3.11917798e-02 1.03972599e-01 3.11917798e-02 6.23835597e-02 6.23835597e-02 1.03972599e-01 8.31780796e-02 1.03972599e-01 3.11917798e-02 1.03972599e-01 1.03972599e-01 7.27808196e-02 1.03972599e-01 8.31780796e-02 8.31780796e-02 0.00000000e+00 7.27808196e-02 6.23835597e-02 6.23835597e-02 5.19862997e-02 5.19862997e-02 1.14369859e-01 6.23835597e-02 7.27808196e-02 1.24767119e-01 3.11917798e-02 1.03972599e-01 8.31780796e-02 8.31780796e-02 5.19862997e-02 3.11917798e-02 6.23835597e-02 6.23835597e-02 1.03972599e-01 5.19862997e-02 8.31780796e-02 7.27808196e-02 8.31780796e-02 5.19862997e-02 6.23835597e-02 7.27808196e-02 6.23835597e-02 7.27808196e-02 4.15890398e-02 4.15890398e-02 8.31780796e-02 5.19862997e-02 6.23835597e-02 8.31780796e-02 4.15890398e-02 5.19862997e-02 1.03972599e-01 7.27808196e-02 7.27808196e-02 8.31780796e-02 6.23835597e-02 4.15890398e-02 8.31780796e-02 9.35753395e-02 7.27808196e-02 1.03972599e-01 6.23835597e-02 5.19862997e-02 4.15890398e-02 5.19862997e-02 3.11917798e-02 6.23835597e-02 6.23835597e-02 8.31780796e-02 9.35753395e-02 3.11917798e-02 3.11917798e-02 6.23835597e-02 4.15890398e-02 6.23835597e-02 5.19862997e-02 9.35753395e-02 7.27808196e-02 3.11917798e-02 5.19862997e-02 8.31780796e-02 1.03972599e-01 1.14369859e-01 4.15890398e-02 2.07945199e-02 8.31780796e-02 7.27808196e-02 4.15890398e-02 9.35753395e-02 4.15890398e-02 1.03972599e-01 3.11917798e-02 9.35753395e-02 9.35753395e-02 6.23835597e-02 9.35753395e-02 7.27808196e-02 5.19862997e-02 9.35753395e-02 6.23835597e-02 6.23835597e-02 1.03972599e-01 9.35753395e-02 8.31780796e-02 4.15890398e-02 5.19862997e-02 5.19862997e-02 8.31780796e-02 8.31780796e-02 1.03972599e-01 7.27808196e-02 4.15890398e-02 7.27808196e-02 3.11917798e-02 5.19862997e-02 7.27808196e-02 6.23835597e-02 0.00000000e+00 1.14369859e-01 9.35753395e-02 3.11917798e-02 5.19862997e-02 6.23835597e-02 1.24767119e-01 5.19862997e-02 8.31780796e-02 8.31780796e-02 8.31780796e-02 5.19862997e-02 8.31780796e-02 3.11917798e-02 5.19862997e-02 6.23835597e-02 5.19862997e-02 7.27808196e-02 4.15890398e-02 3.11917798e-02 9.35753395e-02 7.27808196e-02 8.31780796e-02 5.19862997e-02 6.23835597e-02 7.27808196e-02 9.35753395e-02 6.23835597e-02 7.27808196e-02 3.11917798e-02 3.11917798e-02 6.23835597e-02 1.03972599e-01 7.27808196e-02 5.19862997e-02 3.11917798e-02 8.31780796e-02 7.27808196e-02 9.35753395e-02 1.03972599e-01 6.23835597e-02 8.31780796e-02 6.23835597e-02 5.19862997e-02 5.19862997e-02 4.15890398e-02 2.07945199e-02 5.19862997e-02 7.27808196e-02 1.03972599e-01 8.31780796e-02 8.31780796e-02 6.23835597e-02 6.23835597e-02 9.35753395e-02 6.23835597e-02 4.15890398e-02 8.31780796e-02 9.35753395e-02 8.31780796e-02 6.23835597e-02 2.07945199e-02 5.19862997e-02 5.19862997e-02 4.15890398e-02 6.23835597e-02 9.35753395e-02 5.19862997e-02 7.27808196e-02 1.24767119e-01 7.27808196e-02 5.19862997e-02 1.24767119e-01 7.27808196e-02 3.11917798e-02 4.15890398e-02 7.27808196e-02 8.31780796e-02 9.35753395e-02 9.35753395e-02 5.19862997e-02 7.27808196e-02 5.19862997e-02 2.07945199e-02 6.23835597e-02 6.23835597e-02 7.27808196e-02 8.31780796e-02 5.19862997e-02 9.35753395e-02 8.31780796e-02 1.03972599e-01 9.35753395e-02 5.19862997e-02 5.19862997e-02 9.35753395e-02 7.27808196e-02 3.11917798e-02 9.35753395e-02 5.19862997e-02 2.07945199e-02 7.27808196e-02 1.03972599e-01 9.35753395e-02 4.15890398e-02 6.23835597e-02 6.23835597e-02 6.23835597e-02 6.23835597e-02 3.11917798e-02 4.15890398e-02 8.31780796e-02 5.19862997e-02 9.35753395e-02 1.03972599e-02 6.23835597e-02 4.15890398e-02 1.03972599e-02 2.07945199e-02 9.35753395e-02 4.15890398e-02 9.35753395e-02 4.15890398e-02 5.19862997e-02 6.23835597e-02 4.15890398e-02 4.15890398e-02 7.27808196e-02 7.27808196e-02 4.15890398e-02 1.14369859e-01 3.11917798e-02 6.23835597e-02 5.19862997e-02 5.19862997e-02 2.07945199e-02 1.55958899e-01 8.31780796e-02 5.19862997e-02 1.03972599e-01 8.31780796e-02 5.19862997e-02 7.27808196e-02 2.07945199e-02 3.11917798e-02 6.23835597e-02 7.27808196e-02 7.27808196e-02 6.23835597e-02 7.27808196e-02 1.14369859e-01 5.19862997e-02 7.27808196e-02 5.19862997e-02 4.15890398e-02 4.15890398e-02 7.27808196e-02 1.03972599e-01 4.15890398e-02 5.19862997e-02 1.14369859e-01 1.76753419e-01 8.31780796e-02 7.27808196e-02 7.27808196e-02 1.14369859e-01 8.31780796e-02 1.45561639e-01 2.07945199e-02 2.07945199e-02 6.23835597e-02 1.03972599e-02 9.35753395e-02 9.35753395e-02 4.15890398e-02 6.23835597e-02 1.14369859e-01 6.23835597e-02 1.14369859e-01 6.23835597e-02 8.31780796e-02 9.35753395e-02 5.19862997e-02 5.19862997e-02 3.11917798e-02 3.11917798e-02 3.11917798e-02 4.15890398e-02 1.03972599e-01 7.27808196e-02 6.23835597e-02 6.23835597e-02 9.35753395e-02 8.31780796e-02 1.03972599e-01 5.19862997e-02 7.27808196e-02 1.14369859e-01 7.27808196e-02 9.35753395e-02 5.19862997e-02 3.11917798e-02 3.11917798e-02 7.27808196e-02 5.19862997e-02 1.14369859e-01 5.19862997e-02 1.03972599e-01 1.03972599e-01 5.19862997e-02 6.23835597e-02 7.27808196e-02 8.31780796e-02 5.19862997e-02 5.19862997e-02 8.31780796e-02 3.11917798e-02 5.19862997e-02 8.31780796e-02 9.35753395e-02 8.31780796e-02 1.24767119e-01 6.23835597e-02 5.19862997e-02 7.27808196e-02 1.24767119e-01 9.35753395e-02 5.19862997e-02 9.35753395e-02 9.35753395e-02 2.07945199e-02 6.23835597e-02 6.23835597e-02 1.03972599e-02 2.07945199e-02 8.31780796e-02 5.19862997e-02 9.35753395e-02 1.03972599e-01 4.15890398e-02 4.15890398e-02 9.35753395e-02 6.23835597e-02 5.19862997e-02 3.11917798e-02 5.19862997e-02 5.19862997e-02 9.35753395e-02 1.14369859e-01 7.27808196e-02 3.11917798e-02 6.23835597e-02 4.15890398e-02 7.27808196e-02 2.07945199e-02 4.15890398e-02 1.14369859e-01 4.15890398e-02 7.27808196e-02 5.19862997e-02 8.31780796e-02 3.11917798e-02 6.23835597e-02 6.23835597e-02 7.27808196e-02 2.07945199e-02 8.31780796e-02 5.19862997e-02 1.03972599e-01 6.23835597e-02 4.15890398e-02 9.35753395e-02 8.31780796e-02 3.11917798e-02 6.23835597e-02 1.24767119e-01 6.23835597e-02 8.31780796e-02 9.35753395e-02 4.15890398e-02 6.23835597e-02 5.19862997e-02 7.27808196e-02 6.23835597e-02 7.27808196e-02 9.35753395e-02 8.31780796e-02 6.23835597e-02 5.19862997e-02 1.14369859e-01 4.15890398e-02 8.31780796e-02 8.31780796e-02 7.27808196e-02 6.23835597e-02 4.15890398e-02 1.03972599e-01 7.27808196e-02 5.19862997e-02 7.27808196e-02 7.27808196e-02 9.35753395e-02 1.14369859e-01 7.27808196e-02 7.27808196e-02 5.19862997e-02 5.19862997e-02 7.27808196e-02 7.27808196e-02 4.15890398e-02 4.15890398e-02 5.19862997e-02 3.11917798e-02 8.31780796e-02 1.03972599e-01 2.07945199e-02 3.11917798e-02 7.27808196e-02 4.15890398e-02 8.31780796e-02 6.23835597e-02 2.07945199e-02 8.31780796e-02 8.31780796e-02 7.27808196e-02 2.07945199e-02 5.19862997e-02 6.23835597e-02 4.15890398e-02 4.15890398e-02 7.27808196e-02 5.19862997e-02 1.03972599e-01 4.15890398e-02 3.11917798e-02 4.15890398e-02 7.27808196e-02 8.31780796e-02 4.15890398e-02 1.03972599e-01 6.23835597e-02 8.31780796e-02 9.35753395e-02 8.31780796e-02 4.15890398e-02 8.31780796e-02 5.19862997e-02 5.19862997e-02 3.11917798e-02 8.31780796e-02 5.19862997e-02 6.23835597e-02 4.15890398e-02 4.15890398e-02 7.27808196e-02 9.35753395e-02 6.23835597e-02 1.03972599e-01 9.35753395e-02 4.15890398e-02 1.24767119e-01 6.23835597e-02 1.03972599e-01 7.27808196e-02 7.27808196e-02 5.19862997e-02 7.27808196e-02 4.15890398e-02 5.19862997e-02 7.27808196e-02 7.27808196e-02 8.31780796e-02 4.15890398e-02 7.27808196e-02 4.15890398e-02 8.31780796e-02 6.23835597e-02 4.15890398e-02 4.15890398e-02 5.19862997e-02 9.35753395e-02 8.31780796e-02 8.31780796e-02 5.19862997e-02 1.03972599e-02 2.07945199e-02 4.15890398e-02 1.14369859e-01 3.11917798e-02 8.31780796e-02 9.35753395e-02 5.19862997e-02 7.27808196e-02 5.19862997e-02 8.31780796e-02 7.27808196e-02 1.03972599e-01 2.07945199e-02 7.27808196e-02 4.15890398e-02 2.07945199e-02 1.35164379e-01 4.15890398e-02 2.07945199e-02 4.15890398e-02 4.15890398e-02 9.35753395e-02 6.23835597e-02 1.14369859e-01 7.27808196e-02 6.23835597e-02 3.11917798e-02 1.24767119e-01 7.27808196e-02 6.23835597e-02 1.76753419e-01 7.27808196e-02 4.15890398e-02 4.15890398e-02 7.27808196e-02 4.15890398e-02 7.27808196e-02 5.19862997e-02 7.27808196e-02 9.35753395e-02 5.19862997e-02 3.11917798e-02 8.31780796e-02 3.11917798e-02 4.15890398e-02 4.15890398e-02 5.19862997e-02 9.35753395e-02 7.27808196e-02 8.31780796e-02 8.31780796e-02 8.31780796e-02 0.00000000e+00 1.24767119e-01 6.23835597e-02 7.27808196e-02 6.23835597e-02 8.31780796e-02 5.19862997e-02 8.31780796e-02 9.35753395e-02 8.31780796e-02 1.03972599e-02 4.15890398e-02 2.07945199e-02 6.23835597e-02 2.07945199e-02 8.31780796e-02 3.11917798e-02 6.23835597e-02 5.19862997e-02 8.31780796e-02 8.31780796e-02 3.11917798e-02 6.23835597e-02 5.19862997e-02 9.35753395e-02 1.35164379e-01 3.11917798e-02 5.19862997e-02 5.19862997e-02 8.31780796e-02 1.14369859e-01 3.11917798e-02 4.15890398e-02 5.19862997e-02 8.31780796e-02 4.15890398e-02 4.15890398e-02 7.27808196e-02 8.31780796e-02 3.11917798e-02 2.07945199e-02 1.14369859e-01 7.27808196e-02 7.27808196e-02 5.19862997e-02 4.15890398e-02 8.31780796e-02 5.19862997e-02 5.19862997e-02 4.15890398e-02 8.31780796e-02 9.35753395e-02 5.19862997e-02 4.15890398e-02 2.07945199e-02 6.23835597e-02 3.11917798e-02 6.23835597e-02 3.11917798e-02 3.11917798e-02 5.19862997e-02 5.19862997e-02 8.31780796e-02 7.27808196e-02 5.19862997e-02 4.15890398e-02 4.15890398e-02 5.19862997e-02 9.35753395e-02 1.03972599e-01 5.19862997e-02 1.14369859e-01 3.11917798e-02 3.11917798e-02 5.19862997e-02 3.11917798e-02 4.15890398e-02 5.19862997e-02 5.19862997e-02 4.15890398e-02 4.15890398e-02 3.11917798e-02 5.19862997e-02 8.31780796e-02 5.19862997e-02 7.27808196e-02 7.27808196e-02 7.27808196e-02 3.11917798e-02 7.27808196e-02 4.15890398e-02 6.23835597e-02 9.35753395e-02 7.27808196e-02 3.11917798e-02 5.19862997e-02 5.19862997e-02 6.23835597e-02 5.19862997e-02 6.23835597e-02 4.15890398e-02 1.03972599e-02 6.23835597e-02 4.15890398e-02 6.23835597e-02 6.23835597e-02 6.23835597e-02 7.27808196e-02 1.35164379e-01 2.07945199e-02 4.15890398e-02 6.23835597e-02 8.31780796e-02 4.15890398e-02 4.15890398e-02 6.23835597e-02 4.15890398e-02 7.27808196e-02 5.19862997e-02 5.19862997e-02 5.19862997e-02 6.23835597e-02 4.15890398e-02 1.03972599e-01 8.31780796e-02 4.15890398e-02 6.23835597e-02 6.23835597e-02 9.35753395e-02 7.27808196e-02 4.15890398e-02 3.11917798e-02 4.15890398e-02 2.07945199e-02 6.23835597e-02 3.11917798e-02 1.35164379e-01 5.19862997e-02 6.23835597e-02 1.03972599e-02 5.19862997e-02 8.31780796e-02 4.15890398e-02 8.31780796e-02 5.19862997e-02 6.23835597e-02 5.19862997e-02 6.23835597e-02 9.35753395e-02 2.07945199e-02 3.11917798e-02 7.27808196e-02 6.23835597e-02 9.35753395e-02 5.19862997e-02 5.19862997e-02 5.19862997e-02 4.15890398e-02 2.07945199e-02 4.15890398e-02 1.03972599e-02 9.35753395e-02 2.07945199e-02 8.31780796e-02 5.19862997e-02 6.23835597e-02 3.11917798e-02 1.03972599e-01 3.11917798e-02 6.23835597e-02 1.03972599e-01 1.03972599e-01 6.23835597e-02 7.27808196e-02 9.35753395e-02 1.03972599e-01 6.23835597e-02 5.19862997e-02 7.27808196e-02 3.11917798e-02 6.23835597e-02 6.23835597e-02 1.14369859e-01 5.19862997e-02 4.15890398e-02 3.11917798e-02 8.31780796e-02 8.31780796e-02 5.19862997e-02 1.24767119e-01 5.19862997e-02 8.31780796e-02 1.03972599e-02 1.24767119e-01 4.15890398e-02 3.11917798e-02 7.27808196e-02 7.27808196e-02 5.19862997e-02 7.27808196e-02 7.27808196e-02 3.11917798e-02 9.35753395e-02 3.11917798e-02 4.15890398e-02 9.35753395e-02 5.19862997e-02 9.35753395e-02 4.15890398e-02 2.07945199e-02 7.27808196e-02 1.03972599e-02 6.23835597e-02 5.19862997e-02 4.15890398e-02 8.31780796e-02 7.27808196e-02 2.07945199e-02 1.14369859e-01 6.23835597e-02 6.23835597e-02 6.23835597e-02 7.27808196e-02 8.31780796e-02 3.11917798e-02 9.35753395e-02 6.23835597e-02 3.11917798e-02 5.19862997e-02 5.19862997e-02 6.23835597e-02 5.19862997e-02 7.27808196e-02 9.35753395e-02 5.19862997e-02 3.11917798e-02 5.19862997e-02 6.23835597e-02 5.19862997e-02 4.15890398e-02 7.27808196e-02 3.11917798e-02 6.23835597e-02 3.11917798e-02 2.07945199e-02 5.19862997e-02 1.03972599e-02 5.19862997e-02 5.19862997e-02 7.27808196e-02 7.27808196e-02 4.15890398e-02 1.35164379e-01 3.11917798e-02 3.11917798e-02 7.27808196e-02 5.19862997e-02 8.31780796e-02 5.19862997e-02 4.15890398e-02 6.23835597e-02 7.27808196e-02 1.03972599e-02 3.11917798e-02 9.35753395e-02 1.03972599e-02 5.19862997e-02 4.15890398e-02 5.19862997e-02 1.03972599e-01 7.27808196e-02 8.31780796e-02 3.11917798e-02 7.27808196e-02 4.15890398e-02 7.27808196e-02 9.35753395e-02 3.11917798e-02 7.27808196e-02 8.31780796e-02 3.11917798e-02 6.23835597e-02 1.24767119e-01 5.19862997e-02 5.19862997e-02 9.35753395e-02 7.27808196e-02 7.27808196e-02 8.31780796e-02 7.27808196e-02 4.15890398e-02 9.35753395e-02 4.15890398e-02 7.27808196e-02 5.19862997e-02 4.15890398e-02 5.19862997e-02 7.27808196e-02 9.35753395e-02 9.35753395e-02 6.23835597e-02 7.27808196e-02 5.19862997e-02 6.23835597e-02 5.19862997e-02 5.19862997e-02 7.27808196e-02 7.27808196e-02 5.19862997e-02 4.15890398e-02 3.11917798e-02 6.23835597e-02 5.19862997e-02 1.14369859e-01 1.03972599e-02 9.35753395e-02 4.15890398e-02 5.19862997e-02 5.19862997e-02 4.15890398e-02 4.15890398e-02 7.27808196e-02 4.15890398e-02 7.27808196e-02 4.15890398e-02 6.23835597e-02 3.11917798e-02 4.15890398e-02 7.27808196e-02 8.31780796e-02 7.27808196e-02 7.27808196e-02 4.15890398e-02 4.15890398e-02 5.19862997e-02 4.15890398e-02 9.35753395e-02 4.15890398e-02 3.11917798e-02 7.27808196e-02 5.19862997e-02 6.23835597e-02 7.27808196e-02 8.31780796e-02 9.35753395e-02 2.07945199e-02 4.15890398e-02 1.14369859e-01 6.23835597e-02 7.27808196e-02 5.19862997e-02 6.23835597e-02 2.07945199e-02 9.35753395e-02 3.11917798e-02 8.31780796e-02 6.23835597e-02 6.23835597e-02 9.35753395e-02 7.27808196e-02 6.23835597e-02 5.19862997e-02 6.23835597e-02 7.27808196e-02 2.07945199e-02 9.35753395e-02 3.11917798e-02 6.23835597e-02 8.31780796e-02 3.11917798e-02 2.07945199e-02 6.23835597e-02 7.27808196e-02 3.11917798e-02 8.31780796e-02 3.11917798e-02 4.15890398e-02 5.19862997e-02 3.11917798e-02 9.35753395e-02 7.27808196e-02 9.35753395e-02 9.35753395e-02 7.27808196e-02 8.31780796e-02 7.27808196e-02 1.03972599e-01 5.19862997e-02 7.27808196e-02 6.23835597e-02 1.03972599e-02 1.03972599e-01 8.31780796e-02 7.27808196e-02 9.35753395e-02 7.27808196e-02 3.11917798e-02 2.07945199e-02 4.15890398e-02 4.15890398e-02 8.31780796e-02 7.27808196e-02 7.27808196e-02 6.23835597e-02 7.27808196e-02 6.23835597e-02 1.03972599e-01 2.07945199e-02 6.23835597e-02 8.31780796e-02 4.15890398e-02 8.31780796e-02 6.23835597e-02 4.15890398e-02 5.19862997e-02 7.27808196e-02 8.31780796e-02 6.23835597e-02 5.19862997e-02 1.03972599e-02 2.07945199e-02 2.07945199e-02 5.19862997e-02 5.19862997e-02 4.15890398e-02 6.23835597e-02 6.23835597e-02 5.19862997e-02 1.24767119e-01 5.19862997e-02 7.27808196e-02 4.15890398e-02 7.27808196e-02 5.19862997e-02 7.27808196e-02 6.23835597e-02 6.23835597e-02 7.27808196e-02 6.23835597e-02 5.19862997e-02 9.35753395e-02 8.31780796e-02 5.19862997e-02 5.19862997e-02 4.15890398e-02 9.35753395e-02 4.15890398e-02 6.23835597e-02 9.35753395e-02 9.35753395e-02 7.27808196e-02 7.27808196e-02 1.03972599e-02 9.35753395e-02 7.27808196e-02 8.31780796e-02 6.23835597e-02 6.23835597e-02 7.27808196e-02 8.31780796e-02 3.11917798e-02 1.03972599e-02 7.27808196e-02 5.19862997e-02 4.15890398e-02 1.35164379e-01 5.19862997e-02 3.11917798e-02 8.31780796e-02 7.27808196e-02 5.19862997e-02 5.19862997e-02 3.11917798e-02 6.23835597e-02 7.27808196e-02 4.15890398e-02 5.19862997e-02 7.27808196e-02 7.27808196e-02 5.19862997e-02 8.31780796e-02 5.19862997e-02 8.31780796e-02 3.11917798e-02 5.19862997e-02 9.35753395e-02 8.31780796e-02 7.27808196e-02 9.35753395e-02 6.23835597e-02 1.03972599e-02 4.15890398e-02 1.03972599e-02 6.23835597e-02 5.19862997e-02 6.23835597e-02 8.31780796e-02 4.15890398e-02 8.31780796e-02 8.31780796e-02 9.35753395e-02 6.23835597e-02 4.15890398e-02 1.24767119e-01 7.27808196e-02 7.27808196e-02 9.35753395e-02 3.11917798e-02 3.11917798e-02 6.23835597e-02 7.27808196e-02 8.31780796e-02 8.31780796e-02 5.19862997e-02 7.27808196e-02 8.31780796e-02 7.27808196e-02 4.15890398e-02 7.27808196e-02 6.23835597e-02 1.03972599e-01 5.19862997e-02 6.23835597e-02 1.14369859e-01 5.19862997e-02 3.11917798e-02 7.27808196e-02 2.07945199e-02 4.15890398e-02 6.23835597e-02 8.31780796e-02 5.19862997e-02 4.15890398e-02 3.11917798e-02 5.19862997e-02 6.23835597e-02 5.19862997e-02 6.23835597e-02 2.07945199e-02 1.24767119e-01 8.31780796e-02 4.15890398e-02 4.15890398e-02 4.15890398e-02 6.23835597e-02 6.23835597e-02 5.19862997e-02 3.11917798e-02 3.11917798e-02 5.19862997e-02 0.00000000e+00 3.11917798e-02 4.15890398e-02 4.15890398e-02 5.19862997e-02 5.19862997e-02 8.31780796e-02 6.23835597e-02 5.19862997e-02 3.11917798e-02 7.27808196e-02 1.03972599e-01 5.19862997e-02 9.35753395e-02 6.23835597e-02 3.11917798e-02 4.15890398e-02 8.31780796e-02 1.03972599e-02 5.19862997e-02 6.23835597e-02 5.19862997e-02 6.23835597e-02 1.03972599e-01 7.27808196e-02 1.24767119e-01 6.23835597e-02 4.15890398e-02 7.27808196e-02 5.19862997e-02 4.15890398e-02 5.19862997e-02 4.15890398e-02 8.31780796e-02 8.31780796e-02 4.15890398e-02 5.19862997e-02 5.19862997e-02 5.19862997e-02 1.14369859e-01 5.19862997e-02 4.15890398e-02 6.23835597e-02 7.27808196e-02 4.15890398e-02 1.14369859e-01 5.19862997e-02 3.11917798e-02 1.03972599e-01 5.19862997e-02 4.15890398e-02 4.15890398e-02 8.31780796e-02 7.27808196e-02 6.23835597e-02 4.15890398e-02 5.19862997e-02 4.15890398e-02 2.07945199e-02 5.19862997e-02 5.19862997e-02 4.15890398e-02 6.23835597e-02 7.27808196e-02 8.31780796e-02 5.19862997e-02 7.27808196e-02 5.19862997e-02 7.27808196e-02 4.15890398e-02 5.19862997e-02 6.23835597e-02 4.15890398e-02 5.19862997e-02 3.11917798e-02 4.15890398e-02 6.23835597e-02 4.15890398e-02 9.35753395e-02 4.15890398e-02 4.15890398e-02 6.23835597e-02 5.19862997e-02 1.14369859e-01 7.27808196e-02 1.03972599e-01 5.19862997e-02 7.27808196e-02 2.07945199e-02 3.11917798e-02 9.35753395e-02 6.23835597e-02 5.19862997e-02 3.11917798e-02 9.35753395e-02 5.19862997e-02 7.27808196e-02 5.19862997e-02 1.03972599e-02 4.15890398e-02 6.23835597e-02 5.19862997e-02 1.03972599e-02 5.19862997e-02 7.27808196e-02 4.15890398e-02 9.35753395e-02 4.15890398e-02 6.23835597e-02 9.35753395e-02 3.11917798e-02 2.07945199e-02 7.27808196e-02 3.11917798e-02 9.35753395e-02 5.19862997e-02 8.31780796e-02 4.15890398e-02 6.23835597e-02 4.15890398e-02 7.27808196e-02 1.03972599e-02 3.11917798e-02 6.23835597e-02 7.27808196e-02 6.23835597e-02 5.19862997e-02 4.15890398e-02 5.19862997e-02 6.23835597e-02 4.15890398e-02 2.07945199e-02 2.07945199e-02 7.27808196e-02 4.15890398e-02 4.15890398e-02 9.35753395e-02 5.19862997e-02 5.19862997e-02 2.07945199e-02 4.15890398e-02 4.15890398e-02 9.35753395e-02 5.19862997e-02 4.15890398e-02 5.19862997e-02 6.23835597e-02 7.27808196e-02 5.19862997e-02 4.15890398e-02 6.23835597e-02 1.35164379e-01 6.23835597e-02 5.19862997e-02 3.11917798e-02 6.23835597e-02 2.07945199e-02 6.23835597e-02 6.23835597e-02 2.07945199e-02 6.23835597e-02 1.35164379e-01 4.15890398e-02 6.23835597e-02 4.15890398e-02 8.31780796e-02 5.19862997e-02 4.15890398e-02 6.23835597e-02 5.19862997e-02 7.27808196e-02 4.15890398e-02 4.15890398e-02 5.19862997e-02 4.15890398e-02 2.07945199e-02 7.27808196e-02 8.31780796e-02 4.15890398e-02 5.19862997e-02 3.11917798e-02 3.11917798e-02 1.03972599e-01 8.31780796e-02 1.24767119e-01 8.31780796e-02 7.27808196e-02 7.27808196e-02 3.11917798e-02 3.11917798e-02 4.15890398e-02 2.07945199e-02 6.23835597e-02 9.35753395e-02 6.23835597e-02 5.19862997e-02 7.27808196e-02 3.11917798e-02 5.19862997e-02 5.19862997e-02 8.31780796e-02 3.11917798e-02 7.27808196e-02 4.15890398e-02 1.14369859e-01 5.19862997e-02 8.31780796e-02 6.23835597e-02 3.11917798e-02 8.31780796e-02 5.19862997e-02 0.00000000e+00 5.19862997e-02 3.11917798e-02 8.31780796e-02 4.15890398e-02 8.31780796e-02 6.23835597e-02 1.14369859e-01 3.11917798e-02 4.15890398e-02 3.11917798e-02 2.07945199e-02 4.15890398e-02 8.31780796e-02 4.15890398e-02 2.07945199e-02 9.35753395e-02 6.23835597e-02 9.35753395e-02 6.23835597e-02 5.19862997e-02 1.03972599e-01 5.19862997e-02 8.31780796e-02 3.11917798e-02 6.23835597e-02 4.15890398e-02 3.11917798e-02 1.35164379e-01 8.31780796e-02 7.27808196e-02 9.35753395e-02 9.35753395e-02 6.23835597e-02 5.19862997e-02 2.07945199e-02 4.15890398e-02 4.15890398e-02 6.23835597e-02 5.19862997e-02 8.31780796e-02 4.15890398e-02 7.27808196e-02 4.15890398e-02 7.27808196e-02 3.11917798e-02 8.31780796e-02 1.03972599e-02 5.19862997e-02 7.27808196e-02 5.19862997e-02 5.19862997e-02 2.07945199e-02 2.07945199e-02 5.19862997e-02 4.15890398e-02 4.15890398e-02 5.19862997e-02 3.11917798e-02 5.19862997e-02 1.45561639e-01 5.19862997e-02 1.55958899e-01 5.19862997e-02 7.27808196e-02 9.35753395e-02 9.35753395e-02 5.19862997e-02 4.15890398e-02 2.07945199e-02 9.35753395e-02 5.19862997e-02 5.19862997e-02 9.35753395e-02 9.35753395e-02 9.35753395e-02 2.07945199e-02 4.15890398e-02 2.07945199e-02 1.14369859e-01 6.23835597e-02 9.35753395e-02 1.03972599e-01 8.31780796e-02 4.15890398e-02 9.35753395e-02 7.27808196e-02 7.27808196e-02 2.07945199e-02 4.15890398e-02 5.19862997e-02 1.03972599e-02 7.27808196e-02 3.11917798e-02 2.07945199e-02 3.11917798e-02 1.03972599e-01 6.23835597e-02 6.23835597e-02 7.27808196e-02 1.35164379e-01 1.14369859e-01 5.19862997e-02 3.11917798e-02 8.31780796e-02 6.23835597e-02 1.03972599e-01 4.15890398e-02 9.35753395e-02 8.31780796e-02 7.27808196e-02 3.11917798e-02 5.19862997e-02 6.23835597e-02 6.23835597e-02 5.19862997e-02 2.07945199e-02 4.15890398e-02 5.19862997e-02 7.27808196e-02 5.19862997e-02 4.15890398e-02 7.27808196e-02 1.14369859e-01 6.23835597e-02 4.15890398e-02 2.07945199e-02 2.07945199e-02 9.35753395e-02 4.15890398e-02 9.35753395e-02 2.07945199e-02 8.31780796e-02 4.15890398e-02 4.15890398e-02 4.15890398e-02 3.11917798e-02 7.27808196e-02 1.03972599e-01 1.03972599e-02 2.07945199e-02 8.31780796e-02 7.27808196e-02 1.03972599e-01 3.11917798e-02 9.35753395e-02 4.15890398e-02 5.19862997e-02 5.19862997e-02 3.11917798e-02 4.15890398e-02 2.07945199e-02 7.27808196e-02 7.27808196e-02 4.15890398e-02 5.19862997e-02 5.19862997e-02 3.11917798e-02 1.03972599e-02 9.35753395e-02 5.19862997e-02 6.23835597e-02 1.03972599e-01 4.15890398e-02 6.23835597e-02 2.07945199e-02 4.15890398e-02 2.07945199e-02 7.27808196e-02 1.14369859e-01 5.19862997e-02 7.27808196e-02 6.23835597e-02 4.15890398e-02 5.19862997e-02 2.07945199e-02 6.23835597e-02 5.19862997e-02 2.07945199e-02 7.27808196e-02 6.23835597e-02 6.23835597e-02 5.19862997e-02 1.14369859e-01 6.23835597e-02 7.27808196e-02 8.31780796e-02 9.35753395e-02 6.23835597e-02 9.35753395e-02 6.23835597e-02 1.03972599e-01 5.19862997e-02 4.15890398e-02 3.11917798e-02 4.15890398e-02 7.27808196e-02 4.15890398e-02 8.31780796e-02 7.27808196e-02 6.23835597e-02 7.27808196e-02 6.23835597e-02 1.03972599e-02 7.27808196e-02 9.35753395e-02 6.23835597e-02 9.35753395e-02 8.31780796e-02 3.11917798e-02 3.11917798e-02 2.07945199e-02 3.11917798e-02 7.27808196e-02 2.07945199e-02 6.23835597e-02 5.19862997e-02 2.07945199e-02 6.23835597e-02 5.19862997e-02 1.03972599e-01 3.11917798e-02 7.27808196e-02 6.23835597e-02 4.15890398e-02 7.27808196e-02 5.19862997e-02 9.35753395e-02 1.14369859e-01 4.15890398e-02 7.27808196e-02 4.15890398e-02 5.19862997e-02 4.15890398e-02 9.35753395e-02 6.23835597e-02 6.23835597e-02 4.15890398e-02 3.11917798e-02 6.23835597e-02 6.23835597e-02 2.07945199e-02 6.23835597e-02 5.19862997e-02 4.15890398e-02 3.11917798e-02 7.27808196e-02 4.15890398e-02 3.11917798e-02 2.07945199e-02 4.15890398e-02 4.15890398e-02 5.19862997e-02 1.03972599e-02 7.27808196e-02 9.35753395e-02 4.15890398e-02 8.31780796e-02 7.27808196e-02 7.27808196e-02 2.07945199e-02 4.15890398e-02 5.19862997e-02 9.35753395e-02 4.15890398e-02 2.07945199e-02 4.15890398e-02 8.31780796e-02 7.27808196e-02 6.23835597e-02 6.23835597e-02 5.19862997e-02 9.35753395e-02 2.07945199e-02 4.15890398e-02 3.11917798e-02 3.11917798e-02 2.07945199e-02 8.31780796e-02 6.23835597e-02 6.23835597e-02 1.14369859e-01 1.03972599e-02 3.11917798e-02 5.19862997e-02 4.15890398e-02 7.27808196e-02 9.35753395e-02 6.23835597e-02 1.03972599e-02 6.23835597e-02 5.19862997e-02 9.35753395e-02 1.03972599e-01 4.15890398e-02 6.23835597e-02 7.27808196e-02 4.15890398e-02 4.15890398e-02 6.23835597e-02 7.27808196e-02 7.27808196e-02 8.31780796e-02 9.35753395e-02 7.27808196e-02 8.31780796e-02 2.07945199e-02 5.19862997e-02 7.27808196e-02 2.07945199e-02 1.03972599e-01 1.03972599e-01 4.15890398e-02 7.27808196e-02 6.23835597e-02 8.31780796e-02 6.23835597e-02 5.19862997e-02 2.07945199e-02 4.15890398e-02 7.27808196e-02 4.15890398e-02 5.19862997e-02 4.15890398e-02 7.27808196e-02 2.07945199e-02 3.11917798e-02 3.11917798e-02 2.07945199e-02 3.11917798e-02 5.19862997e-02 4.15890398e-02 4.15890398e-02 7.27808196e-02 6.23835597e-02 4.15890398e-02 4.15890398e-02 5.19862997e-02 5.19862997e-02 5.19862997e-02 7.27808196e-02 2.07945199e-02 5.19862997e-02 2.07945199e-02 7.27808196e-02 5.19862997e-02 7.27808196e-02 4.15890398e-02 4.15890398e-02 3.11917798e-02 5.19862997e-02 3.11917798e-02 3.11917798e-02 6.23835597e-02 5.19862997e-02 8.31780796e-02 4.15890398e-02 4.15890398e-02 7.27808196e-02 6.23835597e-02 8.31780796e-02 1.03972599e-02 6.23835597e-02 3.11917798e-02 4.15890398e-02 4.15890398e-02 6.23835597e-02 7.27808196e-02 5.19862997e-02 5.19862997e-02 1.03972599e-02 3.11917798e-02 6.23835597e-02 5.19862997e-02 7.27808196e-02 2.07945199e-02 4.15890398e-02 6.23835597e-02 8.31780796e-02 7.27808196e-02 4.15890398e-02 4.15890398e-02 6.23835597e-02 2.07945199e-02 5.19862997e-02 4.15890398e-02 4.15890398e-02 4.15890398e-02 7.27808196e-02 4.15890398e-02 5.19862997e-02 3.11917798e-02 3.11917798e-02 6.23835597e-02 4.15890398e-02 4.15890398e-02 4.15890398e-02 5.19862997e-02 3.11917798e-02 4.15890398e-02 0.00000000e+00 3.11917798e-02 4.15890398e-02 6.23835597e-02 7.27808196e-02 5.19862997e-02 3.11917798e-02 6.23835597e-02 6.23835597e-02 5.19862997e-02 5.19862997e-02 8.31780796e-02 1.24767119e-01 3.11917798e-02 2.07945199e-02 5.19862997e-02 5.19862997e-02 4.15890398e-02 4.15890398e-02 5.19862997e-02 2.07945199e-02 2.07945199e-02 2.07945199e-02 6.23835597e-02 7.27808196e-02 6.23835597e-02 5.19862997e-02 3.11917798e-02 7.27808196e-02 5.19862997e-02 9.35753395e-02 6.23835597e-02 9.35753395e-02 3.11917798e-02 7.27808196e-02 4.15890398e-02 4.15890398e-02 7.27808196e-02 5.19862997e-02 2.07945199e-02 7.27808196e-02 4.15890398e-02 5.19862997e-02 6.23835597e-02 6.23835597e-02 1.03972599e-02 3.11917798e-02 5.19862997e-02 1.03972599e-02 3.11917798e-02 8.31780796e-02 6.23835597e-02 5.19862997e-02 2.07945199e-02 7.27808196e-02 5.19862997e-02 4.15890398e-02 5.19862997e-02 4.15890398e-02 6.23835597e-02 5.19862997e-02 4.15890398e-02 3.11917798e-02 4.15890398e-02 6.23835597e-02 9.35753395e-02 1.14369859e-01 9.35753395e-02 4.15890398e-02 8.31780796e-02 5.19862997e-02 4.15890398e-02 1.03972599e-01 4.15890398e-02 6.23835597e-02 5.19862997e-02 4.15890398e-02 7.27808196e-02 1.14369859e-01 7.27808196e-02 1.03972599e-01 5.19862997e-02 5.19862997e-02 3.11917798e-02 4.15890398e-02 5.19862997e-02 4.15890398e-02 6.23835597e-02 9.35753395e-02 6.23835597e-02 3.11917798e-02 5.19862997e-02 4.15890398e-02 4.15890398e-02 6.23835597e-02 6.23835597e-02 7.27808196e-02 2.07945199e-02 8.31780796e-02 8.31780796e-02 3.11917798e-02 6.23835597e-02 2.07945199e-02 4.15890398e-02 2.07945199e-02 4.15890398e-02 5.19862997e-02 8.31780796e-02 4.15890398e-02 5.19862997e-02 5.19862997e-02 6.23835597e-02 4.15890398e-02 1.03972599e-02 7.27808196e-02 8.31780796e-02 4.15890398e-02 5.19862997e-02 9.35753395e-02 8.31780796e-02 3.11917798e-02 7.27808196e-02 2.07945199e-02 8.31780796e-02 5.19862997e-02 4.15890398e-02 9.35753395e-02 7.27808196e-02 4.15890398e-02 4.15890398e-02 8.31780796e-02 2.07945199e-02 4.15890398e-02 1.03972599e-01 5.19862997e-02 1.03972599e-01 5.19862997e-02 4.15890398e-02 7.27808196e-02 6.23835597e-02 1.03972599e-01 7.27808196e-02 6.23835597e-02 5.19862997e-02 8.31780796e-02 6.23835597e-02 3.11917798e-02 7.27808196e-02 3.11917798e-02 5.19862997e-02 5.19862997e-02 6.23835597e-02 5.19862997e-02 0.00000000e+00 5.19862997e-02 4.15890398e-02 4.15890398e-02 4.15890398e-02 8.31780796e-02 5.19862997e-02 4.15890398e-02 5.19862997e-02 5.19862997e-02 1.03972599e-02 2.07945199e-02 4.15890398e-02 7.27808196e-02 5.19862997e-02 3.11917798e-02 3.11917798e-02 3.11917798e-02 1.03972599e-02 5.19862997e-02 8.31780796e-02 6.23835597e-02 6.23835597e-02 7.27808196e-02 7.27808196e-02 6.23835597e-02 0.00000000e+00 3.11917798e-02 5.19862997e-02 7.27808196e-02 5.19862997e-02 5.19862997e-02 8.31780796e-02 5.19862997e-02 6.23835597e-02 1.03972599e-02 5.19862997e-02 6.23835597e-02 7.27808196e-02 5.19862997e-02 4.15890398e-02 4.15890398e-02 6.23835597e-02 7.27808196e-02 5.19862997e-02 4.15890398e-02 2.07945199e-02 6.23835597e-02 1.03972599e-02 4.15890398e-02 7.27808196e-02 5.19862997e-02 2.07945199e-02 9.35753395e-02 4.15890398e-02 6.23835597e-02 8.31780796e-02 2.07945199e-02 6.23835597e-02 2.07945199e-02 3.11917798e-02 1.14369859e-01 5.19862997e-02 4.15890398e-02 4.15890398e-02 3.11917798e-02 4.15890398e-02 3.11917798e-02 4.15890398e-02 3.11917798e-02 4.15890398e-02 6.23835597e-02 8.31780796e-02 3.11917798e-02 8.31780796e-02 9.35753395e-02 4.15890398e-02 3.11917798e-02 1.03972599e-02 1.03972599e-02 5.19862997e-02 4.15890398e-02 4.15890398e-02 6.23835597e-02 7.27808196e-02 5.19862997e-02 8.31780796e-02 2.07945199e-02 5.19862997e-02 8.31780796e-02 3.11917798e-02 3.11917798e-02 6.23835597e-02 3.11917798e-02 4.15890398e-02 3.11917798e-02 1.03972599e-02 6.23835597e-02 4.15890398e-02 3.11917798e-02 8.31780796e-02 9.35753395e-02 5.19862997e-02 4.15890398e-02 4.15890398e-02 5.19862997e-02 6.23835597e-02 8.31780796e-02 4.15890398e-02 3.11917798e-02 6.23835597e-02 6.23835597e-02 7.27808196e-02 5.19862997e-02 8.31780796e-02 4.15890398e-02 7.27808196e-02 9.35753395e-02 6.23835597e-02 7.27808196e-02 8.31780796e-02 0.00000000e+00 1.03972599e-02 8.31780796e-02 5.19862997e-02 4.15890398e-02 3.11917798e-02 8.31780796e-02 2.07945199e-02 5.19862997e-02 7.27808196e-02 8.31780796e-02 5.19862997e-02 4.15890398e-02 6.23835597e-02 5.19862997e-02 6.23835597e-02 1.14369859e-01 5.19862997e-02 4.15890398e-02 4.15890398e-02 5.19862997e-02 7.27808196e-02 3.11917798e-02 4.15890398e-02 5.19862997e-02 3.11917798e-02 3.11917798e-02 5.19862997e-02 6.23835597e-02 7.27808196e-02 2.07945199e-02 8.31780796e-02 3.11917798e-02 5.19862997e-02 5.19862997e-02 4.15890398e-02 4.15890398e-02 5.19862997e-02 4.15890398e-02 6.23835597e-02 6.23835597e-02 2.07945199e-02 2.07945199e-02 3.11917798e-02 6.23835597e-02 6.23835597e-02 4.15890398e-02 5.19862997e-02 7.27808196e-02 7.27808196e-02 5.19862997e-02 9.35753395e-02 3.11917798e-02 2.07945199e-02 4.15890398e-02 4.15890398e-02 4.15890398e-02 1.03972599e-01 5.19862997e-02 6.23835597e-02 9.35753395e-02 5.19862997e-02 3.11917798e-02 5.19862997e-02 7.27808196e-02 1.03972599e-02 1.03972599e-02 6.23835597e-02 1.03972599e-02 4.15890398e-02 3.11917798e-02 6.23835597e-02 4.15890398e-02 5.19862997e-02 6.23835597e-02 4.15890398e-02 3.11917798e-02 6.23835597e-02 4.15890398e-02 6.23835597e-02 1.03972599e-01 5.19862997e-02 4.15890398e-02 3.11917798e-02 5.19862997e-02 1.35164379e-01 6.23835597e-02 3.11917798e-02 3.11917798e-02 2.07945199e-02 4.15890398e-02 1.03972599e-02 2.07945199e-02 7.27808196e-02 7.27808196e-02 5.19862997e-02 5.19862997e-02 4.15890398e-02 4.15890398e-02 6.23835597e-02 3.11917798e-02 6.23835597e-02 7.27808196e-02 4.15890398e-02 7.27808196e-02 7.27808196e-02 7.27808196e-02 4.15890398e-02 5.19862997e-02 1.03972599e-02 1.03972599e-01 6.23835597e-02 3.11917798e-02 6.23835597e-02 9.35753395e-02 4.15890398e-02 9.35753395e-02 7.27808196e-02 6.23835597e-02 5.19862997e-02 3.11917798e-02 1.03972599e-01 8.31780796e-02 3.11917798e-02 5.19862997e-02 5.19862997e-02 3.11917798e-02 8.31780796e-02 1.03972599e-02 6.23835597e-02 5.19862997e-02 7.27808196e-02 2.07945199e-02 7.27808196e-02 7.27808196e-02 3.11917798e-02 3.11917798e-02 4.15890398e-02 6.23835597e-02 7.27808196e-02 5.19862997e-02 9.35753395e-02 4.15890398e-02 4.15890398e-02 5.19862997e-02 5.19862997e-02 4.15890398e-02 1.03972599e-02 6.23835597e-02 1.03972599e-02 6.23835597e-02 7.27808196e-02 7.27808196e-02 5.19862997e-02 3.11917798e-02 5.19862997e-02 2.07945199e-02 4.15890398e-02 8.31780796e-02 2.07945199e-02 9.35753395e-02 8.31780796e-02 3.11917798e-02 4.15890398e-02 4.15890398e-02 5.19862997e-02 3.11917798e-02 6.23835597e-02 7.27808196e-02 4.15890398e-02 3.11917798e-02 5.19862997e-02 6.23835597e-02 8.31780796e-02 2.07945199e-02 8.31780796e-02 4.15890398e-02 6.23835597e-02 6.23835597e-02 7.27808196e-02 5.19862997e-02 5.19862997e-02 4.15890398e-02 7.27808196e-02 3.11917798e-02 6.23835597e-02 3.11917798e-02 8.31780796e-02 8.31780796e-02 3.11917798e-02 5.19862997e-02 3.11917798e-02 4.15890398e-02 5.19862997e-02 8.31780796e-02 3.11917798e-02 7.27808196e-02 2.07945199e-02 7.27808196e-02 3.11917798e-02 6.23835597e-02 4.15890398e-02 7.27808196e-02 4.15890398e-02 3.11917798e-02 7.27808196e-02 6.23835597e-02 8.31780796e-02 8.31780796e-02 8.31780796e-02 6.23835597e-02 6.23835597e-02 4.15890398e-02 0.00000000e+00 4.15890398e-02 4.15890398e-02 5.19862997e-02 7.27808196e-02 5.19862997e-02 4.15890398e-02 6.23835597e-02 5.19862997e-02 4.15890398e-02 4.15890398e-02 6.23835597e-02 5.19862997e-02 6.23835597e-02 5.19862997e-02 7.27808196e-02 7.27808196e-02 0.00000000e+00 4.15890398e-02 5.19862997e-02 3.11917798e-02 1.03972599e-01 4.15890398e-02 0.00000000e+00 3.11917798e-02 7.27808196e-02 4.15890398e-02 6.23835597e-02 4.15890398e-02 6.23835597e-02 3.11917798e-02 4.15890398e-02 4.15890398e-02 6.23835597e-02 3.11917798e-02 4.15890398e-02 6.23835597e-02 7.27808196e-02 3.11917798e-02 3.11917798e-02 4.15890398e-02 8.31780796e-02 6.23835597e-02 8.31780796e-02 8.31780796e-02 4.15890398e-02 1.03972599e-02 6.23835597e-02 1.03972599e-02 3.11917798e-02 7.27808196e-02 2.07945199e-02 8.31780796e-02 1.03972599e-02 4.15890398e-02 3.11917798e-02 2.07945199e-02 7.27808196e-02 7.27808196e-02 4.15890398e-02 4.15890398e-02 0.00000000e+00 4.15890398e-02 8.31780796e-02 2.07945199e-02 8.31780796e-02 6.23835597e-02 7.27808196e-02 8.31780796e-02 3.11917798e-02 3.11917798e-02 5.19862997e-02 3.11917798e-02 1.03972599e-02 5.19862997e-02 8.31780796e-02 7.27808196e-02 4.15890398e-02 5.19862997e-02 2.07945199e-02 7.27808196e-02 6.23835597e-02 5.19862997e-02 4.15890398e-02 6.23835597e-02 9.35753395e-02 3.11917798e-02 6.23835597e-02 5.19862997e-02 5.19862997e-02 1.03972599e-01 9.35753395e-02 7.27808196e-02 6.23835597e-02 6.23835597e-02 7.27808196e-02 2.07945199e-02 1.03972599e-02 7.27808196e-02 1.35164379e-01 5.19862997e-02 6.23835597e-02 3.11917798e-02 6.23835597e-02 3.11917798e-02 7.27808196e-02 6.23835597e-02 5.19862997e-02 8.31780796e-02 7.27808196e-02 6.23835597e-02 9.35753395e-02 5.19862997e-02 6.23835597e-02 6.23835597e-02 9.35753395e-02 4.15890398e-02 1.03972599e-02 3.11917798e-02 6.23835597e-02 8.31780796e-02 3.11917798e-02 4.15890398e-02 2.07945199e-02 7.27808196e-02 7.27808196e-02 2.07945199e-02 6.23835597e-02 6.23835597e-02 1.03972599e-02 8.31780796e-02 4.15890398e-02 1.03972599e-02 0.00000000e+00 8.31780796e-02 5.19862997e-02 1.03972599e-02 8.31780796e-02 3.11917798e-02 3.11917798e-02 4.15890398e-02 4.15890398e-02 4.15890398e-02 8.31780796e-02 3.11917798e-02 6.23835597e-02 5.19862997e-02 6.23835597e-02 7.27808196e-02 4.15890398e-02 6.23835597e-02 5.19862997e-02 6.23835597e-02 8.31780796e-02 5.19862997e-02 7.27808196e-02 3.11917798e-02 6.23835597e-02 5.19862997e-02 6.23835597e-02 6.23835597e-02 3.11917798e-02 4.15890398e-02 8.31780796e-02 3.11917798e-02 5.19862997e-02 1.03972599e-01 3.11917798e-02 5.19862997e-02 6.23835597e-02 2.07945199e-02 3.11917798e-02 4.15890398e-02 3.11917798e-02 4.15890398e-02 4.15890398e-02 1.03972599e-02 7.27808196e-02 6.23835597e-02 5.19862997e-02 2.07945199e-02 8.31780796e-02 7.27808196e-02 6.23835597e-02 5.19862997e-02 9.35753395e-02 5.19862997e-02 2.07945199e-02 6.23835597e-02 4.15890398e-02 4.15890398e-02 8.31780796e-02 5.19862997e-02 5.19862997e-02 1.03972599e-02 3.11917798e-02 1.03972599e-01 3.11917798e-02 5.19862997e-02 7.27808196e-02 4.15890398e-02 8.31780796e-02 6.23835597e-02 6.23835597e-02 3.11917798e-02 4.15890398e-02 3.11917798e-02 4.15890398e-02 5.19862997e-02 2.07945199e-02 8.31780796e-02 6.23835597e-02 4.15890398e-02 7.27808196e-02 5.19862997e-02 4.15890398e-02 6.23835597e-02 2.07945199e-02 7.27808196e-02 2.07945199e-02 5.19862997e-02 4.15890398e-02 5.19862997e-02 6.23835597e-02 8.31780796e-02 5.19862997e-02 7.27808196e-02 3.11917798e-02 6.23835597e-02 1.14369859e-01 6.23835597e-02 7.27808196e-02 2.07945199e-02 8.31780796e-02 4.15890398e-02 1.03972599e-02 7.27808196e-02 5.19862997e-02 6.23835597e-02 4.15890398e-02 1.03972599e-02 5.19862997e-02 2.07945199e-02 5.19862997e-02 6.23835597e-02 5.19862997e-02 6.23835597e-02 1.03972599e-01 4.15890398e-02 6.23835597e-02 6.23835597e-02 9.35753395e-02 4.15890398e-02 3.11917798e-02 8.31780796e-02 6.23835597e-02 4.15890398e-02 4.15890398e-02 5.19862997e-02 6.23835597e-02 8.31780796e-02 5.19862997e-02 5.19862997e-02 9.35753395e-02 6.23835597e-02 8.31780796e-02 4.15890398e-02 7.27808196e-02 4.15890398e-02 4.15890398e-02 4.15890398e-02 3.11917798e-02 7.27808196e-02 1.03972599e-01 7.27808196e-02 5.19862997e-02 7.27808196e-02 1.03972599e-01 3.11917798e-02 6.23835597e-02 3.11917798e-02 6.23835597e-02 5.19862997e-02 5.19862997e-02 7.27808196e-02 9.35753395e-02 4.15890398e-02 7.27808196e-02 9.35753395e-02 5.19862997e-02 7.27808196e-02 7.27808196e-02 6.23835597e-02 7.27808196e-02 6.23835597e-02 7.27808196e-02 4.15890398e-02 5.19862997e-02 2.07945199e-02 3.11917798e-02 5.19862997e-02 3.11917798e-02 8.31780796e-02 6.23835597e-02 2.07945199e-02 6.23835597e-02 4.15890398e-02 6.23835597e-02 7.27808196e-02 7.27808196e-02 9.35753395e-02 4.15890398e-02 5.19862997e-02 1.14369859e-01 3.11917798e-02 4.15890398e-02 3.11917798e-02 7.27808196e-02 1.03972599e-01 1.03972599e-01 0.00000000e+00 5.19862997e-02 4.15890398e-02 2.07945199e-02 9.35753395e-02 4.15890398e-02 8.31780796e-02 2.07945199e-02 4.15890398e-02 4.15890398e-02 3.11917798e-02 4.15890398e-02 3.11917798e-02 5.19862997e-02 5.19862997e-02 4.15890398e-02 6.23835597e-02 1.03972599e-02 9.35753395e-02 1.03972599e-01 5.19862997e-02 6.23835597e-02 4.15890398e-02 4.15890398e-02 4.15890398e-02 3.11917798e-02 9.35753395e-02 3.11917798e-02 6.23835597e-02 9.35753395e-02 8.31780796e-02 8.31780796e-02 9.35753395e-02 9.35753395e-02 3.11917798e-02 8.31780796e-02 5.19862997e-02 7.27808196e-02 7.27808196e-02 3.11917798e-02 4.15890398e-02 9.35753395e-02 5.19862997e-02 3.11917798e-02 4.15890398e-02 2.07945199e-02 3.11917798e-02 3.11917798e-02 9.35753395e-02 5.19862997e-02 3.11917798e-02 8.31780796e-02 2.07945199e-02 1.14369859e-01 8.31780796e-02 2.07945199e-02 2.07945199e-02 4.15890398e-02 5.19862997e-02 9.35753395e-02 6.23835597e-02 5.19862997e-02 6.23835597e-02 2.07945199e-02 7.27808196e-02 6.23835597e-02 2.07945199e-02 2.07945199e-02 3.11917798e-02 3.11917798e-02 6.23835597e-02 1.03972599e-01 4.15890398e-02 6.23835597e-02 3.11917798e-02 6.23835597e-02 4.15890398e-02 9.35753395e-02 4.15890398e-02 4.15890398e-02 6.23835597e-02 5.19862997e-02 7.27808196e-02 8.31780796e-02 8.31780796e-02 5.19862997e-02 5.19862997e-02 4.15890398e-02 6.23835597e-02 6.23835597e-02 9.35753395e-02 9.35753395e-02 8.31780796e-02 8.31780796e-02 4.15890398e-02 2.07945199e-02 7.27808196e-02 5.19862997e-02 7.27808196e-02 4.15890398e-02 9.35753395e-02 1.03972599e-02 8.31780796e-02 6.23835597e-02 7.27808196e-02 2.07945199e-02 4.15890398e-02 9.35753395e-02 7.27808196e-02 5.19862997e-02 6.23835597e-02 3.11917798e-02 4.15890398e-02 3.11917798e-02 7.27808196e-02 6.23835597e-02 2.07945199e-02 6.23835597e-02 7.27808196e-02 9.35753395e-02 3.11917798e-02 1.45561639e-01 4.15890398e-02 4.15890398e-02 4.15890398e-02 4.15890398e-02 7.27808196e-02 4.15890398e-02 6.23835597e-02 6.23835597e-02 6.23835597e-02 4.15890398e-02 1.03972599e-02 1.35164379e-01 3.11917798e-02 8.31780796e-02 5.19862997e-02 8.31780796e-02 5.19862997e-02 1.03972599e-01 5.19862997e-02 6.23835597e-02 4.15890398e-02 9.35753395e-02 5.19862997e-02 5.19862997e-02 6.23835597e-02 5.19862997e-02 8.31780796e-02 7.27808196e-02 5.19862997e-02 1.35164379e-01 8.31780796e-02 2.07945199e-02 7.27808196e-02 9.35753395e-02 6.23835597e-02 3.11917798e-02 5.19862997e-02 3.11917798e-02 4.15890398e-02 3.11917798e-02 9.35753395e-02 4.15890398e-02 1.03972599e-01 2.07945199e-02 6.23835597e-02 5.19862997e-02 4.15890398e-02 8.31780796e-02 3.11917798e-02 8.31780796e-02 6.23835597e-02 5.19862997e-02 7.27808196e-02 5.19862997e-02 4.15890398e-02 5.19862997e-02 6.23835597e-02 3.11917798e-02 4.15890398e-02 1.14369859e-01 9.35753395e-02 3.11917798e-02 5.19862997e-02 1.03972599e-02 5.19862997e-02 2.07945199e-02 1.03972599e-01 7.27808196e-02 7.27808196e-02 6.23835597e-02 7.27808196e-02 5.19862997e-02 3.11917798e-02 8.31780796e-02 7.27808196e-02 2.07945199e-02 4.15890398e-02 5.19862997e-02 2.07945199e-02 6.23835597e-02 5.19862997e-02 8.31780796e-02 8.31780796e-02 2.07945199e-02 1.03972599e-01 5.19862997e-02 3.11917798e-02 3.11917798e-02 5.19862997e-02 5.19862997e-02 4.15890398e-02 7.27808196e-02 2.07945199e-02 7.27808196e-02 9.35753395e-02 3.11917798e-02 1.03972599e-01 4.15890398e-02 4.15890398e-02 7.27808196e-02 9.35753395e-02 3.11917798e-02 4.15890398e-02 1.03972599e-02 5.19862997e-02 2.07945199e-02 6.23835597e-02 1.03972599e-01 8.31780796e-02 3.11917798e-02 6.23835597e-02 5.19862997e-02 6.23835597e-02 4.15890398e-02 6.23835597e-02 2.07945199e-02 6.23835597e-02 5.19862997e-02 3.11917798e-02 6.23835597e-02 3.11917798e-02 3.11917798e-02 4.15890398e-02 7.27808196e-02 5.19862997e-02 1.03972599e-01 6.23835597e-02 8.31780796e-02 8.31780796e-02 6.23835597e-02 9.35753395e-02 6.23835597e-02 7.27808196e-02 6.23835597e-02 6.23835597e-02 4.15890398e-02 1.03972599e-02 4.15890398e-02 4.15890398e-02 9.35753395e-02 7.27808196e-02 5.19862997e-02 2.07945199e-02 6.23835597e-02 6.23835597e-02 3.11917798e-02 5.19862997e-02 8.31780796e-02 6.23835597e-02 8.31780796e-02 4.15890398e-02 3.11917798e-02 6.23835597e-02 5.19862997e-02 1.03972599e-01 5.19862997e-02 1.03972599e-02 6.23835597e-02 5.19862997e-02 1.14369859e-01 7.27808196e-02 8.31780796e-02 6.23835597e-02 6.23835597e-02 8.31780796e-02 1.03972599e-02 9.35753395e-02 7.27808196e-02 5.19862997e-02 1.14369859e-01 3.11917798e-02 4.15890398e-02 3.11917798e-02 7.27808196e-02 8.31780796e-02 8.31780796e-02 6.23835597e-02 5.19862997e-02 4.15890398e-02 3.11917798e-02 4.15890398e-02 6.23835597e-02 8.31780796e-02 9.35753395e-02 8.31780796e-02 3.11917798e-02 6.23835597e-02 9.35753395e-02 6.23835597e-02 3.11917798e-02 4.15890398e-02 4.15890398e-02 7.27808196e-02 5.19862997e-02 2.07945199e-02 8.31780796e-02 1.03972599e-02 6.23835597e-02 3.11917798e-02 4.15890398e-02 1.24767119e-01 3.11917798e-02 5.19862997e-02 4.15890398e-02 4.15890398e-02 9.35753395e-02 3.11917798e-02 4.15890398e-02 7.27808196e-02 6.23835597e-02 7.27808196e-02 5.19862997e-02 2.07945199e-02 6.23835597e-02 5.19862997e-02 5.19862997e-02 4.15890398e-02 3.11917798e-02 4.15890398e-02 5.19862997e-02 7.27808196e-02 6.23835597e-02 5.19862997e-02 3.11917798e-02 3.11917798e-02 7.27808196e-02 5.19862997e-02 4.15890398e-02 7.27808196e-02 0.00000000e+00 8.31780796e-02 3.11917798e-02 8.31780796e-02 2.07945199e-02 7.27808196e-02 8.31780796e-02 7.27808196e-02 9.35753395e-02 4.15890398e-02 6.23835597e-02 5.19862997e-02 1.03972599e-02 4.15890398e-02 3.11917798e-02 5.19862997e-02 8.31780796e-02 7.27808196e-02 5.19862997e-02 5.19862997e-02 7.27808196e-02 3.11917798e-02 3.11917798e-02 5.19862997e-02 4.15890398e-02 4.15890398e-02 4.15890398e-02 8.31780796e-02 7.27808196e-02 9.35753395e-02 6.23835597e-02 5.19862997e-02 3.11917798e-02 3.11917798e-02 8.31780796e-02 6.23835597e-02 7.27808196e-02 6.23835597e-02 5.19862997e-02 7.27808196e-02 1.24767119e-01 3.11917798e-02 8.31780796e-02 4.15890398e-02 2.07945199e-02 3.11917798e-02 6.23835597e-02 9.35753395e-02 7.27808196e-02 8.31780796e-02 1.03972599e-01 9.35753395e-02 5.19862997e-02 6.23835597e-02 8.31780796e-02 1.03972599e-01 5.19862997e-02 1.14369859e-01 5.19862997e-02 7.27808196e-02 6.23835597e-02 4.15890398e-02 5.19862997e-02 4.15890398e-02 8.31780796e-02 4.15890398e-02 1.03972599e-02 9.35753395e-02 8.31780796e-02 3.11917798e-02 3.11917798e-02 6.23835597e-02 1.03972599e-02 4.15890398e-02 6.23835597e-02 4.15890398e-02 6.23835597e-02 2.07945199e-02 9.35753395e-02 5.19862997e-02 3.11917798e-02 5.19862997e-02 7.27808196e-02 1.03972599e-01 4.15890398e-02 5.19862997e-02 8.31780796e-02 6.23835597e-02 6.23835597e-02 5.19862997e-02 5.19862997e-02 1.03972599e-02 5.19862997e-02 5.19862997e-02 4.15890398e-02 3.11917798e-02 5.19862997e-02 7.27808196e-02 2.07945199e-02 1.03972599e-02 4.15890398e-02 5.19862997e-02 5.19862997e-02 6.23835597e-02 8.31780796e-02 1.14369859e-01 4.15890398e-02 5.19862997e-02 6.23835597e-02 2.07945199e-02 4.15890398e-02 8.31780796e-02 8.31780796e-02 1.14369859e-01 5.19862997e-02 7.27808196e-02 4.15890398e-02 2.07945199e-02 8.31780796e-02 4.15890398e-02 6.23835597e-02 3.11917798e-02 9.35753395e-02 3.11917798e-02 3.11917798e-02 4.15890398e-02 4.15890398e-02 4.15890398e-02 3.11917798e-02 9.35753395e-02 4.15890398e-02 4.15890398e-02 7.27808196e-02 4.15890398e-02 5.19862997e-02 6.23835597e-02 8.31780796e-02 4.15890398e-02 1.24767119e-01 4.15890398e-02 1.03972599e-01 6.23835597e-02 5.19862997e-02 4.15890398e-02 2.07945199e-02 6.23835597e-02 5.19862997e-02 2.07945199e-02 3.11917798e-02 6.23835597e-02 6.23835597e-02 8.31780796e-02 6.23835597e-02 3.11917798e-02 1.03972599e-02 5.19862997e-02 7.27808196e-02 8.31780796e-02 4.15890398e-02 5.19862997e-02 6.23835597e-02 1.24767119e-01 6.23835597e-02 4.15890398e-02 6.23835597e-02 7.27808196e-02 8.31780796e-02 8.31780796e-02 4.15890398e-02 4.15890398e-02 6.23835597e-02 5.19862997e-02 1.35164379e-01 8.31780796e-02 8.31780796e-02 8.31780796e-02 1.14369859e-01 6.23835597e-02 6.23835597e-02 5.19862997e-02 1.14369859e-01 2.07945199e-02 7.27808196e-02 4.15890398e-02 5.19862997e-02 5.19862997e-02 5.19862997e-02 6.23835597e-02 2.07945199e-02 4.15890398e-02 6.23835597e-02 7.27808196e-02 5.19862997e-02 8.31780796e-02 5.19862997e-02 7.27808196e-02 7.27808196e-02 5.19862997e-02 6.23835597e-02 1.76753419e-01 2.07945199e-02 2.07945199e-02 3.11917798e-02 5.19862997e-02 6.23835597e-02 5.19862997e-02 5.19862997e-02 3.11917798e-02 2.07945199e-02 6.23835597e-02 6.23835597e-02 2.07945199e-02 1.14369859e-01 4.15890398e-02 4.15890398e-02 7.27808196e-02 4.15890398e-02 6.23835597e-02 7.27808196e-02 3.11917798e-02 6.23835597e-02 8.31780796e-02 8.31780796e-02 5.19862997e-02 3.11917798e-02 1.03972599e-01 8.31780796e-02 6.23835597e-02 4.15890398e-02 1.24767119e-01 4.15890398e-02 7.27808196e-02 8.31780796e-02 4.15890398e-02 6.23835597e-02 7.27808196e-02 7.27808196e-02 4.15890398e-02 6.23835597e-02 7.27808196e-02 7.27808196e-02 2.07945199e-02 2.07945199e-02 6.23835597e-02 6.23835597e-02 9.35753395e-02 5.19862997e-02 7.27808196e-02 2.07945199e-02 6.23835597e-02 5.19862997e-02 9.35753395e-02 5.19862997e-02 4.15890398e-02 3.11917798e-02 6.23835597e-02 4.15890398e-02 1.03972599e-01 3.11917798e-02 1.03972599e-02 6.23835597e-02 2.07945199e-02 4.15890398e-02 5.19862997e-02 6.23835597e-02 4.15890398e-02 7.27808196e-02 4.15890398e-02 5.19862997e-02 7.27808196e-02 4.15890398e-02 4.15890398e-02 2.07945199e-02 4.15890398e-02 4.15890398e-02 4.15890398e-02 9.35753395e-02 6.23835597e-02 4.15890398e-02 4.15890398e-02 3.11917798e-02 3.11917798e-02 6.23835597e-02 5.19862997e-02 5.19862997e-02 0.00000000e+00 2.07945199e-02 2.07945199e-02 3.11917798e-02 5.19862997e-02 5.19862997e-02 1.03972599e-01 4.15890398e-02 9.35753395e-02 7.27808196e-02 5.19862997e-02 1.14369859e-01 4.15890398e-02 4.15890398e-02 3.11917798e-02 3.11917798e-02 8.31780796e-02 7.27808196e-02 2.07945199e-02 7.27808196e-02 5.19862997e-02 5.19862997e-02 4.15890398e-02 6.23835597e-02 8.31780796e-02 4.15890398e-02 1.14369859e-01 8.31780796e-02 4.15890398e-02 3.11917798e-02 2.07945199e-02 7.27808196e-02 7.27808196e-02 5.19862997e-02 5.19862997e-02 4.15890398e-02 2.07945199e-02 3.11917798e-02 2.07945199e-02 7.27808196e-02 4.15890398e-02 6.23835597e-02 4.15890398e-02 6.23835597e-02 6.23835597e-02 8.31780796e-02 5.19862997e-02 7.27808196e-02 8.31780796e-02 9.35753395e-02 8.31780796e-02 3.11917798e-02 9.35753395e-02 3.11917798e-02 4.15890398e-02 2.07945199e-02 8.31780796e-02 6.23835597e-02 1.24767119e-01 8.31780796e-02 5.19862997e-02 7.27808196e-02 6.23835597e-02 7.27808196e-02 4.15890398e-02 6.23835597e-02 5.19862997e-02 7.27808196e-02 7.27808196e-02 2.07945199e-02 3.11917798e-02 3.11917798e-02 5.19862997e-02 4.15890398e-02 9.35753395e-02 6.23835597e-02 1.03972599e-02 6.23835597e-02 3.11917798e-02 7.27808196e-02 1.03972599e-01 3.11917798e-02 8.31780796e-02 5.19862997e-02 7.27808196e-02 8.31780796e-02 8.31780796e-02 6.23835597e-02 1.35164379e-01 4.15890398e-02 3.11917798e-02 5.19862997e-02 9.35753395e-02 4.15890398e-02 5.19862997e-02 5.19862997e-02 4.15890398e-02 6.23835597e-02 2.07945199e-02 7.27808196e-02 7.27808196e-02 2.07945199e-02 7.27808196e-02 4.15890398e-02 8.31780796e-02 1.03972599e-01 5.19862997e-02 8.31780796e-02 4.15890398e-02 7.27808196e-02 3.11917798e-02 5.19862997e-02 6.23835597e-02 7.27808196e-02 4.15890398e-02 5.19862997e-02 7.27808196e-02 6.23835597e-02 6.23835597e-02 5.19862997e-02 3.11917798e-02 3.11917798e-02 2.07945199e-02 6.23835597e-02 5.19862997e-02 4.15890398e-02 1.14369859e-01 2.07945199e-02 7.27808196e-02 9.35753395e-02 4.15890398e-02 5.19862997e-02 7.27808196e-02 5.19862997e-02 5.19862997e-02 1.03972599e-01 6.23835597e-02 7.27808196e-02 6.23835597e-02 6.23835597e-02 8.31780796e-02 5.19862997e-02 6.23835597e-02 1.03972599e-01 4.15890398e-02 3.11917798e-02 6.23835597e-02 8.31780796e-02 3.11917798e-02 1.03972599e-01 4.15890398e-02 1.03972599e-02 4.15890398e-02 8.31780796e-02 6.23835597e-02 6.23835597e-02 3.11917798e-02 5.19862997e-02 4.15890398e-02 7.27808196e-02 6.23835597e-02 4.15890398e-02 7.27808196e-02 6.23835597e-02 4.15890398e-02 1.03972599e-01 5.19862997e-02 3.11917798e-02 4.15890398e-02 6.23835597e-02 8.31780796e-02 5.19862997e-02 5.19862997e-02 2.07945199e-02 7.27808196e-02 7.27808196e-02 4.15890398e-02 3.11917798e-02 4.15890398e-02 4.15890398e-02 3.11917798e-02 4.15890398e-02 4.15890398e-02 3.11917798e-02 5.19862997e-02 4.15890398e-02 3.11917798e-02 4.15890398e-02 6.23835597e-02 5.19862997e-02 5.19862997e-02 3.11917798e-02 4.15890398e-02 5.19862997e-02 6.23835597e-02 8.31780796e-02 7.27808196e-02 5.19862997e-02 5.19862997e-02 4.15890398e-02 2.07945199e-02 6.23835597e-02 4.15890398e-02 5.19862997e-02 6.23835597e-02 5.19862997e-02 7.27808196e-02 6.23835597e-02 6.23835597e-02 5.19862997e-02 5.19862997e-02 3.11917798e-02 4.15890398e-02 4.15890398e-02 7.27808196e-02 2.07945199e-02 3.11917798e-02 8.31780796e-02 6.23835597e-02 6.23835597e-02 6.23835597e-02 5.19862997e-02 4.15890398e-02 3.11917798e-02 6.23835597e-02 5.19862997e-02 6.23835597e-02 4.15890398e-02 5.19862997e-02 1.35164379e-01 8.31780796e-02 1.03972599e-01 6.23835597e-02 6.23835597e-02 4.15890398e-02 3.11917798e-02 5.19862997e-02 5.19862997e-02 4.15890398e-02 1.66356159e-01 2.07945199e-02 8.31780796e-02 3.11917798e-02 6.23835597e-02 2.07945199e-02 1.14369859e-01 3.11917798e-02 5.19862997e-02 3.11917798e-02 6.23835597e-02 8.31780796e-02 5.19862997e-02 1.97547939e-01 4.15890398e-02 5.19862997e-02 5.19862997e-02 8.31780796e-02 8.31780796e-02 9.35753395e-02 1.14369859e-01 5.19862997e-02 8.31780796e-02 7.27808196e-02 4.15890398e-02 8.31780796e-02 4.15890398e-02 5.19862997e-02 5.19862997e-02 2.07945199e-02 7.27808196e-02 8.31780796e-02 7.27808196e-02 4.15890398e-02 1.03972599e-01 3.11917798e-02 7.27808196e-02 3.11917798e-02 5.19862997e-02 5.19862997e-02 9.35753395e-02 4.15890398e-02 5.19862997e-02 7.27808196e-02 6.23835597e-02 6.23835597e-02 8.31780796e-02 7.27808196e-02 6.23835597e-02 1.03972599e-02 4.15890398e-02 9.35753395e-02 4.15890398e-02 6.23835597e-02 5.19862997e-02 4.15890398e-02 3.11917798e-02 7.27808196e-02 1.03972599e-02 3.11917798e-02 7.27808196e-02 6.23835597e-02 6.23835597e-02 4.15890398e-02 6.23835597e-02 7.27808196e-02 2.07945199e-02 4.15890398e-02 3.11917798e-02 7.27808196e-02 1.03972599e-01 5.19862997e-02 5.19862997e-02 7.27808196e-02 1.14369859e-01 5.19862997e-02 6.23835597e-02 7.27808196e-02 1.24767119e-01 9.35753395e-02 7.27808196e-02 6.23835597e-02 4.15890398e-02 9.35753395e-02 3.11917798e-02 4.15890398e-02 6.23835597e-02 5.19862997e-02 5.19862997e-02 3.11917798e-02 5.19862997e-02 4.15890398e-02 5.19862997e-02 1.03972599e-02 7.27808196e-02 6.23835597e-02 9.35753395e-02 8.31780796e-02 2.07945199e-02 8.31780796e-02 3.11917798e-02 7.27808196e-02 4.15890398e-02 7.27808196e-02 3.11917798e-02 3.11917798e-02 5.19862997e-02 6.23835597e-02 3.11917798e-02 5.19862997e-02 6.23835597e-02 8.31780796e-02 8.31780796e-02 6.23835597e-02 3.11917798e-02 5.19862997e-02 8.31780796e-02 9.35753395e-02 3.11917798e-02 4.15890398e-02 2.07945199e-02 4.15890398e-02 5.19862997e-02 6.23835597e-02 3.11917798e-02 3.11917798e-02 7.27808196e-02 6.23835597e-02 3.11917798e-02 9.35753395e-02 5.19862997e-02 8.31780796e-02 4.15890398e-02 6.23835597e-02 8.31780796e-02 2.07945199e-02 2.07945199e-02 8.31780796e-02 6.23835597e-02 5.19862997e-02 5.19862997e-02 5.19862997e-02 4.15890398e-02 3.11917798e-02 1.35164379e-01 8.31780796e-02 1.03972599e-01 6.23835597e-02 9.35753395e-02 6.23835597e-02 3.11917798e-02 6.23835597e-02 3.11917798e-02 5.19862997e-02 3.11917798e-02 4.15890398e-02 6.23835597e-02 4.15890398e-02 1.45561639e-01 6.23835597e-02 6.23835597e-02 5.19862997e-02 8.31780796e-02 8.31780796e-02 7.27808196e-02 3.11917798e-02 5.19862997e-02 7.27808196e-02 4.15890398e-02 8.31780796e-02 2.07945199e-02 6.23835597e-02 6.23835597e-02 6.23835597e-02 6.23835597e-02 4.15890398e-02 3.11917798e-02 4.15890398e-02 6.23835597e-02 5.19862997e-02 7.27808196e-02 6.23835597e-02 5.19862997e-02 5.19862997e-02 9.35753395e-02 4.15890398e-02 6.23835597e-02 4.15890398e-02 6.23835597e-02 3.11917798e-02 6.23835597e-02 3.11917798e-02 6.23835597e-02 4.15890398e-02 2.07945199e-02 6.23835597e-02 1.03972599e-02 3.11917798e-02 5.19862997e-02 6.23835597e-02 5.19862997e-02 8.31780796e-02 2.07945199e-02 5.19862997e-02 2.07945199e-02 3.11917798e-02 5.19862997e-02 5.19862997e-02 1.03972599e-01 8.31780796e-02 7.27808196e-02 5.19862997e-02 6.23835597e-02 6.23835597e-02 6.23835597e-02 6.23835597e-02 5.19862997e-02 7.27808196e-02 3.11917798e-02 9.35753395e-02 5.19862997e-02 4.15890398e-02 4.15890398e-02 5.19862997e-02 6.23835597e-02 9.35753395e-02 2.07945199e-02 1.03972599e-02 1.03972599e-01 6.23835597e-02 5.19862997e-02 4.15890398e-02 6.23835597e-02 6.23835597e-02 7.27808196e-02 8.31780796e-02 7.27808196e-02 2.07945199e-02 6.23835597e-02 6.23835597e-02 1.03972599e-02 6.23835597e-02 5.19862997e-02 8.31780796e-02 4.15890398e-02 8.31780796e-02 7.27808196e-02 7.27808196e-02 1.24767119e-01 7.27808196e-02 5.19862997e-02 8.31780796e-02 1.03972599e-01 6.23835597e-02 8.31780796e-02 8.31780796e-02 7.27808196e-02 4.15890398e-02 4.15890398e-02 5.19862997e-02 4.15890398e-02 1.03972599e-02 1.03972599e-01 6.23835597e-02 6.23835597e-02 1.14369859e-01 2.07945199e-02 5.19862997e-02 5.19862997e-02 5.19862997e-02 6.23835597e-02 3.11917798e-02 6.23835597e-02 6.23835597e-02 3.11917798e-02 2.07945199e-02 5.19862997e-02 4.15890398e-02 3.11917798e-02 6.23835597e-02 7.27808196e-02 3.11917798e-02 4.15890398e-02 6.23835597e-02 4.15890398e-02 2.07945199e-02 2.07945199e-02 8.31780796e-02 4.15890398e-02 7.27808196e-02 8.31780796e-02 2.07945199e-02 4.15890398e-02 9.35753395e-02 9.35753395e-02 3.11917798e-02 4.15890398e-02 1.45561639e-01 5.19862997e-02 4.15890398e-02 5.19862997e-02 9.35753395e-02 7.27808196e-02 4.15890398e-02 3.11917798e-02 2.07945199e-02 6.23835597e-02 5.19862997e-02 8.31780796e-02 5.19862997e-02 3.11917798e-02 4.15890398e-02 1.03972599e-02 4.15890398e-02 8.31780796e-02 1.03972599e-01 4.15890398e-02 4.15890398e-02 3.11917798e-02 4.15890398e-02 4.15890398e-02 1.03972599e-01 8.31780796e-02 5.19862997e-02 5.19862997e-02 6.23835597e-02 8.31780796e-02 2.07945199e-02 4.15890398e-02 5.19862997e-02 9.35753395e-02 5.19862997e-02 4.15890398e-02 7.27808196e-02 5.19862997e-02 5.19862997e-02 9.35753395e-02 5.19862997e-02 4.15890398e-02 1.14369859e-01 5.19862997e-02 7.27808196e-02 8.31780796e-02 6.23835597e-02 4.15890398e-02 8.31780796e-02 4.15890398e-02 3.11917798e-02 4.15890398e-02 4.15890398e-02 3.11917798e-02 3.11917798e-02 6.23835597e-02 5.19862997e-02 7.27808196e-02 4.15890398e-02 6.23835597e-02 5.19862997e-02 5.19862997e-02 6.23835597e-02 9.35753395e-02 3.11917798e-02 3.11917798e-02 8.31780796e-02 3.11917798e-02 6.23835597e-02 3.11917798e-02 3.11917798e-02 2.07945199e-02 5.19862997e-02 4.15890398e-02 6.23835597e-02 7.27808196e-02 5.19862997e-02 8.31780796e-02 3.11917798e-02 7.27808196e-02 5.19862997e-02 6.23835597e-02 4.15890398e-02 6.23835597e-02 8.31780796e-02 3.11917798e-02 5.19862997e-02 5.19862997e-02 6.23835597e-02 4.15890398e-02 5.19862997e-02 7.27808196e-02 7.27808196e-02 9.35753395e-02 4.15890398e-02 5.19862997e-02 1.03972599e-01 5.19862997e-02 0.00000000e+00 8.31780796e-02 3.11917798e-02 2.07945199e-02 5.19862997e-02 6.23835597e-02 1.03972599e-02 5.19862997e-02 3.11917798e-02 4.15890398e-02 6.23835597e-02 4.15890398e-02 1.24767119e-01 4.15890398e-02 6.23835597e-02 4.15890398e-02 4.15890398e-02 6.23835597e-02 7.27808196e-02 4.15890398e-02 5.19862997e-02 8.31780796e-02 4.15890398e-02 1.03972599e-01 3.11917798e-02 4.15890398e-02 2.07945199e-02 9.35753395e-02 4.15890398e-02 1.14369859e-01 7.27808196e-02 8.31780796e-02 6.23835597e-02 5.19862997e-02 1.03972599e-01 2.07945199e-02 6.23835597e-02 3.11917798e-02 4.15890398e-02 6.23835597e-02 4.15890398e-02 7.27808196e-02 6.23835597e-02 4.15890398e-02 3.11917798e-02 6.23835597e-02 7.27808196e-02 4.15890398e-02 6.23835597e-02 7.27808196e-02 4.15890398e-02 9.35753395e-02 6.23835597e-02 8.31780796e-02 5.19862997e-02 6.23835597e-02 3.11917798e-02 5.19862997e-02 6.23835597e-02 8.31780796e-02 6.23835597e-02 5.19862997e-02 5.19862997e-02 1.03972599e-02 5.19862997e-02 6.23835597e-02 8.31780796e-02 5.19862997e-02 8.31780796e-02 6.23835597e-02 8.31780796e-02 4.15890398e-02 6.23835597e-02 8.31780796e-02 1.03972599e-02 6.23835597e-02 5.19862997e-02 4.15890398e-02 5.19862997e-02 9.35753395e-02 8.31780796e-02 4.15890398e-02 8.31780796e-02 2.07945199e-02 1.35164379e-01 4.15890398e-02 6.23835597e-02 8.31780796e-02 6.23835597e-02 2.07945199e-02 5.19862997e-02 4.15890398e-02 1.24767119e-01 7.27808196e-02 5.19862997e-02 4.15890398e-02 7.27808196e-02 6.23835597e-02 4.15890398e-02 5.19862997e-02 7.27808196e-02 1.24767119e-01 4.15890398e-02 9.35753395e-02 6.23835597e-02 2.07945199e-02 4.15890398e-02 8.31780796e-02 8.31780796e-02 8.31780796e-02 6.23835597e-02 5.19862997e-02 2.07945199e-02 2.07945199e-02 0.00000000e+00 2.07945199e-02 3.11917798e-02 3.11917798e-02 3.11917798e-02 7.27808196e-02 3.11917798e-02 7.27808196e-02 8.31780796e-02 9.35753395e-02 5.19862997e-02 5.19862997e-02 3.11917798e-02 3.11917798e-02 5.19862997e-02 6.23835597e-02 5.19862997e-02 7.27808196e-02 7.27808196e-02 5.19862997e-02 3.11917798e-02 3.11917798e-02 5.19862997e-02 8.31780796e-02 4.15890398e-02 6.23835597e-02 8.31780796e-02 4.15890398e-02 9.35753395e-02 5.19862997e-02 9.35753395e-02 4.15890398e-02 2.07945199e-02 6.23835597e-02 7.27808196e-02 4.15890398e-02 7.27808196e-02 6.23835597e-02 5.19862997e-02 8.31780796e-02 6.23835597e-02 6.23835597e-02 8.31780796e-02 6.23835597e-02 9.35753395e-02 8.31780796e-02 5.19862997e-02 6.23835597e-02 1.03972599e-01 6.23835597e-02 6.23835597e-02 6.23835597e-02 7.27808196e-02 6.23835597e-02 7.27808196e-02 6.23835597e-02 3.11917798e-02 5.19862997e-02 9.35753395e-02 6.23835597e-02 6.23835597e-02 8.31780796e-02 5.19862997e-02 6.23835597e-02 6.23835597e-02 4.15890398e-02 5.19862997e-02 4.15890398e-02 8.31780796e-02 4.15890398e-02 5.19862997e-02 6.23835597e-02 9.35753395e-02 5.19862997e-02 8.31780796e-02 8.31780796e-02 6.23835597e-02 0.00000000e+00 8.31780796e-02 5.19862997e-02 1.03972599e-01 3.11917798e-02 5.19862997e-02 1.14369859e-01 8.31780796e-02 5.19862997e-02 7.27808196e-02 1.14369859e-01 6.23835597e-02 6.23835597e-02 3.11917798e-02 9.35753395e-02 8.31780796e-02 5.19862997e-02 5.19862997e-02 3.11917798e-02 1.03972599e-01 7.27808196e-02 7.27808196e-02 6.23835597e-02 4.15890398e-02 7.27808196e-02 3.11917798e-02 4.15890398e-02 7.27808196e-02 5.19862997e-02 5.19862997e-02 5.19862997e-02 9.35753395e-02 8.31780796e-02 7.27808196e-02 9.35753395e-02 6.23835597e-02 3.11917798e-02 8.31780796e-02 3.11917798e-02 8.31780796e-02 4.15890398e-02 5.19862997e-02 2.07945199e-02 3.11917798e-02 1.03972599e-02 7.27808196e-02 1.24767119e-01 3.11917798e-02 2.07945199e-02 7.27808196e-02 4.15890398e-02 8.31780796e-02 8.31780796e-02 6.23835597e-02 2.07945199e-02 5.19862997e-02 6.23835597e-02 3.11917798e-02 3.11917798e-02 4.15890398e-02 3.11917798e-02 6.23835597e-02 5.19862997e-02 6.23835597e-02 6.23835597e-02 2.07945199e-02 9.35753395e-02 5.19862997e-02 3.11917798e-02 2.07945199e-02 6.23835597e-02 3.11917798e-02 2.07945199e-02 5.19862997e-02 4.15890398e-02 7.27808196e-02 6.23835597e-02 3.11917798e-02 3.11917798e-02 7.27808196e-02 6.23835597e-02 8.31780796e-02 9.35753395e-02 6.23835597e-02 1.14369859e-01 7.27808196e-02 7.27808196e-02 4.15890398e-02 4.15890398e-02 8.31780796e-02 4.15890398e-02 6.23835597e-02 7.27808196e-02 4.15890398e-02 5.19862997e-02 4.15890398e-02 7.27808196e-02 1.03972599e-01 2.07945199e-02 2.07945199e-02 5.19862997e-02 1.24767119e-01 5.19862997e-02 1.03972599e-01 4.15890398e-02 0.00000000e+00 6.23835597e-02 4.15890398e-02 5.19862997e-02 5.19862997e-02 4.15890398e-02 3.11917798e-02 7.27808196e-02 8.31780796e-02 5.19862997e-02 7.27808196e-02 7.27808196e-02 6.23835597e-02 9.35753395e-02 7.27808196e-02 5.19862997e-02 5.19862997e-02 7.27808196e-02 4.15890398e-02 2.07945199e-02 9.35753395e-02 1.24767119e-01 9.35753395e-02 2.07945199e-02 3.11917798e-02 5.19862997e-02 8.31780796e-02 7.27808196e-02 6.23835597e-02 6.23835597e-02 4.15890398e-02 7.27808196e-02 4.15890398e-02 2.07945199e-02 6.23835597e-02 2.07945199e-02 6.23835597e-02 8.31780796e-02 6.23835597e-02 4.15890398e-02 4.15890398e-02 5.19862997e-02 7.27808196e-02 4.15890398e-02 5.19862997e-02 1.35164379e-01 4.15890398e-02 9.35753395e-02 4.15890398e-02 5.19862997e-02 4.15890398e-02 7.27808196e-02 7.27808196e-02 6.23835597e-02 4.15890398e-02 2.07945199e-02 6.23835597e-02 0.00000000e+00 8.31780796e-02 7.27808196e-02 7.27808196e-02 3.11917798e-02 3.11917798e-02 3.11917798e-02 6.23835597e-02 5.19862997e-02 3.11917798e-02 7.27808196e-02 9.35753395e-02 5.19862997e-02 8.31780796e-02 5.19862997e-02 6.23835597e-02 3.11917798e-02 7.27808196e-02 3.11917798e-02 4.15890398e-02 5.19862997e-02 8.31780796e-02 6.23835597e-02 6.23835597e-02 6.23835597e-02 8.31780796e-02 1.03972599e-02 6.23835597e-02 3.11917798e-02 8.31780796e-02 2.07945199e-02 1.03972599e-02 1.03972599e-02 8.31780796e-02 2.07945199e-02 1.35164379e-01 4.15890398e-02 6.23835597e-02 7.27808196e-02 6.23835597e-02 1.03972599e-01 4.15890398e-02 7.27808196e-02 8.31780796e-02 1.03972599e-02 5.19862997e-02 5.19862997e-02 4.15890398e-02 7.27808196e-02 2.07945199e-02 4.15890398e-02 5.19862997e-02 7.27808196e-02 5.19862997e-02 7.27808196e-02 7.27808196e-02 4.15890398e-02 9.35753395e-02 4.15890398e-02 4.15890398e-02 1.14369859e-01 7.27808196e-02 7.27808196e-02 5.19862997e-02 4.15890398e-02 6.23835597e-02 6.23835597e-02 7.27808196e-02 6.23835597e-02 2.07945199e-02 6.23835597e-02 3.11917798e-02 3.11917798e-02 8.31780796e-02 4.15890398e-02 4.15890398e-02 5.19862997e-02 8.31780796e-02 3.11917798e-02 2.07945199e-02 4.15890398e-02 3.11917798e-02 8.31780796e-02 5.19862997e-02 5.19862997e-02 4.15890398e-02 5.19862997e-02 7.27808196e-02 9.35753395e-02 3.11917798e-02 6.23835597e-02 6.23835597e-02 3.11917798e-02 8.31780796e-02 4.15890398e-02 8.31780796e-02 4.15890398e-02 6.23835597e-02 2.07945199e-02 2.07945199e-02 5.19862997e-02 7.27808196e-02 7.27808196e-02 6.23835597e-02 6.23835597e-02 3.11917798e-02 7.27808196e-02 7.27808196e-02 5.19862997e-02 1.14369859e-01 5.19862997e-02 7.27808196e-02 5.19862997e-02 6.23835597e-02 5.19862997e-02 2.07945199e-02 6.23835597e-02 5.19862997e-02 4.15890398e-02 3.11917798e-02 2.07945199e-02 4.15890398e-02 4.15890398e-02 8.31780796e-02 7.27808196e-02 6.23835597e-02 4.15890398e-02 9.35753395e-02 8.31780796e-02 1.03972599e-02 9.35753395e-02 9.35753395e-02 8.31780796e-02 6.23835597e-02 4.15890398e-02 9.35753395e-02 3.11917798e-02 5.19862997e-02 3.11917798e-02 5.19862997e-02 7.27808196e-02 7.27808196e-02 7.27808196e-02 5.19862997e-02 0.00000000e+00 5.19862997e-02 4.15890398e-02 9.35753395e-02 3.11917798e-02 4.15890398e-02 4.15890398e-02 4.15890398e-02 1.14369859e-01 6.23835597e-02 7.27808196e-02 8.31780796e-02 5.19862997e-02 6.23835597e-02 7.27808196e-02 5.19862997e-02 4.15890398e-02 5.19862997e-02 6.23835597e-02 6.23835597e-02 5.19862997e-02 5.19862997e-02 3.11917798e-02 6.23835597e-02 6.23835597e-02 5.19862997e-02 6.23835597e-02 4.15890398e-02 5.19862997e-02 6.23835597e-02 6.23835597e-02 4.15890398e-02 3.11917798e-02 3.11917798e-02 5.19862997e-02 9.35753395e-02 7.27808196e-02 4.15890398e-02 1.03972599e-02 5.19862997e-02 4.15890398e-02 8.31780796e-02 4.15890398e-02 1.03972599e-01 5.19862997e-02 5.19862997e-02 6.23835597e-02 6.23835597e-02 5.19862997e-02 8.31780796e-02 6.23835597e-02 3.11917798e-02 5.19862997e-02 1.24767119e-01 3.11917798e-02 8.31780796e-02 9.35753395e-02 5.19862997e-02 4.15890398e-02 6.23835597e-02 5.19862997e-02 5.19862997e-02 1.03972599e-02 5.19862997e-02 4.15890398e-02 3.11917798e-02 2.07945199e-02 8.31780796e-02 2.07945199e-02 1.35164379e-01 6.23835597e-02 8.31780796e-02 2.07945199e-02 7.27808196e-02 7.27808196e-02 8.31780796e-02 6.23835597e-02 4.15890398e-02 1.03972599e-01 8.31780796e-02 8.31780796e-02 4.15890398e-02 3.11917798e-02 6.23835597e-02 5.19862997e-02 7.27808196e-02 4.15890398e-02 7.27808196e-02 8.31780796e-02 5.19862997e-02 9.35753395e-02 3.11917798e-02 4.15890398e-02 5.19862997e-02 7.27808196e-02 6.23835597e-02 4.15890398e-02 2.07945199e-02 4.15890398e-02 9.35753395e-02 2.07945199e-02 3.11917798e-02 3.11917798e-02 8.31780796e-02 7.27808196e-02 2.07945199e-02 5.19862997e-02 5.19862997e-02 2.07945199e-02 2.07945199e-02 7.27808196e-02 4.15890398e-02 6.23835597e-02 7.27808196e-02 4.15890398e-02 8.31780796e-02 5.19862997e-02 4.15890398e-02 4.15890398e-02 5.19862997e-02 4.15890398e-02 7.27808196e-02 4.15890398e-02 7.27808196e-02 1.03972599e-02 6.23835597e-02 3.11917798e-02 5.19862997e-02 9.35753395e-02 5.19862997e-02 3.11917798e-02 6.23835597e-02 5.19862997e-02 4.15890398e-02 3.11917798e-02 4.15890398e-02 6.23835597e-02 3.11917798e-02 7.27808196e-02 7.27808196e-02 5.19862997e-02 6.23835597e-02 4.15890398e-02 6.23835597e-02 6.23835597e-02 5.19862997e-02 7.27808196e-02 0.00000000e+00 4.15890398e-02 8.31780796e-02 2.07945199e-02 6.23835597e-02 5.19862997e-02 0.00000000e+00 5.19862997e-02 7.27808196e-02 3.11917798e-02 5.19862997e-02 8.31780796e-02 6.23835597e-02 7.27808196e-02 4.15890398e-02 3.11917798e-02 6.23835597e-02 6.23835597e-02 7.27808196e-02 6.23835597e-02 8.31780796e-02 7.27808196e-02 2.07945199e-02 2.07945199e-02 9.35753395e-02 9.35753395e-02 7.27808196e-02 5.19862997e-02 5.19862997e-02 7.27808196e-02 3.11917798e-02 7.27808196e-02 6.23835597e-02 1.03972599e-01 4.15890398e-02 6.23835597e-02 7.27808196e-02 8.31780796e-02 3.11917798e-02 7.27808196e-02 5.19862997e-02 3.11917798e-02 3.11917798e-02 2.07945199e-02 9.35753395e-02 1.03972599e-01 1.03972599e-01 4.15890398e-02 5.19862997e-02 3.11917798e-02 3.11917798e-02 2.07945199e-02 7.27808196e-02 3.11917798e-02 6.23835597e-02 4.15890398e-02 1.03972599e-01 5.19862997e-02 9.35753395e-02 4.15890398e-02 6.23835597e-02 4.15890398e-02 5.19862997e-02 4.15890398e-02 1.03972599e-01 5.19862997e-02 6.23835597e-02 4.15890398e-02 2.07945199e-02 1.03972599e-01 1.24767119e-01 3.11917798e-02 3.11917798e-02 3.11917798e-02 3.11917798e-02 4.15890398e-02 1.03972599e-01 3.11917798e-02 9.35753395e-02 5.19862997e-02 3.11917798e-02 7.27808196e-02 5.19862997e-02 9.35753395e-02 1.24767119e-01 6.23835597e-02 6.23835597e-02 4.15890398e-02 5.19862997e-02 1.03972599e-01 4.15890398e-02 4.15890398e-02 3.11917798e-02 5.19862997e-02 5.19862997e-02 4.15890398e-02 7.27808196e-02 6.23835597e-02 4.15890398e-02 6.23835597e-02 6.23835597e-02 3.11917798e-02 4.15890398e-02 9.35753395e-02 6.23835597e-02 5.19862997e-02 6.23835597e-02 8.31780796e-02 4.15890398e-02 6.23835597e-02 2.07945199e-02 4.15890398e-02 7.27808196e-02 8.31780796e-02 5.19862997e-02 4.15890398e-02 5.19862997e-02 5.19862997e-02 6.23835597e-02 1.03972599e-02 1.24767119e-01 2.07945199e-02 4.15890398e-02 2.07945199e-02 6.23835597e-02 1.03972599e-01 6.23835597e-02 8.31780796e-02 3.11917798e-02 4.15890398e-02 4.15890398e-02 2.07945199e-02 6.23835597e-02 8.31780796e-02 3.11917798e-02 5.19862997e-02 8.31780796e-02 6.23835597e-02 6.23835597e-02 9.35753395e-02 7.27808196e-02 8.31780796e-02 6.23835597e-02 6.23835597e-02 5.19862997e-02 5.19862997e-02 7.27808196e-02 6.23835597e-02 3.11917798e-02 1.35164379e-01 6.23835597e-02 5.19862997e-02 5.19862997e-02 5.19862997e-02 5.19862997e-02 7.27808196e-02 3.11917798e-02 6.23835597e-02 3.11917798e-02 4.15890398e-02 7.27808196e-02 7.27808196e-02 3.11917798e-02 4.15890398e-02 6.23835597e-02 6.23835597e-02 7.27808196e-02 5.19862997e-02 9.35753395e-02 5.19862997e-02 5.19862997e-02 5.19862997e-02 5.19862997e-02 5.19862997e-02 7.27808196e-02 5.19862997e-02 6.23835597e-02 5.19862997e-02 9.35753395e-02 6.23835597e-02 8.31780796e-02 5.19862997e-02 8.31780796e-02 1.14369859e-01 7.27808196e-02 3.11917798e-02 5.19862997e-02 6.23835597e-02 6.23835597e-02 6.23835597e-02 3.11917798e-02 5.19862997e-02 6.23835597e-02 4.15890398e-02 6.23835597e-02 5.19862997e-02 5.19862997e-02 3.11917798e-02 5.19862997e-02 6.23835597e-02 6.23835597e-02 8.31780796e-02 6.23835597e-02 8.31780796e-02 1.03972599e-01 1.03972599e-01 4.15890398e-02 3.11917798e-02 2.07945199e-02 8.31780796e-02 7.27808196e-02 6.23835597e-02 1.03972599e-01 8.31780796e-02 9.35753395e-02 8.31780796e-02 5.19862997e-02 5.19862997e-02 5.19862997e-02 7.27808196e-02 4.15890398e-02 4.15890398e-02 7.27808196e-02 3.11917798e-02 4.15890398e-02 1.14369859e-01 8.31780796e-02 4.15890398e-02 2.07945199e-02 3.11917798e-02 8.31780796e-02 1.03972599e-02 4.15890398e-02 5.19862997e-02 9.35753395e-02 5.19862997e-02 9.35753395e-02 4.15890398e-02 6.23835597e-02 6.23835597e-02 6.23835597e-02 7.27808196e-02 6.23835597e-02 5.19862997e-02 5.19862997e-02 5.19862997e-02 4.15890398e-02 3.11917798e-02 5.19862997e-02 5.19862997e-02 6.23835597e-02 6.23835597e-02 7.27808196e-02 5.19862997e-02 5.19862997e-02 4.15890398e-02 4.15890398e-02 5.19862997e-02 2.07945199e-02 2.07945199e-02 3.11917798e-02 4.15890398e-02 4.15890398e-02 5.19862997e-02 6.23835597e-02 6.23835597e-02 1.03972599e-01 8.31780796e-02 6.23835597e-02 3.11917798e-02 4.15890398e-02 9.35753395e-02 3.11917798e-02 9.35753395e-02 4.15890398e-02 9.35753395e-02 3.11917798e-02 3.11917798e-02 4.15890398e-02 5.19862997e-02 8.31780796e-02 4.15890398e-02 6.23835597e-02 5.19862997e-02 7.27808196e-02 5.19862997e-02 8.31780796e-02 4.15890398e-02 6.23835597e-02 1.24767119e-01 4.15890398e-02 4.15890398e-02 3.11917798e-02 9.35753395e-02 1.03972599e-01 5.19862997e-02 3.11917798e-02 7.27808196e-02 3.11917798e-02 6.23835597e-02 4.15890398e-02 5.19862997e-02 9.35753395e-02 7.27808196e-02 3.11917798e-02 1.03972599e-01 3.11917798e-02 7.27808196e-02 4.15890398e-02 9.35753395e-02 3.11917798e-02 6.23835597e-02 5.19862997e-02 2.07945199e-02 5.19862997e-02 3.11917798e-02 4.15890398e-02 8.31780796e-02 1.03972599e-01 9.35753395e-02 6.23835597e-02 2.07945199e-02 5.19862997e-02 7.27808196e-02 8.31780796e-02 6.23835597e-02 5.19862997e-02 4.15890398e-02 5.19862997e-02 5.19862997e-02 3.11917798e-02 3.11917798e-02 7.27808196e-02 9.35753395e-02 